{"input_size": 40, "hidden1": 256, "hidden2": 32, "fc1_weight": [[-3.310105193474153e-40, -5.765320232817665e-40, -5.576453225795966e-40, -5.419802070469095e-40, -5.404850215854749e-40, -4.938007632464936e-40, -5.095177268223608e-40, -5.0233326959576745e-40, -5.089992463905606e-40, -2.436577769767992e-41, -5.22262536355395e-40, -5.30653511559772e-40, -5.074816401536968e-40, -4.153098323642677e-40, -5.1892324211490896e-40, -4.027598033177746e-40, -5.506514419441515e-40, -5.000029102495953e-40, -3.0258237740165775e-41, -4.971694847547305e-40, 4.921262115816255e-40, -5.214441780522293e-40, -5.1025621111306e-40, -4.987641624071321e-40, -5.118172576023178e-40, -5.1267204966555595e-40, -5.119573874487503e-40, -5.091421788339217e-40, -5.0249722151609345e-40, 4.050635379931246e-40, -5.029106045630693e-40, -5.149057194176897e-40, -5.286426482634659e-40, -5.009571945038005e-40, -5.104944318519952e-40, -5.164135165653032e-40, -5.112062914718722e-40, -5.014658658463504e-40, 5.047336938651559e-40, -4.921374219693401e-40], [-5.164975944731627e-40, -5.250973631487241e-40, -4.982498858707249e-40, -5.071313155376156e-40, -5.465862750991452e-40, 1.1865214486977524e-40, -5.453124947950739e-40, -5.231229336124904e-40, -4.429308263945741e-40, -4.988958844627787e-40, -5.426738497867503e-40, -5.479553436987905e-40, -5.178988929374875e-40, -5.349947342022503e-40, -5.528893155916782e-40, 5.318207931805546e-40, -5.4028883980046944e-40, -5.112791589920171e-40, -4.6819483640788626e-40, 4.9194964797512055e-40, -4.979023638515724e-40, -4.912475974444938e-40, -5.008605049097621e-40, -4.987235247516667e-40, -5.160505802630431e-40, -4.914269636479274e-40, -5.100628319249831e-40, -5.009515893099432e-40, 5.3800752590054864e-40, -4.951235889968163e-40, -5.032048772405775e-40, -5.02797099387459e-40, -5.905968559681947e-40, -5.1270007563484245e-40, -4.97749622318961e-40, -5.144699155952847e-40, -4.926432907149613e-40, -4.981125586212211e-40, -5.485859280077367e-40, -4.997394661383022e-40], [5.389660140501468e-40, 5.271026212511729e-40, 5.070220142573983e-40, 5.05972441707619e-40, 5.35260980910472e-40, -4.9065624949254875e-40, -5.180446279777773e-40, 2.714343151366457e-40, -5.3114536732075e-40, -5.2143016506758606e-40, -5.5198267548526004e-40, 2.8866468105398367e-40, 3.360397795358771e-40, -4.987389390347743e-40, -6.242798671551703e-40, 2.1581677908759373e-40, -5.205865833920625e-40, -4.479026333459986e-40, -4.942561852473992e-40, -4.922299076679855e-40, -4.970798016530137e-40, -4.9089867412687694e-40, -5.082411439213609e-40, -5.176648760939453e-40, -4.9473262672526964e-40, -5.0996754362940905e-40, -4.997941167784109e-40, -5.037359693585566e-40, 4.93241645159228e-40, -5.215660910186256e-40, -4.987221234532024e-40, -4.953870331081093e-40, -4.956350629362948e-40, -5.052591807892777e-40, -5.0755590897230604e-40, -4.990388169061398e-40, -4.968205614371136e-40, -5.067627740414982e-40, 4.992700311527534e-40, -4.964996640887832e-40], [0.15279944241046906, 0.02093343809247017, -0.13865427672863007, -0.026091234758496284, 0.07558900117874146, 0.11015646904706955, 0.23813502490520477, 0.2530001699924469, 0.34772783517837524, 0.012322266586124897, -0.014988620765507221, 0.03947692736983299, 0.03297094628214836, -0.020334899425506592, -0.023340405896306038, -0.046709612011909485, -0.1645907163619995, -0.1634027659893036, -0.7972841858863831, 0.6422656774520874, 0.2398955076932907, 0.16601943969726562, 0.06663239747285843, 0.007581197656691074, -0.10158362239599228, -0.015128321945667267, -0.07599473744630814, -0.09645698219537735, 4.968668042864363e-40, -0.048445358872413635, 0.09798403829336166, 0.09476558864116669, -0.046993013471364975, -0.1091647669672966, -0.1846202313899994, 0.12356444448232651, 0.13486267626285553, 0.07971100509166718, 5.015387333664953e-40, -0.04750405624508858], [-3.124335056058612e-41, 5.235545335395025e-40, 5.179661552637751e-40, -5.032917577453656e-40, -5.201129445111207e-40, -5.089333853627373e-40, -4.907319196096223e-40, -4.962376212759545e-40, -5.19738797821146e-40, 1.18034172247008e-40, 1.3467319021240087e-40, -5.255219565834145e-40, 4.9408382553628725e-40, -4.965949523843573e-40, 2.686149026264242e-41, -5.1304479505706635e-40, -4.9996787778798716e-40, -7.119857367387963e-41, -4.93741908710992e-40, -4.904600677075433e-40, -4.970713938622278e-40, -5.012654801659519e-40, -4.93802164544958e-40, -5.1423029355788515e-40, -5.0064470494625604e-40, -5.120274523719665e-40, -5.10420163033386e-40, -5.17154803452931e-40, 6.092817696915018e-40, -4.909028780222699e-40, -3.046464900396082e-40, 4.906296248217266e-40, 5.062386884158407e-40, 5.142387013486711e-40, 4.906758676710493e-40, 5.142316948563495e-40, -6.162476243576605e-40, 5.002789660470673e-40, 4.975380262508479e-40, -5.15075276531873e-40], [0.22083653509616852, 0.030542446300387383, 0.0031061056070029736, -0.03219933062791824, -0.5746046900749207, 0.0403413400053978, -0.5551786422729492, -0.5093801617622375, -0.582574725151062, 0.10900751501321793, 0.22689972817897797, 0.22390811145305634, 0.1268899142742157, 0.14096716046333313, 0.11883558332920074, 0.1366444230079651, 0.12368326634168625, 0.057194001972675323, -0.5068447589874268, 0.6915490031242371, 0.0059509570710361, 0.004162605851888657, 0.007381117902696133, 0.007619117386639118, 0.013222552835941315, 0.008015046827495098, 0.022894948720932007, 0.043675512075424194, 4.946723708913037e-40, -0.21549126505851746, -0.03340620547533035, -0.013773463666439056, -0.02965056523680687, -0.03163914382457733, -0.04502977058291435, -0.0173935703933239, -0.04006378352642059, 0.03271767124533653, 5.006979542879004e-40, 0.07914818823337555], [0.017361756414175034, -0.01623859629034996, -0.03421727567911148, -0.029329940676689148, -0.02655624784529209, -0.02028699591755867, -0.018057461827993393, -0.005444522947072983, -0.025748588144779205, -0.00487227737903595, 0.015199873596429825, 0.020826730877161026, 0.017544087022542953, 0.009781532920897007, 0.012648459523916245, 0.006571494974195957, -0.005821232683956623, -0.023546218872070312, -0.09959673881530762, 0.12574557960033417, 0.01722428761422634, 0.018358007073402405, 0.007012329995632172, -0.0026274044066667557, -0.0010036389576271176, -0.006703570950776339, -0.006539653521031141, -0.00912182591855526, 5.156596179914965e-40, -0.026422692462801933, 0.0029472943861037493, 0.0007332506938837469, 0.0073342230170965195, -0.0028139548376202583, -0.0018745650304481387, -0.0012700961669906974, -0.002354300580918789, 0.0169840045273304, -4.9986558300009145e-40, -0.03219880536198616], [-0.027411069720983505, 0.09826864302158356, 0.3806157112121582, 0.18177823722362518, 0.08206447958946228, 0.034440550953149796, 0.11427728086709976, 0.0925908014178276, 0.2321617603302002, -0.06605646014213562, -0.058021627366542816, 0.022146036848425865, 0.038820065557956696, 0.05698210000991821, 0.06984983384609222, 0.054797738790512085, -0.022701943293213844, -0.039098601788282394, -0.6068006157875061, 0.270156592130661, 0.09173509478569031, -0.006360031198710203, -0.018890559673309326, 0.027603652328252792, 0.013857374899089336, 0.08238033950328827, -0.0983775332570076, -0.08898597955703735, 4.905973949570471e-40, 0.22826649248600006, 0.07215913385152817, 0.007577124517410994, -0.002157163107767701, 0.04365984722971916, 0.022731203585863113, 0.1837632954120636, 0.12292423099279404, -0.0021699583157896996, -4.993400960759696e-40, -0.22402900457382202], [-0.02504817582666874, 0.01651765964925289, 0.03744897618889809, 0.05237073451280594, 0.008911403827369213, 0.027875933796167374, 0.00885847955942154, -0.014617710374295712, -0.1602153778076172, 0.024176742881536484, 0.01977987214922905, 0.22397352755069733, 0.11741387099027634, 0.13881070911884308, 0.11415202170610428, -0.06595063954591751, 0.05516549572348595, 0.10414116829633713, 0.3065996766090393, -0.49389195442199707, 0.08082931488752365, -0.018239809200167656, 0.0017738527385517955, 0.005628511309623718, 0.06905882805585861, 0.08448508381843567, 0.075040802359581, -0.009748895652592182, 5.059570274245114e-40, -0.16723871231079102, 0.08081694692373276, -0.0006558381719514728, 0.005246284417808056, 0.007477200590074062, -0.010455556213855743, 0.0009722221875563264, -0.02999289520084858, -0.020050494000315666, 4.9505492537206435e-40, 0.0879790186882019], [-5.36473104082113e-40, -5.3831861415962875e-40, -4.991341052017139e-40, -5.0998996440483825e-40, -5.037948238940582e-40, -4.942996254997933e-40, -5.028069084767092e-40, -5.112581395150522e-40, -5.041717731809616e-40, -4.92145829760126e-40, -5.011603827811276e-40, -5.498695174010582e-40, -5.197486069103963e-40, -5.0794546994538834e-40, -5.371485299419175e-40, -5.299234350598588e-40, -5.0573281967021946e-40, 2.162217543437836e-40, -5.77819816570481e-40, -5.1766347479548095e-40, -4.983619897478709e-40, -4.9731381849655595e-40, -5.2031192889305485e-40, -5.0850458803265394e-40, -5.00053356994311e-40, -5.493342213876861e-40, -5.228034375626244e-40, -5.0440579002450385e-40, -4.926881322658197e-40, -4.9990481935709254e-40, -4.947396332175913e-40, -5.367393507903347e-40, -5.0133414379070385e-40, -5.268321706475582e-40, -5.112048901734079e-40, -5.1554611281588615e-40, -5.321711177966358e-40, -5.071313155376156e-40, 5.0935237360357046e-40, -4.973166210934846e-40], [-5.327036112130792e-40, -5.497448018377333e-40, -5.208248041309977e-40, -5.245368437629942e-40, -5.0554644697446425e-40, -5.4559135318947455e-40, -4.049318159374781e-40, -5.220369273026387e-40, -3.0167293469831094e-40, -5.426304095343562e-40, -5.009179581467994e-40, -6.049545600336668e-41, -5.295689065483846e-40, -5.376487934936815e-40, -2.169055879943741e-40, -5.32845142357976e-40, -5.43876163869141e-40, -5.089473983473806e-40, -4.924709310038494e-40, -4.9118173641667055e-40, -4.920743635384455e-40, -4.9794580410396645e-40, -4.92266341428058e-40, -5.005704361276468e-40, -5.0353558367815814e-40, -4.972465561702684e-40, -4.906772689695136e-40, -5.058953702920811e-40, 4.9230557778505906e-40, -4.938371970065661e-40, -4.9364381781848926e-40, -6.105457409063228e-40, -4.952230811877833e-40, -4.972255366933035e-40, -4.909813507362721e-40, -5.0379061999866526e-40, -2.3958560363947127e-40, -5.202250483882667e-40, 4.953001526033212e-40, -6.05296476858962e-40], [0.006939058657735586, -0.007959574460983276, 0.08675242960453033, 0.07341481745243073, 0.06915416568517685, 0.09164693206548691, 0.10027772188186646, 0.12690900266170502, 0.040528133511543274, -0.013318859040737152, 0.009841089136898518, 0.04171163588762283, 0.0515596903860569, 0.05781802162528038, 0.04102368280291557, 0.016103075817227364, -0.032687921077013016, -0.11944318562746048, -0.38338562846183777, 0.22870957851409912, 0.020262157544493675, 0.019364871084690094, 0.012283006682991982, 0.02103087119758129, 0.006676830351352692, 0.005092056468129158, 0.0009330915054306388, 0.0009327639709226787, 4.971316496961937e-40, 0.02534354291856289, 0.0295493695884943, 0.02721942774951458, 0.040279194712638855, -0.0183536559343338, 0.04358430206775665, 0.04835269972681999, 0.04436643049120903, 0.04078202694654465, -4.987277286470597e-40, -0.14305046200752258], [-5.576271056995604e-40, -5.263795512435813e-40, -4.939745242560699e-40, -5.2549533191259235e-40, -5.145932298601453e-40, -5.2466576322171206e-40, -1.77983121849288e-40, -5.20726713238495e-40, -5.345827524537388e-40, -5.513254665054917e-40, 5.134147378516481e-40, -3.972555029499067e-40, -4.5445650626364575e-40, -5.194781563067816e-40, -5.1899050444119655e-40, -5.226731168054422e-40, -5.74856070318434e-40, 5.187144486437246e-40, -4.986562624253791e-40, -5.074816401536968e-40, -4.9348547109202055e-40, -6.088908074199552e-40, -5.13319449556074e-40, 4.964169874793881e-40, -5.032385084037213e-40, -5.145329740261793e-40, -5.239454958110491e-40, 5.102772305900248e-40, -5.307025570060234e-40, -4.926881322658197e-40, -4.927315725182138e-40, -5.713093839052279e-40, -5.116350888019556e-40, -4.938680255727812e-40, -5.12391789972691e-40, -5.11567826475668e-40, -4.978224898391059e-40, 4.969200536280807e-40, -6.1844205775279314e-40, -4.970559795791202e-40], [-0.022084226831793785, -0.09902272373437881, 0.005968383047729731, 0.01625746861100197, 0.1276673674583435, 0.036917850375175476, -0.057719338685274124, -0.11385177820920944, -0.1003873199224472, 0.07390059530735016, 0.1718272864818573, 0.38968440890312195, 0.3728673756122589, 0.3713562786579132, 0.31303122639656067, 0.2016163319349289, -0.13456417620182037, -0.08586593717336655, 0.3640159070491791, -0.7334339022636414, 0.022066619247198105, 0.04397590085864067, -0.05031314492225647, -0.08699220418930054, -0.07585011422634125, 0.2301948517560959, 0.2162749469280243, 0.08110266923904419, -4.941791138318613e-40, -0.12406687438488007, 0.07854901999235153, 0.06444238126277924, 0.08227557688951492, 0.09739689528942108, -0.10205457359552383, 0.010776081122457981, -0.014417742379009724, -0.07840878516435623, -5.018372099393965e-40, 0.11886519938707352], [-0.26030653715133667, 0.0868254229426384, 0.14042316377162933, 0.22856850922107697, 0.20177960395812988, 0.2276015281677246, 0.186740905046463, -0.05047665536403656, -0.19223377108573914, 0.12334548681974411, 0.017699692398309708, -0.009928717277944088, -0.11706183105707169, -0.04035615921020508, -0.0711597204208374, -0.06359946727752686, -0.22834865748882294, -0.3835223913192749, 0.878763735294342, -0.7659080028533936, 0.04297221079468727, 0.028365012258291245, 0.10016468912363052, 0.05267702043056488, 0.031646598130464554, 0.018824676051735878, 0.03697418421506882, 0.03732734173536301, -4.928044400383587e-40, -0.3647138178348541, 0.3518849015235901, -0.09112383425235748, -0.03440343588590622, -0.055799536406993866, -0.02345215156674385, -0.09024112671613693, -0.09207543730735779, -0.11539941281080246, -5.001808751545645e-40, 0.1296616643667221], [4.988398325242057e-40, -4.991873545433582e-40, -5.220593480780679e-40, -5.374988545579987e-40, -5.264538200621905e-40, -5.239609100941567e-40, 1.8711818653822147e-40, 3.542510543782424e-40, -5.2360918417961115e-40, 5.250651332840446e-40, -4.956126421608656e-40, -5.161696906325107e-40, -5.1070742921857256e-40, -5.300369402354691e-40, -5.19078786244449e-40, -4.947424358145199e-40, -5.3339725395292e-40, -3.1974828358963676e-40, -4.944327488539041e-40, -4.995516921440827e-40, -4.967967393632201e-40, -4.937923554557077e-40, -4.9426459303818515e-40, -5.624826048784459e-40, -5.046776419265829e-40, 4.9598678885084035e-40, -4.911312896719549e-40, -5.0807579070257055e-40, 5.016550411390342e-40, -5.046412081665104e-40, -4.9337196591641024e-40, -4.909603312593072e-40, -4.9310151531279555e-40, -5.072896622640843e-40, -4.995446856517611e-40, -5.545344399887955e-40, -4.957443642165122e-40, -4.9116492083509866e-40, -4.906030001509044e-40, -4.92037929778373e-40], [-0.025752132758498192, -0.004189408849924803, 0.12734921276569366, 0.1692039668560028, 0.12638641893863678, 0.10037040710449219, 0.17403843998908997, 0.15872663259506226, 0.24460914731025696, -0.08379057049751282, -0.056086763739585876, -0.004526379052549601, 0.06648813188076019, 0.07050205022096634, 0.0732177346944809, 0.06375639140605927, 0.012357456609606743, -0.03315611928701401, -0.6944093108177185, 0.38745200634002686, 0.046427857130765915, -0.01376053411513567, -0.0020417096093297005, -0.00857504177838564, 0.013515853323042393, -0.008000669069588184, -0.024209989234805107, -0.025875316932797432, -5.314088114320431e-40, 0.25244438648223877, 0.0836288258433342, 0.06373905390501022, 0.014284552074968815, 0.0008972037467174232, 0.09241966158151627, 0.10065629333257675, 0.08098027855157852, 0.059130165725946426, -5.033085733269375e-40, -0.2695043385028839], [-5.8107923679850054e-40, -4.644141331511379e-40, 5.1035990719942e-40, -4.9100657410862995e-40, 5.176732838847312e-40, -5.400099814060688e-40, -2.698914855274241e-40, -5.034430979795127e-40, 5.075839349415925e-40, -5.220523415857463e-40, 5.374077701578176e-40, 5.413272019625341e-40, 5.10687811040072e-40, -5.096718696534365e-40, 5.153401219416304e-40, -5.354011107569045e-40, -5.121801939045779e-40, 5.310360660405327e-40, -4.950955630275298e-40, -4.961129057126296e-40, -4.907501364896585e-40, -4.973208249888776e-40, 4.924695297053851e-40, -4.912013545951711e-40, -4.965893471905e-40, -5.081248361488219e-40, -4.938666242743169e-40, -5.054357443957826e-40, -4.935457269259865e-40, -5.006264880662198e-40, -4.914760090941788e-40, -5.0756711936002064e-40, 5.12991545715422e-40, -4.9121536757981435e-40, -5.075895401354498e-40, -5.0886051784259245e-40, -5.003924712226776e-40, -4.939156697205683e-40, 5.309379751480299e-40, -5.007441971372231e-40], [-0.02017812617123127, 0.03882996737957001, 0.16235585510730743, 0.18707169592380524, -0.04851891100406647, -0.002576528349891305, 0.05642436444759369, 0.053744859993457794, 0.07908299565315247, -0.058036305010318756, -0.016935115680098534, -0.0019351191585883498, 0.03838374465703964, 0.0101272352039814, 0.00482576247304678, 0.028241999447345734, -0.005393532570451498, -0.12559498846530914, -0.3668987452983856, 0.282031774520874, 0.05568733811378479, -0.04767848551273346, 0.015514272265136242, -0.0718081146478653, -0.01252385601401329, 0.04471508786082268, 0.04015311598777771, -0.034700483083724976, 5.483421020749442e-40, 0.07682467252016068, 0.08912713080644608, -0.03679196164011955, -0.020290421321988106, 0.05515402927994728, 0.06379704177379608, 0.03191034123301506, 0.0463426448404789, -0.028885938227176666, -5.0499293408105595e-40, -0.13254433870315552], [-0.012249886058270931, 0.06433217227458954, -0.09748965501785278, -0.0714399591088295, -0.19836077094078064, -0.25362080335617065, -0.10261324048042297, -0.10529700666666031, -0.1457790732383728, -0.05406219884753227, 0.1435161978006363, 0.0718861073255539, 0.22330917418003082, 0.3440419137477875, 0.22985181212425232, 0.12940633296966553, 0.3842209279537201, 0.5785383582115173, -0.12585346400737762, -0.05988695099949837, 0.11697468906641006, -0.07348643988370895, 0.11417488753795624, -0.07447092980146408, -0.2645261585712433, -0.28237593173980713, 0.1671992540359497, 0.23445004224777222, 5.199139601291866e-40, 0.3479711413383484, -0.4338834881782532, -0.22011423110961914, 0.13750946521759033, -0.03413132578134537, 0.10585612803697586, 0.1249580904841423, -0.0355609767138958, 0.14261174201965332, -5.612228375590179e-40, 0.49018487334251404], [-5.169670294587115e-40, -5.998300115496309e-40, 5.445039455811585e-40, -4.965360978488557e-40, -4.430625484502207e-40, -5.252080657274058e-40, -5.519294261436157e-40, -5.087918542178405e-40, -5.834208065323873e-40, -5.484612124444118e-40, -3.296386481508413e-40, -5.0311239154193205e-40, -5.1962249004860704e-40, -5.736621640268293e-40, 4.9924480778039555e-40, -5.345323057090231e-40, -5.177839864634129e-40, -5.9037965470622436e-40, -5.176774877801242e-40, 4.968149562432563e-40, -4.941524891610392e-40, -5.023304669988388e-40, -4.933425386486594e-40, -5.071887687746529e-40, -5.060158819600131e-40, -5.106822058462147e-40, -5.087372035777319e-40, -4.999664764895228e-40, -6.138261806113072e-40, -4.972647730503046e-40, -4.915348636296804e-40, -4.962390225744188e-40, -5.073092804425849e-40, -5.006853426017215e-40, -5.1288084313674035e-40, -4.990766519646766e-40, -5.12383382181905e-40, 4.927820192629295e-40, 5.0264435785484756e-40, -5.048920405916246e-40], [-5.7526945336540985e-40, -4.9831854949547685e-40, -5.302821674667259e-40, -5.024719981437356e-40, -5.071144999560437e-40, -5.060607235108715e-40, -5.0826216339832575e-40, -4.961227148018799e-40, -5.0646850136399e-40, -4.936648372954541e-40, -5.178540513866291e-40, -4.941034437147878e-40, -4.918627674703324e-40, -5.008745178944053e-40, -5.026695812272054e-40, -5.0735832588883624e-40, -5.292830416616623e-40, -5.216263468525915e-40, -4.9049229757222274e-40, -4.948475331993443e-40, -4.935975749691665e-40, 4.9175767008550805e-40, -5.057846677133995e-40, 5.001164154252056e-40, -5.09320143738891e-40, -5.143003584811014e-40, -5.199517951877234e-40, -5.038046329833085e-40, -4.925676205978878e-40, -4.910037715117013e-40, -4.959909927462333e-40, -5.122852912894023e-40, -5.112931719766603e-40, -5.113758485860555e-40, -5.111166083701554e-40, -5.870767942258108e-40, -5.095807852532554e-40, -4.999776868772374e-40, 5.119335653748568e-40, -4.908356156959823e-40], [-5.099128929893004e-40, -5.268587953183804e-40, 2.8667483723464243e-40, -4.980495001903265e-40, 5.662086574950856e-41, -5.090384827475617e-40, -4.919076090211908e-40, -9.648500446262095e-41, 3.5300109614806467e-41, -4.9465415401126745e-40, -5.364450781128265e-40, -5.094112281390721e-40, -4.922719466219153e-40, -5.2228215453389554e-40, -5.3774268049079125e-40, -5.488872071775665e-40, -5.0770865050491745e-40, -5.307796284215612e-40, -4.926530998042116e-40, -4.9071230143112174e-40, 4.98293326123119e-40, -5.159791140413625e-40, -5.096704683549722e-40, -3.303771324415405e-40, -5.076007505231644e-40, -5.202446665667673e-40, -5.021595085861912e-40, -4.979191794331443e-40, 6.255774695331351e-40, -4.905917897631898e-40, -5.033562174747246e-40, -5.034332888902624e-40, -4.930832984327593e-40, -5.16278991912728e-40, -5.428139796331828e-40, -4.905847832708682e-40, -5.059542248275828e-40, -5.0710469086679345e-40, 5.110605564315824e-40, -5.549968684820227e-40], [-5.04376362756753e-40, -5.77215856932357e-40, -5.067795896230701e-40, -5.126173990254473e-40, -5.2437709573806115e-40, -5.036224641829463e-40, -4.9772580024506745e-40, -5.244093256027406e-40, -5.3502135887307246e-40, -3.4054355280021704e-41, -4.1924467845209175e-40, -5.25166026773476e-40, -4.9696909907433205e-40, -5.016130021851045e-40, -5.165662580979146e-40, -5.0980359170908305e-40, -5.004120894011781e-40, -5.179549448760605e-40, -4.923868530959899e-40, -4.914605948110712e-40, -3.746819859880982e-40, -5.01641028154391e-40, -5.754516221657721e-40, -4.9311833089436745e-40, 4.924667271084564e-40, -5.039391576358837e-40, -5.003420244779619e-40, -5.062541026989483e-40, -4.960190187155198e-40, -5.010650944855535e-40, -4.977510236174253e-40, -5.011519749903416e-40, -5.044422237845763e-40, -4.948671513778448e-40, -5.089235762734871e-40, -5.228594895011974e-40, -4.923812479021326e-40, -4.928604919769317e-40, -5.018386112378608e-40, -5.0269480459956325e-40], [0.00374690443277359, 0.013979929499328136, 0.01924440637230873, 0.011616138741374016, 0.015899846330285072, 0.035357825458049774, 0.01296181045472622, -0.007739722728729248, -0.05557173490524292, 0.019332019612193108, -0.0873204916715622, -0.0653490275144577, 0.0006917392020113766, 0.0051091983914375305, -0.07321753352880478, -0.042832620441913605, 0.018613098189234734, 0.0285933930426836, 0.25944650173187256, -0.1888183355331421, 0.005960982758551836, 0.052521977573633194, 0.027575304731726646, 0.051933493465185165, 0.02499634213745594, 0.009877516888082027, -0.02900545857846737, -0.04111820086836815, -5.084723581679745e-40, -0.11544160544872284, -0.03647487610578537, -0.00365775590762496, 0.02033321186900139, -0.024528229609131813, 0.026389840990304947, 0.01148247066885233, 0.040502674877643585, -0.00010665038280421868, -6.046799055346591e-40, -0.052549876272678375], [-5.226871297900854e-40, -5.190199317089474e-40, -5.355188198279078e-40, -5.692508764611348e-40, -4.926559024011403e-40, -5.188755979671219e-40, -5.311789984838938e-40, -5.9170668435193996e-40, -5.148987129253681e-40, 5.090160619721325e-40, -5.311775971854295e-40, -5.0168446840678506e-40, -5.432273626801586e-40, -5.6224858803490365e-40, -5.376880298506826e-40, -4.969312640157953e-40, -5.419535823760873e-40, 5.460748011596666e-40, -5.889797575403639e-40, -5.896804067725263e-40, -4.957359564257262e-40, -4.929249517062906e-40, -5.120274523719665e-40, -4.993499051652199e-40, 5.160701984415436e-40, -4.911481052535268e-40, -5.039839991867421e-40, -5.134820001779357e-40, 5.5520145805781415e-40, -6.2197192858442736e-40, 4.9546130192671855e-40, -5.041927926579265e-40, -5.045291042893644e-40, -5.0972511899508086e-40, -4.97197510724017e-40, -4.966201757567152e-40, -5.039713875005632e-40, -5.2822225872416844e-40, -4.947508436053059e-40, -5.068594636355366e-40], [-0.01588703878223896, 0.042814262211322784, 0.0883529782295227, 0.06716077029705048, -0.028681935742497444, -0.04386119544506073, 0.03329574316740036, -0.10515476763248444, -0.12374600768089294, 0.27860066294670105, 0.18374037742614746, 0.22819046676158905, -0.4901285767555237, -0.09108740836381912, 0.04576866328716278, 0.16278579831123352, 0.2997713088989258, 0.38742855191230774, 0.6669862270355225, -0.8932921290397644, 0.17485173046588898, 0.16613630950450897, 0.15692491829395294, -0.06953081488609314, -0.14967888593673706, -0.24629755318164825, -0.0016271838685497642, 0.15486429631710052, -5.003280114933186e-40, 0.012760095298290253, 0.44710084795951843, 0.3172038793563843, 0.006360890343785286, 0.09875886142253876, 0.05325678735971451, -0.12203030288219452, -0.1200973391532898, -0.37370753288269043, 5.293755273603078e-40, -0.10843033343553543], [-5.118102511099962e-40, -5.907608078885207e-40, -6.0146953075289096e-40, -5.062723195789845e-40, -4.980943417411849e-40, -5.108237369911115e-40, -5.363147573556443e-40, -5.587775717387711e-40, -5.177755786726269e-40, -5.016031930958542e-40, 3.799032240661725e-40, -4.953449941541796e-40, -3.5627032546533447e-40, -6.061008221774845e-40, -3.717028254529437e-40, -5.385862621663148e-40, -5.544153296193279e-40, -5.902843664106503e-40, -4.9089306893301964e-40, -4.983858118217644e-40, -4.958368499151576e-40, -5.0669270911828196e-40, -5.047028652989407e-40, -4.952384954708909e-40, -5.124015990619413e-40, -5.375296831242139e-40, -5.054483560819615e-40, -5.006783361093998e-40, 4.906296248217266e-40, -5.040680770946016e-40, -4.981349793966503e-40, -5.0672073508756845e-40, -5.010258581285524e-40, -4.933635581256243e-40, 4.929053335277901e-40, -5.0694073894646745e-40, -4.924443063330272e-40, -5.000729751728115e-40, -4.921374219693401e-40, -5.119770056272508e-40], [-0.12868823111057281, 0.033030543476343155, 0.05582285299897194, 0.10127509385347366, 0.1063784584403038, 0.19539079070091248, 0.18304964900016785, 0.1624189019203186, 0.12369267642498016, -0.01759057678282261, -0.25861039757728577, -0.20094230771064758, -0.19757094979286194, -0.13182196021080017, -0.2177295833826065, -0.1915879249572754, -0.24392610788345337, -0.2820250689983368, 0.684161365032196, -0.1393616646528244, -0.02991785667836666, -0.02936873957514763, 0.031644079834222794, 0.14273810386657715, 0.03004564717411995, 0.00323873502202332, 0.03618606925010681, 0.00361527013592422, -5.069099103802523e-40, -0.27212825417518616, 0.021028539165854454, -0.05952511355280876, 0.015032871626317501, -0.04964161291718483, -0.04303685948252678, -0.03170713037252426, -0.0003361893759574741, -0.01396475825458765, 5.010104438454448e-40, 0.09502317011356354], [-5.085017854357253e-40, -5.09755947561296e-40, -5.09367787886678e-40, -5.219808753640657e-40, -5.0359864210905276e-40, -5.2189819875467055e-40, -5.338666889384688e-40, -5.599126234948742e-40, 2.5510638543033295e-41, -5.64001612413774e-40, -5.5582783847136734e-40, -5.38332627144272e-40, -5.341721720036916e-40, -5.2529214363526525e-40, -1.749689288525253e-40, -5.0360424730291006e-40, -5.453391194658961e-40, -4.916077311498253e-40, -3.4645422972273912e-40, 4.9585646809365814e-40, 4.925886400748527e-40, -5.01149172393413e-40, -5.161318555739739e-40, -5.2223170778917985e-40, -5.067347480722117e-40, -5.10467807181173e-40, 5.0411151734699564e-40, -5.108573681542553e-40, -5.012864996429168e-40, 1.9889049493701426e-40, -4.972927990195911e-40, -3.990057247318484e-40, -5.029021967722833e-40, -4.9473262672526964e-40, -5.0078623609115285e-40, -5.0519612235838305e-40, -5.101973565775583e-40, -5.010805087686611e-40, 5.140537299513802e-40, -3.98801135156057e-40], [-5.893679172149818e-40, -6.037760680251696e-40, -5.144629091029631e-40, -5.276154964891158e-40, -5.056221170915378e-40, -4.632566606196056e-40, -5.096242255056495e-40, -5.206888781799582e-40, -4.915040350634653e-40, 6.1429281299992736e-40, -5.271881004574967e-40, -5.196897523748946e-40, -5.243406619779887e-40, -5.1515094664894655e-40, -5.3450147714280795e-40, -5.290224001472979e-40, -5.860678593314969e-40, -5.1798577344227566e-40, -4.956953187702608e-40, -4.947788695745924e-40, -5.007722231065096e-40, -4.950913591321368e-40, -5.051372678228814e-40, -4.96425395270174e-40, -4.99220985706502e-40, -4.924387011391699e-40, -5.077072492064531e-40, -5.0954014759779e-40, 5.0216371248158415e-40, -5.0235569037119665e-40, -4.932920919039437e-40, -4.930244438972577e-40, -4.957864031704419e-40, -5.002453348839235e-40, -5.042712653719287e-40, -4.942603891427922e-40, -5.0581689757807894e-40, -4.9179130124865185e-40, -5.244527658551347e-40, -4.9293756339246955e-40], [-0.027282431721687317, -0.031604867428541183, 0.006635703146457672, 0.04062122479081154, 0.031593117862939835, 0.031213071197271347, 0.034649498760700226, -0.011898110620677471, -0.010132879950106144, 0.015304988250136375, 0.0643710121512413, 0.1723192036151886, 0.082442507147789, 0.06365014612674713, 0.07363685965538025, 0.0717141330242157, 0.10910274088382721, -0.012678182683885098, 0.24808074533939362, -0.42617079615592957, 0.037195462733507156, 0.03693108633160591, 0.039086367934942245, -0.032320406287908554, 0.09283264726400375, 0.033425990492105484, 0.03610954433679581, 0.04147827997803688, -4.921430271631974e-40, -0.14821042120456696, 0.0010411906987428665, 0.049581266939640045, 0.006169229280203581, -0.04498257115483284, 0.006582275964319706, -0.0030942820012569427, 0.01368966605514288, -0.008013000711798668, 5.421932044134869e-40, 0.11631740629673004], [-5.647120707351867e-40, -4.990149948322463e-40, -5.105350695074606e-40, -4.909715416470218e-40, -5.2985477143510686e-40, -5.2643840577908295e-40, -3.818678445131559e-40, -5.841719025092654e-40, -5.075475011815201e-40, -5.683792688163247e-40, -4.2472235414913746e-40, -4.944369527492971e-40, -5.281087535485581e-40, -4.234962179928532e-40, -5.0310118115421745e-40, -4.931281399836177e-40, -5.012178360181649e-40, 5.1199942640268e-40, -4.9349107628587785e-40, -4.9174085450393616e-40, -4.959783810600544e-40, -5.07120105149901e-40, -5.319020684914854e-40, 6.074250492262714e-40, -5.0599205988611955e-40, 4.9832975988319145e-40, 5.116967459343859e-40, 5.051302613305598e-40, 4.942113436965408e-40, -4.915152454511799e-40, -4.9712184060694345e-40, -5.05472178155855e-40, -5.004793517274657e-40, -4.909252987976991e-40, -5.00765216614188e-40, -5.211849378363292e-40, -4.980116651317897e-40, -4.946121150573377e-40, -4.9145779221414254e-40, 4.938245853203872e-40], [-0.11642000824213028, 0.003722068388015032, 0.036174673587083817, 0.07407010346651077, 0.0969851166009903, 0.18947502970695496, 0.17697103321552277, 0.15613199770450592, 0.10489540547132492, -0.014526023529469967, -0.17884813249111176, -0.195274218916893, -0.20019620656967163, -0.12771303951740265, -0.22132325172424316, -0.19916754961013794, -0.2477642446756363, -0.28147196769714355, 0.6798349618911743, -0.13106615841388702, -0.02756817452609539, -0.024113986641168594, 0.03141956403851509, 0.1257460117340088, 0.013560275547206402, -0.00225561810657382, 0.03737988322973251, -0.0045595932751894, -5.021272787215117e-40, -0.23566274344921112, -0.00772182596847415, -0.029171934351325035, 0.03987576439976692, -0.044974979013204575, -0.05520863085985184, -0.05132428929209709, -0.004069579765200615, -0.01148755569010973, 5.0001271933884555e-40, 0.10572995245456696], [-5.6184781667410675e-40, -4.051069782455187e-40, -4.950002747319557e-40, -5.186163577512218e-40, -2.6444744099352218e-40, -4.983213520924055e-40, -4.904712780952579e-40, -5.745702054317118e-40, -3.857003958130843e-40, -2.796543319283751e-40, -3.2554125144115555e-40, -5.342884797762306e-40, -4.148263843940756e-40, -5.473653970453098e-40, -5.4199982522541005e-40, -5.444633079256931e-40, -3.4816521514767972e-40, -5.786381748736467e-40, -4.9277361147214355e-40, -5.229673894829504e-40, 4.935177009567e-40, -5.0653996758567055e-40, -5.078459777544213e-40, -5.0746622587058925e-40, -5.608416843767215e-40, -5.184804318001823e-40, 5.013243347014536e-40, -5.210476105868254e-40, -5.12283889990938e-40, -4.986940974839159e-40, -5.046468133603677e-40, 5.004317075796787e-40, -5.5130584832699116e-40, -5.05692182014754e-40, -5.009529906084075e-40, -5.04220818627213e-40, -4.960358342970917e-40, -5.03120799332718e-40, -5.097349280843311e-40, 4.990500272938544e-40], [-0.021906686946749687, 0.008566007018089294, 0.11387930810451508, 0.12379321455955505, 0.09924101829528809, 0.0832957774400711, 0.1434570699930191, 0.13624335825443268, 0.19439443945884705, -0.06854890286922455, -0.037929680198431015, 0.018656421452760696, 0.060047224164009094, 0.06879109889268875, 0.06461747735738754, 0.05448945239186287, 0.014000608585774899, -0.009953937493264675, -0.5926125049591064, 0.3204691410064697, 0.027842022478580475, 0.007916739210486412, -0.005003544967621565, -0.006684300489723682, 0.005117551889270544, -0.0160205140709877, -0.012956848368048668, -0.013798081316053867, -4.9809854563657785e-40, 0.21598047018051147, 0.059500787407159805, 0.04520585015416145, 0.028673039749264717, 0.0072633749805390835, 0.08450990915298462, 0.0788174420595169, 0.06498165428638458, 0.06054873764514923, -5.796555175587465e-40, -0.22938677668571472], [-0.02241365611553192, -0.50179123878479, -0.39907801151275635, -0.34614965319633484, -0.3654536306858063, -0.330593079328537, -0.4141610264778137, -0.4277016222476959, -0.4446929395198822, -0.2151084691286087, 0.11447646468877792, 0.11778013408184052, 0.14630891382694244, 0.15527330338954926, 0.2237747460603714, 0.237490713596344, 0.1287926584482193, 0.28562355041503906, -0.1743651181459427, 0.8876693248748779, -0.06400330364704132, -0.09573688358068466, -0.05151602253317833, -0.020666880533099174, -0.02203826606273651, -0.016074582934379578, -0.05553530529141426, -0.060101378709077835, 4.9881601045031216e-40, 0.14384916424751282, 0.053627341985702515, 0.07480073720216751, 0.022169500589370728, -0.045815613120794296, -0.057322751730680466, 0.017021840438246727, 0.1009598970413208, -0.23024258017539978, 4.9656272251967785e-40, -0.1808348000049591], [-5.2965718835163706e-40, -5.201493782711932e-40, -4.9599799923855495e-40, -5.3100663877278186e-40, -6.144735805018253e-40, 4.92318189471238e-40, -4.979205807316086e-40, -3.349972134784194e-40, 5.23418607588463e-40, -5.112861654843387e-40, -5.117612056637448e-40, -4.92206085594092e-40, -5.020488060075095e-40, 5.407470643983037e-40, -4.959629667769468e-40, -5.424538459278513e-40, -1.84894325875338e-40, -6.145534545142918e-40, -4.952370941724266e-40, -4.935233061505573e-40, -4.923195907697023e-40, -4.93746112606385e-40, -5.3887633094843e-40, -5.023262631034458e-40, -4.973838834197722e-40, -5.047392990590132e-40, -5.024621890544853e-40, -5.1456380259239445e-40, 4.928955244385398e-40, -5.043301199074303e-40, -4.922929660988801e-40, -5.024733994421999e-40, -4.9694107310504555e-40, -5.010735022763394e-40, -4.94341664453723e-40, -4.947410345160556e-40, -4.982022417229379e-40, -4.915923168667177e-40, 4.923237946650953e-40, -4.9698591465590395e-40], [0.024321280419826508, 0.030204186215996742, 0.05256897583603859, 0.09963332116603851, 0.058729540556669235, 0.036705393344163895, 0.02627834863960743, -0.035193778574466705, -0.1467314213514328, 0.03986284136772156, 0.1020084097981453, 0.1218135803937912, 0.03344132378697395, -0.00614114198833704, 0.01877843402326107, 0.027576874941587448, 0.058818407356739044, 0.07176561653614044, 0.31925520300865173, -0.47890040278434753, 0.030749810859560966, 0.007718678098171949, 0.041175127029418945, 0.04516053944826126, 0.04165061563253403, 0.034511275589466095, 0.046205177903175354, 0.029581189155578613, -5.056851755224324e-40, -0.15319059789180756, 0.02035367302596569, 0.007180765271186829, 0.018975762650370598, 0.012060428038239479, 0.010441598482429981, -0.00790944043546915, 0.03735348954796791, -0.02212662249803543, 5.1076348115714555e-40, 0.04653707891702652], [-5.912961039018928e-40, -5.089782269135957e-40, -5.12775745751916e-40, -5.1323677294667885e-40, -5.156512102007105e-40, 3.757862091779862e-40, 2.550587412825459e-40, 4.475705256099536e-40, -1.3326768785268308e-40, -5.022505929863723e-40, -5.039573745159199e-40, 3.7779426987736366e-40, -4.930832984327593e-40, 5.145904272632166e-40, -4.9696349388047475e-40, 4.711950164200057e-40, -4.98077526159613e-40, -3.126857393294397e-40, -5.01364972356919e-40, -4.973838834197722e-40, -5.0226600726947986e-40, -4.985511650405548e-40, -4.94449564435476e-40, -6.188666511874836e-40, -5.080841984933565e-40, -4.985203364743396e-40, -4.953842305111807e-40, -5.039811965898134e-40, -4.908047871297672e-40, -4.978449106145351e-40, -4.907249131173007e-40, -5.089081619903795e-40, -4.976445249341366e-40, -5.01032864620874e-40, -4.913386818446749e-40, -5.011659879749849e-40, -4.9927843894353935e-40, -4.9180251163636645e-40, -5.213755144274774e-40, -4.932234282791918e-40], [-0.012798684649169445, 0.018259461969137192, 0.050423648208379745, 0.04055408015847206, 0.023731274530291557, 0.02059100568294525, 0.05922038480639458, 0.04601910337805748, 0.07913838326931, -0.02791709266602993, -0.01558854803442955, -0.005534906405955553, 0.024199550971388817, 0.021990658715367317, 0.02161436527967453, 0.01922626979649067, -0.00762605294585228, -0.01876375824213028, -0.25054898858070374, 0.16606386005878448, 0.01327412948012352, -0.017441142350435257, 0.016972573474049568, -0.00908816047012806, -0.002246827119961381, 0.012590416707098484, 0.0016446157824248075, -0.020063240081071854, 6.0636987148263484e-40, 0.06865016371011734, 0.029963789507746696, 0.020191580057144165, 0.003901652293279767, 0.029361987486481667, 0.007349326740950346, 0.036760568618774414, 0.03150228038430214, -0.0002869036397896707, 5.060228884523347e-40, -0.09499552100896835], [-5.098274137829766e-40, -5.488311552389935e-40, -5.412277097715671e-40, -5.136641689782979e-40, -4.809985004764221e-40, -5.177433488079475e-40, -5.415528110152904e-40, -5.525459974679186e-40, 3.0639531052308558e-40, -5.561935773705561e-40, -4.453620792301777e-40, -2.8247934963245392e-40, -4.964842498056757e-40, 5.245844879107812e-40, 5.053866989495312e-40, -6.271931666625016e-40, -5.223508181586475e-40, -4.13939362466158e-40, -5.9063328972826715e-40, -5.340852914989035e-40, -4.992406038850026e-40, -5.0228842804490905e-40, -4.949035851379173e-40, -4.941426800717889e-40, -4.9164977010375504e-40, -5.004499244597149e-40, -4.9728018733341216e-40, -4.9713865618851535e-40, 4.986828870962013e-40, 3.6345618399039213e-40, -4.9153766622660906e-40, -4.977005768727096e-40, -4.993428986728983e-40, -4.917324467131502e-40, -5.080127322716759e-40, -5.073541219934433e-40, -5.014658658463504e-40, -5.073555232919076e-40, 4.950128864181346e-40, -4.993106688082188e-40], [0.06774939596652985, -0.017938433215022087, -0.024775907397270203, -0.07562294602394104, -0.010039890184998512, -0.04759868606925011, -0.025484241545200348, -0.022654032334685326, -0.06328156590461731, -0.026783671230077744, 0.07294018566608429, 0.06454228609800339, 0.05120246112346649, 0.023946167901158333, 0.0712994933128357, 0.0338134802877903, -0.020091544836759567, -0.0956980362534523, -0.3742913603782654, 0.39376741647720337, 0.1171967163681984, -0.010003438219428062, 0.007201027125120163, -0.00749967573210597, -0.003544654930010438, -0.016823749989271164, -0.019214607775211334, -0.024033954367041588, 4.977187937527458e-40, -0.037945300340652466, 0.013098076917231083, 0.008568337187170982, 0.027759423479437828, 0.025567295029759407, 0.011140936054289341, 0.014867164194583893, 0.015352361835539341, 0.023850444704294205, -5.047154769851196e-40, -0.13513527810573578], [-0.03091483749449253, -0.049253471195697784, 0.11204779893159866, 0.15183429419994354, 0.12813392281532288, 0.09998738020658493, 0.15898668766021729, 0.12989838421344757, 0.1846792995929718, -0.06577294319868088, -0.05021792650222778, 0.0049477433785796165, 0.05302635580301285, 0.06077180802822113, 0.04609231278300285, 0.021691009402275085, 0.01425968762487173, -0.016259660944342613, -0.5194265842437744, 0.26882806420326233, 0.022037293761968613, 0.0012690866133198142, -0.005635422188788652, 0.0010293957311660051, 0.007115182466804981, -0.013790944591164589, -0.020001888275146484, -0.014012498781085014, -4.96981710760511e-40, 0.20363399386405945, 0.05895588919520378, 0.042739540338516235, -0.0020634480752050877, 0.008462699130177498, 0.07863706350326538, 0.07952121645212173, 0.062039319425821304, 0.06233517453074455, 5.003602413579981e-40, -0.21020643413066864], [-2.221100104908765e-40, -5.319847451008806e-40, -5.2181412084681106e-40, 5.3390312269854125e-40, 5.440008794324659e-40, -4.973264301827349e-40, 5.493426291784721e-40, 5.366454637932249e-40, -5.165270217409135e-40, -5.478362333293229e-40, -5.304671388640168e-40, -3.380912804876486e-40, 5.367337455964774e-40, 5.457595090051935e-40, 5.2621840192018396e-40, 5.03996610872921e-40, -5.1901292521662575e-40, 5.026051214978465e-40, -4.957443642165122e-40, -4.9281845302300194e-40, -5.0646850136399e-40, -4.920995869108033e-40, -4.977356093343177e-40, -4.997787024953033e-40, -5.3241774632635695e-40, -5.060537170185498e-40, -4.946345358327669e-40, -5.031992720467202e-40, 5.367519624765136e-40, -5.026121279901681e-40, -4.94781672171521e-40, -4.938371970065661e-40, -5.134035274639335e-40, -5.0936918918514236e-40, -5.209901573497881e-40, -4.913919311863193e-40, 3.4087566053626203e-40, -5.333860435652054e-40, 4.967336809323255e-40, -4.928548867830744e-40], [-5.143185753611376e-40, -5.169866476372121e-40, -5.298519688381782e-40, -4.9465415401126745e-40, -4.4466563389340825e-40, -5.062779247728418e-40, -5.223297986816826e-40, -5.074578180798033e-40, -5.175723903952998e-40, -5.3907531533036415e-40, -5.189806953519463e-40, -5.1234414582490394e-40, -5.1057710846139035e-40, -5.195005770822108e-40, -4.59850104052832e-40, -5.4330443409569645e-40, -5.006895464971144e-40, -5.220439337949603e-40, -3.957392980115073e-40, -4.1186544073895726e-40, 4.987837805856327e-40, 6.1892270312605655e-40, -5.022435864940507e-40, -4.90894470231484e-40, 5.634985462650814e-40, 4.952455019632125e-40, 5.057846677133995e-40, -4.92102389507732e-40, -5.011043308425546e-40, -4.930356542849723e-40, -4.967140627538249e-40, -5.115958524449545e-40, -4.970601834745132e-40, -5.007848347926885e-40, -5.029162097569266e-40, -5.0615601180644555e-40, -4.949484266887757e-40, -5.082411439213609e-40, 5.039349537404907e-40, -5.5253058318481105e-40], [-5.445375767443023e-40, 5.040624719007443e-40, 4.946289306389096e-40, 1.132977834375901e-40, -3.947149488340858e-40, 5.261287188184672e-40, -4.929081361247187e-40, 5.508153938644775e-40, 5.2187858057617e-40, -5.197542121042536e-40, -5.0331557981925915e-40, -5.329404306535501e-40, -5.005017725028949e-40, 5.386451167018164e-40, -4.370215507705164e-40, 5.144853298783923e-40, -4.93966116465284e-40, 5.2334994396371106e-40, -4.9389745284053205e-40, -4.734132718890319e-40, -4.917786895624729e-40, -4.944719852109052e-40, -5.1462545972482474e-40, -5.163770828052308e-40, -5.153667466124526e-40, -5.018722424010046e-40, -5.4805343459129326e-40, -6.15775386775183e-40, 4.943752956168668e-40, -4.917030194453994e-40, -4.978701339868929e-40, -4.917044207438637e-40, -4.987347351393813e-40, -4.993106688082188e-40, -5.1609962570929445e-40, -4.985189351758753e-40, -5.082411439213609e-40, -4.94173508638004e-40, -4.947200150390907e-40, -4.963455212577075e-40], [-0.0857178270816803, 0.09108240902423859, 0.1448202282190323, 0.178585022687912, 0.1582052856683731, 0.290606290102005, 0.22116228938102722, 0.19905593991279602, 0.28193825483322144, -0.04268479347229004, -0.423284113407135, -0.5453593730926514, -0.25442585349082947, -0.2619260251522064, -0.3111194968223572, -0.4993109703063965, -0.4797399640083313, -0.4777612090110779, 0.7093732357025146, -0.024942465126514435, 0.13650453090667725, -0.12948240339756012, -0.07638755440711975, 0.08791676163673401, -0.02778146043419838, 0.12111213803291321, 0.020397095009684563, -0.29865768551826477, -4.915516792112523e-40, -0.0758107528090477, -0.24297195672988892, 0.014837284572422504, 0.014667126350104809, 0.05155482143163681, -0.03818340227007866, -0.01134092640131712, 0.04080165922641754, -0.07638613879680634, 4.970924133391926e-40, 0.055690329521894455], [-5.1959446407932055e-40, -5.415149759567537e-40, -4.950535240736e-40, -5.077829193235267e-40, -5.185715162003634e-40, 9.509211378908209e-41, -5.1266083927784135e-40, -5.169754372494975e-40, -5.033001655361516e-40, -5.040624719007443e-40, -5.214217572768001e-40, -3.6518678759383328e-40, -5.148356544944735e-40, -4.915670934943599e-40, -5.939347489102164e-40, -5.287729690206481e-40, -5.8711603058281186e-40, -5.294511974773813e-40, -5.887261225183211e-40, -5.757599078279235e-40, -4.97089610742264e-40, -5.013159269106676e-40, -5.031474240035402e-40, -5.049312769486257e-40, -5.129621184476712e-40, -5.000337388158104e-40, 5.10252007217667e-40, -5.038831056973107e-40, -6.0243502539481076e-40, -4.94289816410543e-40, -4.91546074017395e-40, -4.9099536372091535e-40, -5.0553523658674966e-40, -5.108895980189348e-40, 5.159160556104679e-40, 5.0500974966262785e-40, -5.0574963525179135e-40, -5.153247076585228e-40, 5.296347675762079e-40, -4.9090427932073424e-40], [5.053670807710307e-40, -5.025378591715589e-40, -5.015695619327104e-40, -4.918627674703324e-40, -5.200316692001899e-40, -5.194459264421021e-40, -5.1935764463884965e-40, -5.1003480595569664e-40, -5.235026854963225e-40, 5.351895146887914e-40, -5.166040931564514e-40, -4.606544493713544e-40, -4.028396773302411e-40, -5.18034818888527e-40, -4.9910327663549875e-40, -5.235405205548592e-40, -5.1957484590082e-40, -5.075418959876628e-40, -2.8162876146460876e-40, -3.179041748105853e-40, -4.90773958563552e-40, -4.960120122231982e-40, -5.51387123637922e-40, -5.239637126910853e-40, 4.973726730320576e-40, -5.0102305553162375e-40, -5.021819293616204e-40, -4.916918090576848e-40, 5.020474047090452e-40, -4.931701789375475e-40, -4.954865252990764e-40, -5.0238932153434044e-40, -4.929810036448636e-40, -4.92370037514418e-40, -5.0867975034069455e-40, -4.906212170309406e-40, -4.916133363436826e-40, -5.969475406085148e-40, 5.4198861483769545e-40, -4.933817750056605e-40], [-0.0051750922575592995, -0.02949756570160389, -0.013306600041687489, -0.07002075016498566, -0.05652147904038429, -0.29331254959106445, 0.002868496347218752, -0.1351914405822754, -0.19188758730888367, -0.17762936651706696, 0.07537379860877991, 0.10284484922885895, 0.1940072774887085, 0.1491193324327469, 0.16942384839057922, 0.1664995402097702, 0.12439224869012833, -0.03792179748415947, -0.5113319754600525, 0.5850062966346741, 0.1944686770439148, -0.09779445827007294, -0.08123943209648132, -0.08227219432592392, -0.027844063937664032, 0.01611228473484516, 0.06264999508857727, 0.017392082139849663, 5.01084712664054e-40, 0.027247482910752296, 0.009070721454918385, 0.03637927025556564, 0.06680767983198166, 0.04552974924445152, 0.08143050223588943, 0.028088247403502464, 0.042506467550992966, 0.009580660611391068, 4.984558767449807e-40, -0.29305797815322876], [-5.159202595058609e-40, -5.678579857875959e-40, -4.983858118217644e-40, -5.2841423661378094e-40, -5.455451103401518e-40, -5.659269965037563e-40, -5.083406361123279e-40, -5.551033671653114e-40, -5.214455793506936e-40, -5.455184856693297e-40, -4.9421975148732676e-40, -5.439770573585724e-40, -5.200386756925115e-40, 4.72572492810437e-40, -5.187256590314392e-40, -5.131961352912134e-40, -5.089151684827011e-40, -4.917072233407924e-40, -4.932892893070151e-40, -4.9377834247106444e-40, 4.9449580728479875e-40, -4.9638195501777995e-40, -4.924148790652764e-40, -4.915628895989669e-40, -5.0215810728772685e-40, -4.975184080723474e-40, -4.92421885557598e-40, -4.9870811046855915e-40, -5.5539904114128395e-40, -5.069785740050042e-40, 5.1583898419493e-40, -5.0293722923389145e-40, -4.932402438607637e-40, -5.02072628081403e-40, -5.119055394055703e-40, -4.9395350477910504e-40, -4.978294963314275e-40, -4.948082968423432e-40, 4.985035208927677e-40, -5.5612211114887555e-40], [0.10032492876052856, 0.06337960809469223, -0.05625343695282936, -0.02468390017747879, 0.07093213498592377, 0.04190333932638168, 0.15481799840927124, 0.20969468355178833, 0.26835447549819946, 0.008231251500546932, -0.014437512494623661, 0.021922603249549866, 0.0007102899253368378, -0.041962649673223495, -0.00741035770624876, -0.021138275042176247, -0.08573102951049805, -0.1411362588405609, -0.5611982941627502, 0.4530521333217621, 0.1329863965511322, 0.07954064756631851, 0.02599509432911873, -0.041781235486269, -0.007817607372999191, 0.009883497841656208, -0.009549373760819435, -0.05316191911697388, 5.154326076402758e-40, -0.028118353337049484, 0.05132359638810158, 0.04702649265527725, -0.004652935080230236, -0.06416504085063934, 0.010215193964540958, 0.022005610167980194, 0.07302820682525635, 0.031529489904642105, -4.922130920864136e-40, -0.053247615694999695], [-5.175737916937642e-40, -5.667005132560636e-40, -4.964702368210324e-40, -5.100978643865913e-40, -4.91710025937721e-40, -3.969654341677915e-40, -5.339619772340429e-40, -5.284240457030312e-40, -5.250343047178295e-40, -5.434249457636284e-40, -3.98145327474753e-40, -5.125837678623035e-40, -4.142616611129527e-40, -5.123119159602245e-40, -5.320716256056687e-40, 4.9529174481253524e-40, -5.294021520311299e-40, -3.4297900953121358e-40, -4.929249517062906e-40, -2.774010439977408e-41, -4.929613854663631e-40, -5.260908837599304e-40, -4.928002361429657e-40, -4.913358792477463e-40, -4.90998166317844e-40, -4.953197707818217e-40, -4.981728144551871e-40, -4.970055328344045e-40, -4.9385821648353096e-40, 8.707528527467981e-41, -6.234825283289695e-40, -5.0111413993180486e-40, -5.673339001619384e-40, -4.9101217930248725e-40, -6.0941349174714835e-40, -5.009459841160859e-40, -5.071481311191875e-40, -4.9328788800855075e-40, -4.921878687140558e-40, -4.935597399106298e-40], [-5.369789728277342e-40, -5.354347419200483e-40, -5.096816787426868e-40, -4.9607647195255714e-40, -4.943472696475803e-40, -5.166167048426303e-40, -5.362250742539275e-40, -5.063339767114148e-40, -4.97529618460062e-40, -5.223311999801469e-40, -4.965360978488557e-40, -5.02184731958549e-40, -4.99229393497288e-40, -5.2949323643131105e-40, -5.233765686345332e-40, -5.396806762669525e-40, -5.263389135881159e-40, -5.177447501064118e-40, -5.196042731685708e-40, -5.014056100123844e-40, 4.942435735612203e-40, 5.11951782254893e-40, 4.969326653142596e-40, -5.051092418535949e-40, -4.975632496232058e-40, -4.918963986334762e-40, -4.927469868013214e-40, -5.114823472693442e-40, 6.118209225088584e-40, -5.5324804799854535e-40, 4.955131499698986e-40, -4.913386818446749e-40, -4.968794159726153e-40, -5.1472775451272046e-40, -5.049130600685894e-40, -4.949470253903113e-40, -4.9606526156484254e-40, -4.929403659893982e-40, -4.905455469138671e-40, -5.014546554586358e-40], [-4.9689623155418716e-40, -5.117527978729589e-40, -5.034767291426565e-40, -5.470206776230859e-40, -5.2384039842622474e-40, -5.2480028787428724e-40, -5.291807468737666e-40, -1.9235624019786764e-40, -4.911691247304916e-40, -5.082411439213609e-40, -5.113155927520895e-40, -5.027648695227795e-40, -5.082537556075398e-40, 5.248311164405024e-40, -5.255429760603794e-40, -5.520751611839055e-40, -5.492095058243612e-40, -5.3738114548699545e-40, -4.9071230143112174e-40, -4.959181252260884e-40, -4.95933539509196e-40, -5.019184852503273e-40, -5.027074162857422e-40, -5.0191288005647e-40, -4.998277479415547e-40, -4.964113822855308e-40, -4.956294577424375e-40, -4.962558381559907e-40, 5.028335331475314e-40, -4.907613468773731e-40, -5.019479125180781e-40, -5.010945217533043e-40, -5.087750386362686e-40, -4.9791217294082265e-40, -4.963833563162443e-40, -5.1923853426938204e-40, -4.909967650193797e-40, -5.178372358050572e-40, 4.912560052352798e-40, -5.029078019661406e-40], [-5.339829967110078e-40, -5.10200159174487e-40, -5.201465756742645e-40, -5.233233192928889e-40, 5.1934082905727775e-40, -5.3721719356666945e-40, 5.459893219533428e-40, -5.205417418412041e-40, 5.3084829204631315e-40, -4.989813636691025e-40, -4.917828934578659e-40, -6.178507098008481e-40, -5.401220852832148e-40, -5.230374544061666e-40, -5.845866868547056e-40, -5.118466848700686e-40, -5.338218473876104e-40, -2.036198772541105e-40, -5.681956987174982e-40, 4.90778162458945e-40, -4.944481631370117e-40, -4.963399160638502e-40, -5.123301328402607e-40, -4.907417286988726e-40, -5.876541291931126e-40, -4.9501008382120596e-40, -4.984853040127315e-40, -5.13155497635748e-40, 5.050251639457354e-40, -4.910864481210965e-40, -4.950086825227416e-40, -4.951011682213871e-40, -5.044982757231493e-40, 5.029386305323558e-40, -5.082943932630052e-40, -4.945266358510139e-40, -5.066352558812446e-40, -4.910892507180251e-40, 4.927778153675365e-40, -4.9739229121055814e-40], [0.14056189358234406, -0.14776745438575745, -0.003168488387018442, 0.06002868711948395, 0.018067538738250732, -1.465983510017395, -1.6096222400665283, 0.071297287940979, -1.7644267082214355, -0.2235870212316513, 0.4288715422153473, 0.3819226622581482, 0.36811453104019165, 0.351357102394104, 0.29946866631507874, 0.34809258580207825, 0.336403489112854, 0.27248403429985046, -0.32707422971725464, 0.9192118048667908, -0.0925409123301506, -0.03234020248055458, -0.07660165429115295, -0.10055094212293625, -0.06913009285926819, -0.0850437730550766, -0.05086709186434746, -0.02291971817612648, 4.9487976306402375e-40, 0.13684222102165222, -0.04987510293722153, -0.03592285141348839, -0.025161372497677803, -0.044038839638233185, -0.013776998035609722, -0.052176862955093384, -0.032424770295619965, 0.018987365067005157, -5.0847095686951015e-40, -0.13660183548927307], [0.08318629860877991, -0.0267170500010252, -0.03422362729907036, -0.10136629641056061, -0.016409089788794518, -0.06761235743761063, -0.034723084419965744, -0.029673265293240547, -0.08118822425603867, -0.03273161128163338, 0.09270332753658295, 0.08200237900018692, 0.06232248619198799, 0.026055878028273582, 0.0898309275507927, 0.03967457637190819, -0.02935819886624813, -0.12562353909015656, -0.49069854617118835, 0.4988744854927063, 0.15335319936275482, -0.013258681632578373, 0.008759183809161186, -0.009948146529495716, -0.005036178510636091, -0.0207663644105196, -0.024720441550016403, -0.031128570437431335, 5.00821268552761e-40, -0.04904501512646675, 0.017411652952432632, 0.012020880356431007, 0.03592418506741524, 0.03369041904807091, 0.014444228261709213, 0.019556652754545212, 0.020861366763710976, 0.03017311915755272, 4.9366063340006116e-40, -0.1765262335538864], [-6.0742645052473576e-40, -5.087834464270546e-40, -5.238754308878329e-40, -4.9910327663549875e-40, -4.981181638150784e-40, -5.104790175688876e-40, -5.26490253822263e-40, -5.7650539861094434e-40, -2.8031854740046506e-40, 6.804705342761312e-42, -5.580713173127514e-40, -5.089558061381665e-40, -5.067683792353555e-40, -5.76227941515008e-40, -5.293559091818072e-40, -3.298138104588819e-40, -5.4714959708180375e-40, -5.359294002779549e-40, -2.432738211975742e-40, -2.3232267369887575e-40, -6.144287389509669e-40, -4.947802708730567e-40, -5.287351339621113e-40, -5.065483753764565e-40, -5.614400388209882e-40, -5.596814092482606e-40, -4.91714229833114e-40, -4.911382961642765e-40, -5.0111413993180486e-40, -5.052395626107771e-40, 5.009529906084075e-40, -5.156848413638543e-40, -4.938876437512818e-40, -5.1328161449753724e-40, 4.9873753773631e-40, -5.044646445600055e-40, -6.192996524129599e-40, -5.121255432644693e-40, 4.954318746589677e-40, 5.047813380129429e-40], [-5.0500414446877055e-40, 5.357360210898781e-40, 5.073569245903719e-40, -4.627774165448065e-40, -5.319819425039519e-40, 5.2228775972775284e-40, 5.0771425569877475e-40, 4.904740806921865e-40, -5.37732871401541e-40, 5.236245984627187e-40, -5.247960839788943e-40, -4.235326517529257e-40, -5.143536078227457e-40, -5.400099814060688e-40, -5.078585894406002e-40, 5.265603187454792e-40, 5.3427026289619435e-40, 5.31149571216143e-40, -4.908510299790899e-40, -4.9576678499194136e-40, -4.9977589989837466e-40, -5.117331796944583e-40, -5.242762022486298e-40, -4.985904013975559e-40, -4.9927843894353935e-40, -4.9646042773178214e-40, -5.823039716563204e-40, -2.919423181620394e-40, 4.909168910069132e-40, -5.000813829635975e-40, -5.0514567561366736e-40, -5.11623878414241e-40, -4.9758426910017064e-40, -5.245830866123169e-40, -5.019423073242208e-40, -4.993428986728983e-40, -5.115972537434188e-40, -4.945196293586923e-40, -4.912055584905641e-40, -4.965108744764978e-40], [-5.462387530799926e-40, -5.782514164974931e-40, -5.3416796810829864e-40, -5.933658217337005e-40, -5.69756745206756e-40, -6.181463837768206e-40, -5.0254766826080915e-40, -5.166503360057741e-40, -1.4569860652970853e-40, -5.598131313039071e-40, -5.090034502859536e-40, -5.001192180221342e-40, -5.148216415098302e-40, -6.265191421011614e-40, -5.429863393442947e-40, -5.3149709323529554e-40, -5.865162748400808e-40, -5.340068187849013e-40, -4.958872966598733e-40, -4.922831570096299e-40, -4.9713305099465805e-40, 5.002761634501386e-40, 4.975184080723474e-40, 4.956448720255451e-40, -5.006376984539344e-40, -4.9117613122281326e-40, 4.908552338744829e-40, -5.001234219175272e-40, -5.711524384772235e-40, 5.098134007983333e-40, 4.935499308213795e-40, -4.918389453964389e-40, -5.0155414764960285e-40, -4.93681652877026e-40, -5.071341181345443e-40, 5.048822315023743e-40, -4.922817557111655e-40, -4.948839669594167e-40, -4.97641722337208e-40, -5.043749614582887e-40], [0.01854701340198517, 0.012439509853720665, 0.06097235903143883, 0.08839572966098785, 0.06596530228853226, 0.05679139867424965, 0.007287828717380762, -0.08213772624731064, -0.19024908542633057, 0.061327483505010605, 0.11704622954130173, 0.24682298302650452, 0.023319296538829803, 0.041381992399692535, 0.10611780732870102, 0.08286894857883453, 0.07953860610723495, 0.04323960095643997, 0.4087997376918793, -0.6383402943611145, 0.05750485882163048, 0.026812640950083733, 0.06245817244052887, -0.056706201285123825, 0.059919148683547974, 0.07082625478506088, 0.07603741437196732, 0.05969207361340523, -6.0712657265337024e-40, -0.1899135857820511, 0.030781714245676994, 0.025780322030186653, 0.029864199459552765, 0.027311280369758606, -0.0010569746373221278, 0.008540245704352856, -0.019282490015029907, -0.013641214929521084, 5.016059956927829e-40, 0.07474740594625473], [0.028147650882601738, -0.013042980805039406, 0.054028041660785675, 0.09638815373182297, 0.10353628545999527, 0.061603497713804245, -0.04453028738498688, -0.1174314096570015, -0.18252143263816833, 0.022657740861177444, -0.02987883798778057, 0.3241777718067169, 0.313869446516037, 0.2533825933933258, 0.2774929106235504, 0.3640285134315491, 0.3426019549369812, -0.047246698290109634, 0.22852879762649536, -0.7104246020317078, 0.06558641046285629, 0.1013631671667099, 0.03640118986368179, -0.023278646171092987, -0.04532138630747795, 0.16766272485256195, 0.17065389454364777, 0.1357252448797226, -5.011673892734492e-40, -0.28692904114723206, 0.06083887815475464, 0.03546816483139992, 0.06930398941040039, 0.018799128010869026, 0.04423161968588829, 0.023715822026133537, 0.011293799616396427, -0.027765098959207535, -4.943612826322236e-40, 0.08998014777898788], [-0.06893208622932434, 0.028205860406160355, 0.21051526069641113, 0.2555901110172272, 0.18519632518291473, 0.15023618936538696, 0.2818782329559326, 0.21095769107341766, 0.2881942093372345, -0.10180448740720749, -0.1372714787721634, -0.06691917777061462, 0.05839866027235985, 0.0035465185064822435, -0.023802459239959717, -0.012807981111109257, -0.016104234382510185, 0.018772371113300323, -0.6558413505554199, 0.321054607629776, 0.07998168468475342, -0.009392837062478065, 0.026577703654766083, -0.2693038880825043, 0.020795976743102074, 0.016812194138765335, 0.0106803635135293, 0.04670819640159607, -4.983717988371212e-40, 0.311102032661438, 0.03289130702614784, 0.017995383590459824, 0.01085619442164898, -0.022137528285384178, 0.3032037317752838, 0.08858966082334518, 0.07601851969957352, 0.040128711611032486, -4.924583193176705e-40, -0.3061319589614868], [-5.5301683375193176e-40, -5.351026341840033e-40, -5.371078922864521e-40, -5.3624609373089235e-40, 4.817818263179797e-40, -5.045837549294731e-40, -5.402790307112192e-40, -5.111992849795506e-40, -5.129453028660993e-40, -5.251492111919041e-40, 2.4663553621348943e-40, -5.284632820600323e-40, -5.086503230729437e-40, -5.061854390741964e-40, 2.610548974113918e-40, -5.207477327154599e-40, -5.4291487312261415e-40, -5.037541862385928e-40, -4.9690183674804446e-40, -4.935597399106298e-40, -4.913975363801766e-40, -4.930454633742226e-40, -5.080211400624619e-40, -5.006292906631485e-40, -4.967729172893266e-40, -5.158333790010727e-40, -4.976837612911377e-40, -5.027606656273865e-40, 6.260959499649353e-40, 5.026793903164557e-40, -4.986940974839159e-40, -4.916147376421469e-40, -4.91606329851361e-40, -4.987949909733473e-40, -5.147305571096491e-40, -5.3062268299355686e-40, -5.004513257581792e-40, -5.1151457713402365e-40, -4.97137254890051e-40, -5.052942132508858e-40], [0.11027242243289948, -0.15040381252765656, -0.06496076285839081, -0.17700006067752838, -0.014935310930013657, -0.07895366102457047, -0.07786201685667038, -0.09143264591693878, -0.14178495109081268, -0.1982167512178421, 0.0571049340069294, 0.08055470138788223, 0.2239578515291214, 0.16904829442501068, 0.17416654527187347, 0.11292154341936111, -0.004948152229189873, -0.12021760642528534, -0.6590515971183777, 0.745804488658905, 0.2169782668352127, -0.005485447123646736, 0.04496243596076965, 0.0017132459906861186, 0.005975504405796528, -0.015474901534616947, 0.0027208630926907063, -0.2119346559047699, 5.619669270435744e-40, -0.04205453395843506, 0.14652948081493378, 0.1237911581993103, -0.005408481229096651, 0.17274869978427887, -0.03779008239507675, -0.053575173020362854, -0.04723431169986725, -0.007266160100698471, 5.16718999630526e-40, -0.29681625962257385], [0.04494928941130638, 0.09652654081583023, 0.0626019537448883, -0.01663861982524395, -0.009570561349391937, -0.011783222667872906, -0.03860243782401085, -0.025389818474650383, -0.06234856694936752, 0.06995608657598495, 0.024685634300112724, 0.008787364698946476, -0.01759897544980049, 0.013004962354898453, -0.018014734610915184, -0.013069991022348404, 0.03886152431368828, 0.06079581007361412, 0.19709627330303192, -0.17647993564605713, -0.10854846239089966, 0.03143788129091263, 0.03175152838230133, 0.03906739875674248, 0.001523476792499423, -0.014829864725470543, -0.0020315221045166254, 0.009538620710372925, 5.261679551754683e-40, 0.08514333516359329, 0.0877646803855896, 0.04839757829904556, 0.042554937303066254, 0.03638523444533348, -0.06258831173181534, -0.07863560318946838, 0.037300966680049896, 0.05692856386303902, 6.300476116343313e-40, -0.09921351820230484], [0.02037702314555645, 0.0017288109520450234, -0.0004982270183973014, -0.003128801006823778, -0.01079841423779726, -0.008692583069205284, -0.0016749851638451219, -0.011076206341385841, -0.027286868542432785, 0.04061703011393547, 0.016870003193616867, 0.007498157676309347, 0.0149213382974267, 0.0015158808091655374, -0.01293872483074665, 0.025482894852757454, 0.06968622654676437, 0.0771070122718811, 0.14357174932956696, -0.18486188352108002, 0.0171844270080328, 0.015534358099102974, -0.00944029912352562, 0.020009338855743408, -0.00469142897054553, -0.00037630699807778, 0.02185412123799324, -0.00380048924125731, 4.992237883034307e-40, -0.015551452524960041, 0.05916200205683708, -0.006743667181581259, 0.013139914721250534, -0.011617481708526611, 0.004407018888741732, 0.008744468912482262, 0.005448626354336739, -0.01866517961025238, -5.378533830694729e-40, -0.014075852930545807], [0.05571698024868965, 0.008411606773734093, -0.056806329637765884, -0.06485658138990402, -0.03502923250198364, -0.043751612305641174, -0.03365209698677063, -0.018616115674376488, -0.06672608852386475, -0.0015571878757327795, 0.052597224712371826, 0.0651019960641861, 0.05550598353147507, 0.03400447592139244, 0.05183985456824303, 0.026461582630872726, -0.022037193179130554, -0.05355537310242653, -0.28504514694213867, 0.3090583384037018, 0.06745859235525131, 0.057917650789022446, 0.006193841341882944, -0.012204843573272228, -0.008259045891463757, -0.021746870130300522, -0.020821277052164078, -0.01662757247686386, 4.940025502253564e-40, -0.04456191137433052, 0.001566738123074174, 0.003284754464402795, 0.04940476641058922, 0.0021059156861156225, 0.004981252830475569, 0.0057166581973433495, 0.001902593532577157, 0.028934380039572716, 4.9134568833699656e-40, -0.09095197170972824], [0.12302456051111221, 0.23898445069789886, 0.28617313504219055, 0.15856216847896576, 0.17240935564041138, 0.14713987708091736, 0.1565668284893036, 0.14149773120880127, -0.029675345867872238, 0.2894219160079956, -0.10975228250026703, -0.009428693912923336, -0.015923988074064255, -0.6229835152626038, -0.6096298694610596, -0.5872888565063477, -0.47459495067596436, -0.4806307256221771, 0.7956782579421997, -0.43154239654541016, 0.1460338830947876, 0.1649218052625656, -0.0885639637708664, -0.09251593053340912, -0.0958092138171196, -0.08789823204278946, -0.0851840078830719, -0.0902368500828743, -4.950198929104562e-40, 0.06101280078291893, -0.03711756318807602, -0.04256776347756386, -0.017569441348314285, -0.04415779933333397, -0.030781690031290054, 0.07547526061534882, 0.018668467178940773, 0.00454426696524024, 5.024790046360572e-40, -0.09344907850027084], [5.106625876677142e-40, 4.198248160163222e-40, -4.968906263603299e-40, -5.023248618049815e-40, -5.041465498086038e-40, -4.913120571738528e-40, -5.409320357955945e-40, -4.069791129938566e-40, -5.212872326242249e-40, -5.007147698694723e-40, -5.150164219963714e-40, -5.243869048273114e-40, -5.3851059204924125e-40, -5.2606566038757255e-40, -5.14311568868816e-40, -4.915839090759318e-40, -6.282147132429944e-40, -5.395811840759854e-40, -4.935485295229152e-40, -4.955467811330424e-40, -4.932220269807275e-40, -5.014392411755282e-40, -4.9696909907433205e-40, -5.1407194683141644e-40, -4.993667207467918e-40, -5.004485231612506e-40, -4.950759448490292e-40, -5.0783897126209966e-40, -4.988818714781354e-40, -5.056221170915378e-40, -4.9634271866077886e-40, -4.955776096992575e-40, -4.937881515603147e-40, -5.0384106674338095e-40, -5.018750449979332e-40, -5.107424616801807e-40, -5.11123614862477e-40, 4.992882480327896e-40, -5.7256074343387e-40, -4.984180416864439e-40], [-5.041829835686762e-40, -3.6756198849086384e-40, -5.052059314476333e-40, -4.939731229576056e-40, -5.1368238585833414e-40, -5.598047235131212e-40, -5.8445636609752335e-40, -5.24294419128666e-40, -5.2786072372037264e-40, -5.266892382041971e-40, -5.375493013027144e-40, -5.1069061363700066e-40, -5.021763241677631e-40, -5.226913336854784e-40, -5.227305700424795e-40, -4.99880997283199e-40, -5.275146029996844e-40, -5.165578503071287e-40, -5.601690611138456e-40, -5.8194944314484626e-40, -5.028783746983898e-40, -5.025630825439167e-40, -5.064194559177386e-40, -4.9834097027090605e-40, -5.1127215249969546e-40, 4.9464294362355285e-40, -4.959909927462333e-40, 5.082215257428603e-40, -4.9253118683781535e-40, -4.960778732510215e-40, -4.921836648186628e-40, -5.1631962956819345e-40, -5.056865768208967e-40, -5.090931333876704e-40, -5.017054878837499e-40, -5.030100967540363e-40, -5.018231969547532e-40, -4.906044014493687e-40, 4.958158304381927e-40, -5.938310528238564e-40], [-3.743078392981235e-40, -1.0583586911506046e-40, -5.198691185783282e-40, -5.466535374254328e-40, -5.2740390042100275e-40, -4.937867502618504e-40, -4.825623495626086e-40, -5.071677492976881e-40, -5.1912082519837876e-40, 5.407933072476264e-40, -5.21390928710585e-40, -5.214091455906212e-40, -3.912803662980257e-40, -4.913484909339252e-40, -3.6330344245778072e-40, -5.145007441614998e-40, -4.986983013793089e-40, 3.63093247688132e-40, 4.909281013946278e-40, -6.140854208272073e-40, -5.0150370090488716e-40, -4.926867309673554e-40, -5.137412403938358e-40, -5.040204329468145e-40, -4.959307369122674e-40, -5.066198415981371e-40, -5.100376085526253e-40, -4.997338609444449e-40, 4.9930085971896854e-40, -5.796653266479968e-40, -5.017503294346083e-40, -5.161626841401891e-40, -5.073723388734795e-40, -4.941034437147878e-40, -5.21054617079147e-40, 9.025763408716147e-42, -4.919804765413357e-40, -5.019703332935073e-40, 6.052852664712474e-40, -4.9127702471224464e-40], [-5.084345231094377e-40, -5.162159334818334e-40, -5.2725396148532e-40, 1.4072679957828408e-40, -5.043735601598244e-40, -5.003826621334273e-40, 2.814620069473541e-40, -5.118620991531762e-40, -5.0840929973707986e-40, -5.237198867582928e-40, -5.5035716926664325e-40, -5.160043374137204e-40, -5.257643812177427e-40, -5.248283138435737e-40, -5.1347919758100704e-40, -4.865462410966841e-40, -5.098526371553344e-40, -4.915026337650009e-40, -5.701322931951951e-40, -5.736061120882563e-40, -4.920603505538022e-40, -5.044015861291109e-40, 5.033183824161878e-40, -5.108867954220061e-40, 4.9864645333612886e-40, -4.96697247172253e-40, -5.104622019873157e-40, -5.09751743665903e-40, 5.374329935301755e-40, -4.906884793572282e-40, -5.005732387245755e-40, -4.931561659529042e-40, -5.045781497356158e-40, -5.076876310279526e-40, -5.0155975284346015e-40, -5.090609035229909e-40, -4.986114208745207e-40, -5.111670551148711e-40, 4.932304347715134e-40, -4.976473275310653e-40], [-0.013047921471297741, -0.16901573538780212, 0.17867712676525116, 0.3938824534416199, 0.43545007705688477, 0.2760211229324341, 0.26960864663124084, 0.3222530484199524, 0.6928970217704773, 0.35100531578063965, 0.5149605870246887, 0.338880330324173, 0.3529282510280609, 0.28700751066207886, -0.044902388006448746, 0.06311921030282974, 0.06368772685527802, 0.14099282026290894, 0.1325540840625763, -1.2320101261138916, -0.26417800784111023, 0.3306635916233063, 0.05371746048331261, 0.1752779483795166, 0.18653546273708344, 0.25140294432640076, 0.2430364042520523, 0.21202699840068817, -5.008380841343329e-40, -0.38022828102111816, 0.05099231004714966, 0.08340571075677872, 0.04922064021229744, 0.04186040908098221, -0.031622514128685, -0.06846880167722702, 0.072142094373703, 0.0237086433917284, 4.9958952720261946e-40, 0.5732018351554871], [-5.519532482175092e-40, -7.111589706448447e-42, -5.284114340168523e-40, -3.977893976648145e-40, -5.028461448337103e-40, -5.139023897172331e-40, -5.087568217562324e-40, -5.419129447206219e-40, -5.616544374860299e-40, -5.633822384925424e-40, -5.455381038478302e-40, -5.051218535397738e-40, -5.057075962978616e-40, -5.000841855605261e-40, -5.293699221664505e-40, -5.260572525967866e-40, -5.178904851467016e-40, -5.023626968635183e-40, -4.9546690712057585e-40, -4.945490566264431e-40, -4.921234089846968e-40, -5.0802534395785486e-40, -5.083532477985069e-40, -4.908720494560548e-40, 5.0284194093831736e-40, -5.0334360578854564e-40, -5.042236212241416e-40, -5.03116595437325e-40, -5.126314120100905e-40, -4.943823021091884e-40, -4.976207028602431e-40, -4.9416229825028944e-40, -4.953786253173234e-40, -4.962586407529194e-40, -4.928688997677176e-40, -5.105630954767471e-40, -4.970671899668348e-40, -5.106331603999633e-40, 4.968640016895077e-40, -4.929978192264355e-40], [-5.072041830577605e-40, 5.302457337066535e-40, -6.204136846920982e-40, -4.987347351393813e-40, -5.030801616772526e-40, -5.12219430261579e-40, -5.183431045506785e-40, -5.077464855634542e-40, -5.142288922594208e-40, -5.063942325453808e-40, 4.939801294499272e-40, -5.168689385662088e-40, -5.2817181197945275e-40, -5.40192150206431e-40, -4.954627032251829e-40, -5.425743575957832e-40, -5.6517870312380685e-40, -5.102884409777394e-40, -4.932150204884059e-40, -4.9330470359012265e-40, -4.929291556016836e-40, -4.982120508121882e-40, -4.970391639975483e-40, -5.161598815432604e-40, -4.912910376968879e-40, -5.032160876282921e-40, 5.017377177484294e-40, -4.9405579956700075e-40, -5.681788831359263e-40, -5.34937280965213e-40, -4.9106823124106024e-40, -5.047911471021932e-40, -4.938960515420677e-40, -5.079356608561381e-40, -5.111950810841576e-40, 5.115243862232739e-40, -4.9802147422104e-40, -5.024173475036269e-40, -4.9331591397783725e-40, -5.9330416460127025e-40], [-4.980789274580773e-40, -5.504762796361109e-40, -5.1684511649231525e-40, -5.594515963001113e-40, 5.422716771274891e-40, -3.34132612325931e-40, -5.451611545609268e-40, -5.6288617883617144e-40, -5.063437858006651e-40, -5.788876060002965e-40, -5.2928444296012666e-40, -5.4009125671699965e-40, -5.237367023398647e-40, -5.549506256327e-40, -5.629352242824228e-40, -5.635307761297609e-40, -3.9436042032261164e-40, -5.409404435863805e-40, -5.136291365166898e-40, -6.2184721302110245e-40, -4.998403596277336e-40, -5.0905810092606225e-40, -5.292087728430531e-40, -5.306465050674504e-40, -5.378169493094005e-40, -5.062933390559494e-40, -5.116434965927415e-40, -4.992910506297183e-40, -5.6338924498486405e-40, -5.053390548017442e-40, -4.924681284069207e-40, 5.048500016376948e-40, -5.119798082241795e-40, -5.040736822884589e-40, -6.156843023750019e-40, -5.045501237663293e-40, 5.188517758932284e-40, -5.1041315654106434e-40, 5.125543405945527e-40, 4.966664186060379e-40], [0.15738561749458313, -0.3461831212043762, -0.3962188959121704, -0.43213698267936707, -0.43775689601898193, -0.3134418725967407, -0.3291756510734558, -0.17720560729503632, -0.2051524519920349, -0.020914040505886078, 0.08056683093309402, 0.05828401446342468, 0.02109062299132347, -0.018558980897068977, 0.050206467509269714, 0.019901571795344353, -0.038773104548454285, -0.33102521300315857, -0.4741368889808655, 1.3364145755767822, -0.008302674628794193, 0.050756100565195084, 0.04414478316903114, -0.15020132064819336, -0.03011292964220047, 0.01790430396795273, 0.029620535671710968, -0.07049421221017838, 4.9498205785191946e-40, -0.33088022470474243, 0.21021263301372528, 0.10112372785806656, 0.07769705355167389, 0.03555722162127495, -0.0480722151696682, -0.16908429563045502, -0.268038272857666, -0.2596246302127838, -4.917212363254356e-40, -0.12407493591308594], [0.08333994448184967, 0.022280588746070862, -0.07176237553358078, -0.08597330749034882, -0.04472256079316139, -0.06213536113500595, -0.04730672761797905, -0.024170735850930214, -0.08672703802585602, 0.01073463261127472, 0.07074543833732605, 0.09326020628213882, 0.07171333581209183, 0.04644092544913292, 0.06991501897573471, 0.03797174617648125, -0.026870353147387505, -0.07450350373983383, -0.3866961896419525, 0.4113122522830963, 0.0918775126338005, 0.07719362527132034, 0.006595758721232414, -0.013879898935556412, -0.012475951574742794, -0.028175856918096542, -0.02607407607138157, -0.02160004712641239, 4.978365028237491e-40, -0.056859612464904785, 0.0023719833698123693, 0.0045405542477965355, 0.06672487407922745, 0.00397020997479558, 0.006612923927605152, 0.007177670951932669, 0.004231797531247139, 0.038217902183532715, 4.910640273456673e-40, -0.1193820983171463], [-5.167764528675633e-40, -1.6786294433993416e-40, -5.15795543942536e-40, -5.160393698753285e-40, -5.150962960088379e-40, -5.39704498340846e-40, -4.5238959102876664e-40, -4.284890444212426e-40, -5.0268079161492e-40, -5.663039457906597e-40, 5.459935258487358e-40, -5.409796799433816e-40, -4.9528053442482064e-40, -5.857329489985233e-40, -5.1452456623539336e-40, -5.1507107263648e-40, -5.630627424426764e-40, -5.316428282755853e-40, -4.947144098452334e-40, -5.053110288324577e-40, 5.346289953030615e-40, 4.980088625348611e-40, -5.22158840269035e-40, -4.9621800309745395e-40, -5.08763828248554e-40, -5.038060342817728e-40, -5.174532800258322e-40, -5.0258129942395294e-40, 4.939156697205683e-40, -5.012836970459882e-40, -4.991523220817501e-40, 4.906128092401547e-40, -4.966215770551795e-40, -6.1786752538242e-40, -4.90614210538619e-40, -5.245942970000315e-40, -4.9561964865318725e-40, -5.058028845934357e-40, 4.96653806919859e-40, -4.92201881698699e-40], [0.15502291917800903, 0.016570528969168663, 0.007889202795922756, 0.019780345261096954, -0.3960326015949249, -0.37374386191368103, 0.08303864300251007, 0.15399104356765747, -0.47425779700279236, 0.08239936083555222, 0.10604304075241089, 0.09124790132045746, 0.0772072896361351, 0.08123376965522766, 0.06543230265378952, 0.07150915265083313, 0.06547097861766815, 0.02655903622508049, -0.3655824363231659, 0.43166103959083557, -0.00029472055030055344, 0.006886601913720369, 0.0008258086745627224, -0.002708795014768839, 0.011575786396861076, 0.009562269784510136, 0.00327193271368742, 0.10808015614748001, 5.12935493776849e-40, -0.13753317296504974, -0.034134238958358765, 0.1446400135755539, -0.024190718308091164, -0.025866802781820297, -0.04279736056923866, -0.02087255008518696, -0.014513717964291573, -0.03305984288454056, -5.360218859766004e-40, 0.049416739493608475], [5.450854844438533e-40, -5.436757781887425e-40, 4.9288711664775386e-40, -5.2275018822098e-40, 5.1840896557850175e-40, -5.075236791076266e-40, 4.985483624436261e-40, -5.2966839873935166e-40, -5.6132232974998495e-40, 5.34820973192674e-40, -5.688991505465892e-40, 4.99777301196839e-40, -4.9960914538112e-40, 4.704186970707697e-40, -5.337013357196785e-40, -5.015499437542099e-40, -3.4850432937604633e-40, 5.185518980218629e-40, -4.90618414434012e-40, -4.92857689380003e-40, -4.99440989565401e-40, -5.047350951636202e-40, -5.0294843962160604e-40, -4.936115879538098e-40, -5.978149443579318e-40, -4.9223691416030714e-40, -5.070388298389702e-40, -5.00484956921323e-40, -5.032020746436488e-40, -5.024425708759848e-40, -4.951067734152444e-40, -5.015107073972088e-40, -4.931113244020458e-40, -4.9466536439898205e-40, -5.0102866072548104e-40, -4.960834784448788e-40, -5.630683476365337e-40, -5.067221363860328e-40, -4.937713359787428e-40, -4.937657307848855e-40], [-5.738050964701904e-40, -5.505463445593271e-40, -5.699431179025112e-40, -5.148146350175086e-40, -6.257302110657465e-40, -5.3792905318654645e-40, -5.707698839964629e-40, -5.283371651982431e-40, -5.141560247392759e-40, -2.109360565363504e-40, -5.193043952972053e-40, -5.26317894111151e-40, -5.300999986663637e-40, -4.909645351547002e-40, -5.029680578001066e-40, -5.0139019572927685e-40, -5.382709700118417e-40, -2.556739113083845e-40, -4.932080139960842e-40, -4.9350789186744975e-40, -5.040400511253151e-40, -4.938329931111731e-40, -5.014966944125655e-40, -5.288023962883989e-40, -5.045613341540439e-40, -5.005297984721814e-40, -5.108335460803618e-40, -5.042348316118562e-40, -4.922803544127012e-40, -4.9766974830649446e-40, -6.234334828827181e-40, -5.0633677930834345e-40, -5.008520971189761e-40, -5.025714903347027e-40, -5.10963866837544e-40, -5.042278251195346e-40, -4.92486345286957e-40, -5.050503873180933e-40, -4.9862403256069966e-40, -4.9889308186585e-40], [0.07795097678899765, -0.028369849547743797, -0.8651090264320374, 0.4267881214618683, 0.3836493492126465, 0.2236994355916977, 0.2567512094974518, -0.05098743364214897, -0.1335454136133194, -0.08431761711835861, -0.04444335028529167, 0.00908356811851263, 0.06948505342006683, 0.08460668474435806, 0.0819181427359581, 0.04287780448794365, -0.03222256526350975, -0.15710847079753876, -0.6966282725334167, 0.6380730271339417, 0.018230969086289406, -0.021723007783293724, 0.0030723304953426123, -0.018882401287555695, 0.0333099327981472, -0.014076704159379005, 0.00408767769113183, -0.03558697924017906, 5.045795510340801e-40, 0.08621318638324738, 0.07065536826848984, 0.06110677123069763, -0.04495735093951225, 0.1052209734916687, 0.0009382216376252472, 0.0015419565606862307, -0.009316702373325825, 0.030644545331597328, -4.979724287747886e-40, -0.15641678869724274], [-5.045319068862931e-40, -4.114422486027312e-40, -5.066156377027441e-40, -5.301280246356502e-40, -5.523540195783061e-40, -3.497388733231165e-40, -5.515748976321415e-40, -5.366314508085817e-40, -4.951263915937449e-40, -5.220369273026387e-40, -4.9599239404469765e-40, -5.000841855605261e-40, -5.153078920769509e-40, -5.1094985385290075e-40, -5.546941880137286e-40, -5.227936284733741e-40, -5.4114783575910056e-40, -4.627311736954838e-40, -4.947368306206626e-40, -4.920435349722303e-40, -5.0450107832007794e-40, -4.9615074077116636e-40, -4.991887558418226e-40, -4.924835426900283e-40, -5.1798717474074e-40, -5.00208901123851e-40, -5.194389199497805e-40, -5.157927413456073e-40, 5.350816147070384e-40, -4.920995869108033e-40, -4.955173538652915e-40, -5.117527978729589e-40, -5.0518491197066845e-40, -5.012444606889871e-40, -5.1745468132429655e-40, -5.0208523976758196e-40, -4.912069597890284e-40, -4.968149562432563e-40, 5.013467554768828e-40, -5.055072106174632e-40], [0.08627980202436447, -0.007097076158970594, -0.01762399636209011, -0.01389019750058651, -0.02826114557683468, -0.32727673649787903, -0.3532816171646118, -0.43998223543167114, -0.24159163236618042, 0.06466420739889145, 0.12599487602710724, 0.1573377400636673, 0.09538853913545609, 0.09065565466880798, 0.07193435728549957, 0.08058388531208038, 0.04096313938498497, 0.020022261887788773, -0.370007187128067, 0.5531901121139526, -0.0015818685060366988, -0.006831222679466009, 0.003685256000608206, 0.005755322054028511, -0.00035344838397577405, -0.01142210979014635, -0.0021910176146775484, 0.03460203856229782, 5.000953959482407e-40, -0.11435344070196152, -0.04211179167032242, -0.028891943395137787, -0.036302126944065094, -0.035835426300764084, -0.03340655937790871, -0.04334692656993866, 0.1049003005027771, 0.041095368564128876, -5.002201115115656e-40, -0.015798022970557213], [0.07638980448246002, 0.03910081833600998, -0.014033586718142033, -0.321374773979187, 0.07434353977441788, 0.030983351171016693, 0.08170488476753235, 0.13003608584403992, 0.16025452315807343, 0.030549831688404083, 0.016108257696032524, 0.018680574372410774, 0.02437051758170128, 0.007666334044188261, 0.032702766358852386, -0.003194247605279088, -0.014657421968877316, -0.06883420795202255, -0.3545384705066681, 0.30214443802833557, 0.1264270842075348, 0.009004696272313595, -0.0062298234552145, 0.012611395679414272, -0.00656862510368228, -0.0104471230879426, -0.016815129667520523, -0.029919331893324852, 4.99725453153659e-40, -0.017110509797930717, 0.01594838686287403, 0.02117062360048294, 0.02436121739447117, -0.031845565885305405, 0.013467411510646343, 0.02349678799510002, 0.019480383023619652, 0.013260489329695702, -5.030423266187158e-40, -0.03381926566362381], [0.0013395845890045166, -0.044463861733675, -0.000980107462964952, 0.051587238907814026, 0.04507825896143913, 0.037400320172309875, 0.06517103314399719, 0.01123981922864914, 0.0416736900806427, 0.009834065102040768, 0.02115582674741745, 0.06878206133842468, 0.10736927390098572, 0.05540446192026138, 0.04844621941447258, 0.0758875235915184, 0.09518402069807053, 0.11886155605316162, 0.18405146896839142, -0.39705196022987366, 0.05270195007324219, 0.04223313182592392, 0.02423151768743992, 0.052377838641405106, 0.025774966925382614, 0.013905758038163185, 0.05898577347397804, 0.024434875696897507, -5.4018234111718076e-40, -0.14028416574001312, 0.0035441815853118896, -0.033628933131694794, 0.025249889120459557, -0.022662924602627754, 0.017710993066430092, 0.012585301883518696, 0.0538858026266098, -0.030450206249952316, 5.055996963161086e-40, 0.13134558498859406], [-0.018284471705555916, 0.009443024173378944, 0.08297302573919296, 0.07689864188432693, 0.06398333609104156, 0.05498439818620682, 0.10038240253925323, 0.09353765845298767, 0.13722077012062073, -0.047948502004146576, -0.023179110139608383, 0.006970070768147707, 0.03488492593169212, 0.03379245474934578, 0.03915088623762131, 0.029697274789214134, -0.00047665482270531356, -0.019810225814580917, -0.41928333044052124, 0.2459191530942917, 0.022171663120388985, 0.006556538864970207, -0.0036700970958918333, -0.006035590078681707, 0.004556362982839346, -0.01343722827732563, -0.009144773706793785, -0.010126817971467972, 5.0801973876399756e-40, 0.13460120558738708, 0.04099169000983238, 0.0275285504758358, 0.01736195757985115, -0.00019559798238333315, 0.0587562620639801, 0.05344879627227783, 0.04585058614611626, 0.041268546134233475, 4.9810975602429245e-40, -0.16135388612747192], [-0.03249349817633629, -0.067542165517807, 0.02078947238624096, 0.0565582774579525, 0.056886155158281326, 0.057984597980976105, 0.0391976423561573, -0.03308723866939545, -0.07939870655536652, -0.012327786535024643, -0.038673724979162216, 0.20899075269699097, 0.19585636258125305, 0.17888213694095612, 0.15331558883190155, 0.15108127892017365, 0.1654728502035141, 0.04757038131356239, 0.32227134704589844, -0.5827779173851013, 0.07609280943870544, 0.05792415142059326, 0.008627540431916714, -0.027130961418151855, 0.0875556543469429, 0.08527099341154099, 0.08070416003465652, 0.0693182572722435, 4.940796216408943e-40, -0.23682628571987152, 0.009177018888294697, -0.003170571755617857, 0.0047217425890266895, -0.0034940754994750023, 2.2147683921502903e-05, -0.0026030882727354765, -0.00035265457700006664, -0.02680935338139534, -4.9853855335437584e-40, 0.2157449573278427], [-5.2247413242350804e-40, -5.008913334759772e-40, -4.984250481787655e-40, -5.198929406522217e-40, -5.122572653201158e-40, -5.127393119918435e-40, -4.907963793389812e-40, -5.214539871414796e-40, -4.9470460075598314e-40, -5.088338931717703e-40, -5.0177975670235915e-40, 4.93198204906834e-40, -5.047378977605488e-40, -5.074900479444828e-40, -5.020516086044382e-40, -5.110143135822597e-40, -5.150570596518368e-40, -4.910528169579527e-40, -5.394746853926967e-40, -5.419746018530522e-40, -5.008506958205118e-40, -5.134497703132562e-40, -5.087456113685178e-40, -4.978379041222134e-40, -4.910668299425959e-40, -6.167787164756396e-40, -4.973824821213079e-40, -5.028853811907114e-40, 4.969060406434374e-40, -4.943080332905792e-40, -4.955425772376494e-40, -5.063227663237002e-40, -4.94570076103408e-40, 5.022225670170858e-40, -5.017727502100375e-40, -4.969088432403661e-40, -5.03008695455572e-40, -5.126930691425208e-40, -5.177433488079475e-40, 4.920295219875871e-40], [0.024688411504030228, 0.23130619525909424, 0.1959153562784195, 0.22957263886928558, 0.060263942927122116, 0.06061457097530365, 0.05533993989229202, 0.035210758447647095, 0.0858989804983139, 0.07790232449769974, -0.446044385433197, -0.4837779104709625, -0.47277235984802246, -0.4270554780960083, -0.4160395562648773, -0.27625948190689087, -0.1211143359541893, -0.2153915911912918, 0.721963107585907, -0.1644323170185089, 0.06392934918403625, 0.08391976356506348, 0.10976457595825195, -0.05091730132699013, -0.09705328941345215, -0.1518009603023529, -0.1167355626821518, -0.0998063012957573, -4.966047614736076e-40, 0.002376754069700837, -0.012302645482122898, 0.048381365835666656, -0.053720422089099884, 0.07099306583404541, -0.024251552298665047, 0.01780446618795395, -0.024591175839304924, -0.12471120804548264, 5.0752227780916225e-40, -0.15106520056724548], [0.04819625988602638, -0.07632394880056381, 0.21614742279052734, 0.0015018912963569164, 0.43997159600257874, 0.30490314960479736, 0.1795460283756256, 0.23001551628112793, 0.23441071808338165, -0.07363719493150711, -0.015160730108618736, -0.0007767716306261718, -0.00577180041000247, 0.004962445702403784, -0.02313748374581337, -0.048783622682094574, -0.08413828909397125, -0.32847562432289124, -0.6742441654205322, 0.35908791422843933, 0.11800730228424072, 0.06405424326658249, -0.007140133995562792, 0.07949040085077286, 0.055378422141075134, 0.05719553679227829, -0.030230900272727013, -0.21186508238315582, -4.925914426717813e-40, 0.026205092668533325, 0.13444873690605164, 0.04601341113448143, 0.015202581882476807, -0.006918822415173054, -0.02067863568663597, -0.038159582763910294, 0.10262239724397659, 0.09894655644893646, -6.098072566156236e-40, -0.1762617528438568], [0.03575998544692993, 0.006214441731572151, 0.013924400322139263, 0.017997603863477707, -0.00873110257089138, -0.016036560758948326, -0.015972839668393135, -0.009698187932372093, -0.06924101710319519, 0.09116418659687042, 0.05339463800191879, 0.023139603435993195, -0.006587771233171225, -0.013309973292052746, -0.057168684899806976, 0.08964979648590088, 0.1293133646249771, 0.1408887505531311, 0.2967493534088135, -0.37273529171943665, 0.036826569586992264, 0.033506568521261215, 0.00450552674010396, 0.040293507277965546, 0.006909122224897146, 0.005967470817267895, -0.007393738720566034, 0.0053533161990344524, -4.949680448672762e-40, -0.036015696823596954, 0.1309487670660019, 0.02989927865564823, 0.012571102008223534, -0.04527449980378151, 0.0029157381504774094, -0.006065275985747576, 0.04524466022849083, -0.04605671018362045, 5.0750546222759035e-40, -0.034308526664972305], [-5.2934610009255695e-40, -5.438817690629983e-40, -4.997268544521233e-40, -5.271362524143167e-40, -5.006376984539344e-40, -4.096976320146468e-40, -4.930356542849723e-40, -5.669947859335718e-40, -5.4663532054539654e-40, -4.967238718430752e-40, -5.051120444505236e-40, -5.146801103649334e-40, -5.1388557413566124e-40, -5.4900211365164116e-40, -4.987543533178819e-40, -5.469842438630134e-40, -5.01852624222504e-40, -5.251688293704047e-40, -5.8204473144042034e-40, 5.018498216255754e-40, -4.938568151850666e-40, -5.049859275887343e-40, -4.960232226109128e-40, -4.985357507574472e-40, -4.9867447930541535e-40, -5.1705951515735695e-40, -5.010945217533043e-40, -4.926348829241754e-40, -5.000813829635975e-40, -5.081850919827879e-40, -5.030311162310012e-40, -5.01692876197571e-40, -5.051975236568474e-40, -4.945672735064793e-40, -4.905721715846893e-40, -4.941538904595035e-40, -4.937573229940996e-40, 5.107873032310391e-40, 5.001948881392078e-40, -4.970153419236548e-40], [-5.36913111799911e-40, 3.092203282271644e-40, 5.0960600862561325e-40, -5.397969840394914e-40, -5.102169747560589e-40, -5.210980573315411e-40, -5.305736375473055e-40, -4.93526108747486e-40, -5.363343755341448e-40, -5.030100967540363e-41, 6.607682778677242e-41, -2.7612305979827655e-40, -3.4532198056356467e-41, -5.167764528675633e-40, -5.336256656026049e-40, -4.065783416330597e-40, -4.337635318409612e-40, -2.3192890883040047e-41, -4.948545396916659e-40, -4.951291941906736e-40, -4.94725620232948e-40, -5.047336938651559e-40, -5.294259741050235e-40, -5.007764270019026e-40, -4.950409123874211e-40, -6.086315672040551e-40, -5.1401028969898615e-40, -5.0612798583715905e-40, -5.570007252860072e-40, -6.038279160683496e-40, -5.01697080092964e-40, 4.913470896354609e-40, -4.966173731597865e-40, -5.97397357415563e-40, -4.964562238363892e-40, -5.2897895989490385e-40, 5.070332246451129e-40, -4.038934537754134e-40, 4.9472702153141234e-40, -5.037303641646993e-40], [-5.772971322432879e-40, -5.393387594416572e-40, -5.7841957231321204e-40, -5.2587368249796005e-40, -5.288416326454e-40, -5.134651845963638e-40, -5.151985907967336e-40, -4.989953766537457e-40, -5.457973440637303e-40, -5.066829000290317e-40, -5.179563461745248e-40, -4.125857081496202e-40, -5.039461641282053e-40, -1.7158479306118088e-40, -5.336144552148903e-40, -5.1458622336782365e-40, -4.972199314994462e-40, -5.204170262778792e-40, -5.13435757328613e-40, -5.167302100182406e-40, -4.9645482253792484e-40, -5.000225284280958e-40, 4.926825270719624e-40, -5.1302797947549445e-40, -4.962025888143464e-40, -5.21054617079147e-40, -5.1287523794288305e-40, -5.011463697964843e-40, -4.914437792294993e-40, -4.9468778517441125e-40, -4.920085025106222e-40, -5.130293807739588e-40, -4.913204649646387e-40, -5.042236212241416e-40, -5.031474240035402e-40, -4.951824435323179e-40, -5.207000885676728e-40, 5.172781177177916e-40, 5.22974395975272e-40, -5.085354165988691e-40], [5.3838027129205904e-40, -5.1805864096242055e-40, -5.153905686863461e-40, 5.088366957686989e-40, -5.159847192352198e-40, -5.200022419324391e-40, -5.4429795470690275e-40, -6.0345657197530355e-40, -5.56318292933881e-40, 5.035215706935149e-40, 3.5320848832078474e-40, 5.065357636902776e-40, -5.055646638545005e-40, -4.7232166038532284e-40, 5.383606531135585e-40, 2.495824668839645e-40, -6.0358128753862846e-40, -5.134259482393627e-40, -4.906758676710493e-40, -4.9511658250449464e-40, -4.908286092036607e-40, -4.9354712822445085e-40, -5.043861718460033e-40, -4.907417286988726e-40, -4.97197510724017e-40, -4.989267130289938e-40, -5.0826776859218305e-40, -5.045052822154709e-40, 5.016690541236775e-40, -4.9660195887667895e-40, -4.9581162654279975e-40, -5.039531706205269e-40, -5.077058479079888e-40, -5.125094990436943e-40, -5.016200086774261e-40, -5.0813744783500084e-40, -5.020417995151879e-40, -5.081780854904663e-40, 4.9642679656863835e-40, -5.052451678046344e-40], [-0.1161947101354599, 0.08155501633882523, 0.10210362076759338, 0.14493106305599213, 0.1358295977115631, 0.2106986939907074, 0.22478358447551727, 0.14136949181556702, 0.1836337149143219, -0.010541352443397045, -0.41842371225357056, -0.33265987038612366, -0.25021669268608093, -0.22961650788784027, -0.2771100401878357, -0.36006948351860046, -0.3454625606536865, -0.35846248269081116, 0.7665113210678101, -0.16638916730880737, 0.06794918328523636, 0.04353698343038559, 0.03127158433198929, -0.04370512068271637, -0.04283028841018677, 0.06858864426612854, 0.07537341862916946, -0.2004205882549286, 4.985189351758753e-40, -0.17595620453357697, -0.08383920043706894, -0.0902131199836731, -0.03120412863790989, 0.006735449656844139, -0.027369290590286255, -0.02236855961382389, -0.0106718260794878, -0.025599118322134018, -5.037009368969485e-40, 0.11229705810546875], [-4.991845519464296e-40, -2.8920698355967737e-40, 5.134932105656503e-40, -5.294245728065591e-40, -5.318936607006995e-40, -5.159679036536479e-40, -5.292073715445888e-40, -5.2624082269561315e-40, -1.8457062593007896e-40, 4.963160939899567e-40, -5.01205224331986e-40, -5.081248361488219e-40, -1.1731110223941639e-40, -4.966047614736076e-40, -4.955509850284353e-40, -5.274809718365406e-40, 5.127182925148787e-40, -5.019451099211495e-40, -2.0725764806749774e-40, -4.937138827417055e-40, 4.961157083095582e-40, -4.925788309856024e-40, -4.945742799988009e-40, -4.959517563892322e-40, -4.989897714598884e-40, 2.987848585633375e-41, -5.016242125728191e-40, -5.085704490604772e-40, 4.9643380306096e-40, 4.97465158730703e-40, -5.070234155558626e-40, -5.0342908499486946e-40, -5.0368272001691225e-40, -4.948881708548097e-40, -5.030703525880023e-40, -5.097405332781884e-40, -5.06460093573204e-40, -4.909813507362721e-40, 4.997142427659444e-40, -5.0032520889639e-40], [-0.1588250994682312, 0.151580810546875, 0.1550278663635254, 0.20586109161376953, 0.23178943991661072, 0.19557204842567444, 0.2801232933998108, 0.17244994640350342, 0.061223361641168594, 0.04210491478443146, -0.8671026229858398, -0.17464041709899902, -0.13148340582847595, -0.03226124495267868, -0.25600340962409973, -0.3093879818916321, -0.860085129737854, -0.8807218670845032, 0.9655055403709412, -0.3281569480895996, 0.09311233460903168, -0.10715363919734955, 0.023323150351643562, -0.06684337556362152, 0.011015498079359531, -0.02376110851764679, -0.030799495056271553, -0.13955692946910858, 5.007203750633296e-40, -0.09770979732275009, -0.1258247196674347, -0.1782797873020172, -0.06716696918010712, 0.015472772531211376, -0.10342373698949814, -0.03307738155126572, -0.022022737190127373, -0.08351762592792511, -5.040512615130297e-40, 0.2419797033071518], [0.11966783553361893, 0.4581080973148346, 0.40970322489738464, 0.46229124069213867, 0.38847237825393677, 0.3979809284210205, 0.398109495639801, 0.296002596616745, 0.24272343516349792, 0.08300469070672989, -0.17529430985450745, -0.9584090709686279, -1.0848886966705322, -1.1500346660614014, 0.12577302753925323, 0.0503261536359787, -1.777393102645874, -0.1423187553882599, 0.7349589467048645, -0.22195154428482056, -0.024891868233680725, -0.047090135514736176, -0.05718771368265152, -0.010759550146758556, 0.009550638496875763, 0.034679919481277466, -0.06010938808321953, -0.07202161848545074, 5.077380777726683e-40, -0.08431613445281982, -0.0114368237555027, -0.030501170083880424, -0.059552233666181564, -0.056263286620378494, -0.05322570353746414, -0.06992171704769135, -0.04901499301195145, -0.028135258704423904, -4.980579079811124e-40, 0.038617439568042755], [0.11250501126050949, -0.42066699266433716, 0.23076719045639038, 0.19391129910945892, 0.019172079861164093, 0.13793271780014038, 0.27656546235084534, 0.20203880965709686, -0.3924242854118347, -0.18240301311016083, -0.0843433365225792, 0.05125683173537254, 0.058528073132038116, 0.06943340599536896, 0.08316263556480408, 0.03538813441991806, -0.027028607204556465, -0.08250997960567474, -0.8155440092086792, 0.7754355072975159, -0.009384378790855408, 0.08554395288228989, 0.009601780213415623, -0.07124004513025284, -0.0009383249562233686, -0.014596888795495033, 0.0064019556157290936, -0.0003129742981400341, -5.858758814418844e-40, 0.05268362909555435, 0.10793796181678772, 0.020429661497473717, 0.047384656965732574, -0.04133235290646553, 0.02403220161795616, 0.0147787407040596, 0.016554147005081177, 0.020495066419243813, 4.96369343331601e-40, -0.15061748027801514], [-0.0027066352777183056, 0.01846836321055889, 0.047370545566082, 0.033420708030462265, 0.03750722110271454, 0.04128943011164665, 0.061543066054582596, 0.03356403484940529, -0.13195769488811493, 0.09901625663042068, 0.0804349035024643, 0.09956495463848114, 0.10450072586536407, -0.4542977511882782, 0.03302771970629692, 0.04474162310361862, 0.11581939458847046, 0.09529650211334229, 0.38005101680755615, -0.428742378950119, 0.033175382763147354, 0.03989759832620621, 0.044218212366104126, 0.03259964659810066, -0.011577754281461239, -0.03239849582314491, 0.03629982843995094, 0.010164090432226658, 4.9978711028608926e-40, -0.06483381986618042, 0.16220378875732422, 0.09456721693277359, -0.0756339505314827, -0.050832491368055344, 0.008899410255253315, -0.023891376331448555, 0.08287923038005829, -0.07180240005254745, 5.338821032215764e-40, -0.04017403721809387], [-5.3504377964850165e-40, -5.965089341891811e-40, 4.9390305803438935e-40, -5.923961231963878e-40, -4.916932103561491e-40, -5.4423069238061515e-40, -5.669807729489286e-40, -4.952623175447844e-40, -5.114655316877723e-40, -4.94453768330869e-40, -5.3013643242643614e-40, -5.241949269376989e-40, -5.676505936148758e-40, -5.25394438423161e-40, -5.174644904135468e-40, -5.312630763917533e-40, -5.271796926667108e-40, -5.274459393749325e-40, -5.287883833037557e-40, -5.304993687286963e-40, -5.0475611464058506e-40, -4.946639631005177e-40, 5.151971894982693e-40, -5.8254359369372e-40, 5.1784424229737885e-40, -5.103024539623827e-40, -5.0825655820446845e-40, -5.062793260713061e-40, 4.974287249706306e-40, 4.967673120954693e-40, -4.997857089876249e-40, -4.920211141968011e-40, -5.003868660288203e-40, -4.950086825227416e-40, -5.082313348321106e-40, -5.04436618590719e-40, -5.118410796762113e-40, -5.040652744976729e-40, -4.948545396916659e-40, -4.96477243313354e-40], [-5.4765826842435366e-40, -5.2632490060347264e-40, -5.425281147464605e-40, -5.357346197914138e-40, -4.973124171980916e-40, -5.673198871772952e-40, -5.307754245261683e-40, -4.952455019632125e-40, -5.131148599802826e-40, 4.94294020305936e-40, -4.9760108468174254e-40, -5.44419867673299e-40, -5.3129951015182574e-40, -5.259815824797131e-40, -5.472617009589497e-40, -5.500096472474907e-40, -5.1496737655012e-40, -5.131204651741399e-40, 2.9140281825327436e-40, -4.9465975920512475e-40, -5.032399097021856e-40, -4.947578500976275e-40, -5.189554719795884e-40, -5.086208958051929e-40, -5.183991564892515e-40, -5.0742698951358816e-40, -5.0192689304111325e-40, -5.025897072147389e-40, -5.761074298470761e-40, -5.055436443775356e-40, -5.037948238940582e-40, -5.475461645472077e-40, -5.1255994578841e-40, -5.660643237532601e-40, -5.0515688600138196e-40, -5.150486518610508e-40, -5.263108876188294e-40, -5.1517897261823305e-40, 4.996750064089433e-40, -4.971568730685516e-40], [-0.05126919597387314, 0.03353370726108551, 0.03631966561079025, 0.043386898934841156, 0.04101052135229111, 0.06413684040307999, 0.07131009548902512, 0.05133802071213722, 0.056175295263528824, -0.024207547307014465, -0.16636140644550323, -0.11379528045654297, -0.02878941223025322, -0.016138413920998573, -0.02325807698071003, -0.04330294579267502, -0.07663489133119583, -0.07194644957780838, 0.23196804523468018, -0.1224537268280983, 0.020283669233322144, -0.004214795306324959, 0.0044924421235919, 0.0009577606106176972, 0.0074281892739236355, 0.01735731214284897, 0.0029552215710282326, -0.01093042641878128, 4.964057770916735e-40, -0.06862705945968628, 0.0033480722922831774, -0.011235129088163376, -0.0006607439718209207, -0.0021877416875213385, -0.010297752916812897, -0.007335801608860493, -0.006498383358120918, -0.03790523484349251, -5.167119931382044e-40, 0.049653127789497375], [-5.471972412295908e-40, -4.805977291156252e-40, -5.010735022763394e-40, -5.8562504901677025e-40, -5.203049224007332e-40, 