{"input_size": 40, "hidden1": 256, "hidden2": 32, "fc1_weight": [[-5.055702690483578e-40, -5.001486452898851e-40, 5.123595601080115e-40, -4.920085025106222e-40, -5.137930884370158e-40, 5.226086570760832e-40, -5.0985403845379874e-40, 5.088142749932697e-40, 5.460874128458455e-40, -5.098974787061928e-40, -5.2299401415377255e-40, -4.913933324847836e-40, 5.600555559382353e-40, -5.465750647114306e-40, -4.909168910069132e-40, 5.614022037624515e-40, -5.3566455486819755e-40, 5.03948966725134e-40, 5.931850542318026e-40, 5.340698772157959e-40, 5.6271662172198814e-40, -5.233471413667824e-40, 4.989127000443506e-40, 4.975632496232058e-40, 5.242047360269492e-40, -5.052451678046344e-40, -5.3090434398488614e-40, 3.507057692635006e-40, 4.97193306828624e-40, 4.933257230670875e-40, -5.521886663595158e-40, 5.745730080286404e-40, 4.986324403514856e-40, 5.300369402354691e-40, -4.97365666539736e-40, 4.92758197189036e-40, 4.907151040280504e-40, 5.305119804148752e-40, 5.2279082587644545e-40, -5.138603507633034e-40], [-0.04820152372121811, -0.03543892875313759, 0.006530807353556156, 0.016591576859354973, 0.03181959688663483, 0.015640350058674812, -0.006586158648133278, 0.05534182861447334, -0.010496070608496666, -0.018295209854841232, -0.04614422097802162, -0.009127401746809483, 0.01839694008231163, -0.026840265840291977, 0.03336246311664581, -0.01315685361623764, -0.01755312830209732, -0.00012203706137370318, 0.017831873148679733, 0.055352263152599335, -5.154858569819202e-40, 0.029599785804748535, -4.97521210669276e-40, -5.080281465547835e-40, 4.919188194089054e-40, 5.080912049856781e-40, -4.940193658069283e-40, -0.021286705508828163, -5.904315027494044e-40, 0.011746435426175594, -5.048752250100527e-40, -0.021286705508828163, -4.982022417229379e-40, 4.972199314994462e-40, -5.182982629998201e-40, -5.091169554615639e-40, -4.912504000414225e-40, 0.034209419041872025, -4.922649401295936e-40, 0.006989952176809311], [-0.03253956511616707, -0.02387387864291668, 0.004610295407474041, 0.011486990377306938, 0.022100934758782387, 0.010868286713957787, -0.004252987913787365, 0.037760838866233826, -0.006860186345875263, -0.01226306613534689, -0.031135136261582375, -0.006002072244882584, 0.012727063149213791, -0.01805802620947361, 0.022974012419581413, -0.008763101883232594, -0.011662089265882969, 0.00016621826216578484, 0.012890857644379139, 0.038162197917699814, 5.349428861590703e-40, 0.020509211346507072, 5.481851566469398e-40, 5.971913665413073e-40, 4.971806951424451e-40, 5.5285848702546305e-40, 4.911481052535268e-40, -0.01382850855588913, 4.956560824132597e-40, 0.008942619897425175, 4.953309811695363e-40, -0.01382850855588913, -5.1087698633275586e-40, -5.164219243560892e-40, 4.920967843138747e-40, -4.926306790287824e-40, -4.960848797433431e-40, 0.023798665031790733, 4.971008211299786e-40, 0.005600091069936752], [4.323192115407437e-06, -1.6770111699315748e-07, -5.697496519019296e-08, -1.3264111657917965e-06, -5.069974235993868e-07, 2.9249767408146e-07, 1.5116079339350108e-06, -3.782255816986435e-06, 1.0962061196551076e-06, 2.0861039047304075e-06, 3.986175670434022e-06, 2.878000941564096e-06, 1.1683762295433553e-06, -4.0958599356599734e-07, -1.699933363852324e-06, -3.136775148959714e-06, -6.781088472962438e-07, 6.081042442929174e-07, 5.498312134477601e-07, 8.710085808161239e-07, 4.926685140873192e-40, -1.7804716208047466e-06, 5.395461516143773e-40, 5.533307246079405e-40, 4.934952801812708e-40, 5.0650073122866946e-40, 5.124422367174067e-40, 2.918725613199058e-06, -5.036476875553041e-40, 1.6439357750641648e-06, 5.936110489649574e-40, 2.9187269774411106e-06, 5.433296574680543e-40, 5.565817370451741e-40, -4.910149818994159e-40, 4.90778162458945e-40, -4.974665600291674e-40, -2.1863663732801797e-06, -4.969606912835461e-40, 2.0703514564957004e-06], [5.328997929980847e-40, -5.556428670740765e-40, -5.711608462680095e-40, -5.099128929893004e-40, 4.958550667951938e-40, 5.16058988053829e-40, -5.609425778661529e-40, 5.258918993779963e-40, 5.5569891901264946e-40, -4.929978192264355e-40, -4.942015346072905e-40, 4.951025695198514e-40, -5.41184269519173e-40, -4.961871745312388e-40, 5.017335138530364e-40, -4.961549446665593e-40, -5.327134203023295e-40, 4.962894693191345e-40, -5.024944189191648e-40, -5.163182282697291e-40, 4.990346130107468e-40, -5.418106499327262e-40, -4.990682441738906e-40, 5.012108295258433e-40, 4.917268415192929e-40, 4.949316111072038e-40, -5.055562560637145e-40, 5.539094608737067e-40, -4.942001333088262e-40, 5.782934554514228e-40, 5.447421663200937e-40, 5.179885760392043e-40, 5.002355257946732e-40, 5.199307757107585e-40, 5.025462669623448e-40, 5.100418124480183e-40, -4.982723066461541e-40, 5.4555772202633076e-40, -5.087315983838746e-40, -5.0080305167272475e-40], [3.534160555318522e-07, -1.3903767914769105e-08, -4.854672663867632e-09, -1.0868807720498808e-07, -4.1666847749866065e-08, 2.368807017205654e-08, 1.2345620348241937e-07, -3.096409102454345e-07, 8.932427419949818e-08, 1.7038598798535531e-07, 3.2585660392214777e-07, 2.3519507408309437e-07, 9.544707779696182e-08, -3.3773570606854264e-08, -1.3937368237293413e-07, -2.5669416459095373e-07, -5.5677141119758744e-08, 4.958590693604492e-08, 4.494199856708292e-08, 7.113592914720357e-08, 4.9681635754172064e-40, -1.4424600180973357e-07, -4.96045643386342e-40, -5.263122889172937e-40, -4.925437985239943e-40, -4.975604470262771e-40, -5.034753278441922e-40, 2.372812986095596e-07, 4.9989921416323524e-40, 1.3260667230952095e-07, 5.847520400734959e-40, 2.372812986095596e-07, -4.950254981043135e-40, -5.089473983473806e-40, -4.931659750421545e-40, 4.9842644947722986e-40, -6.004619971570414e-40, -1.7740012481226586e-07, -5.297959168996052e-40, 1.674040532861909e-07], [-0.0435134619474411, -0.031700409948825836, 0.006947285961359739, 0.016253510490059853, 0.03126009181141853, 0.015506809577345848, -0.005075283348560333, 0.05190134048461914, -0.00833202712237835, -0.015986274927854538, -0.04161963239312172, -0.007497094105929136, 0.017999714240431786, -0.023755738511681557, 0.032037120312452316, -0.011096891015768051, -0.015186300501227379, 0.0008809626451693475, 0.020246535539627075, 0.05464823171496391, -5.052844041616355e-40, 0.02968691475689411, -4.930832984327593e-40, 5.391103477919723e-40, 5.058042858919e-40, 5.0055502184453926e-40, -4.946849825774826e-40, -0.016999799758195877, -4.931281399836177e-40, 0.015571323223412037, -4.958144291397284e-40, -0.016999799758195877, 5.0303952402178716e-40, 4.9104020527177375e-40, 4.983059378092979e-40, 5.043006926396795e-40, -5.392771023092269e-40, 0.033971261233091354, -5.265785356255154e-40, 0.011170686222612858], [-0.08476942777633667, -0.06235739588737488, 0.0113045834004879, 0.028679119423031807, 0.05479123443365097, 0.02701539173722267, -0.011913959868252277, 0.09683369845151901, -0.018675385043025017, -0.032171521335840225, -0.08121529221534729, -0.01630011573433876, 0.03185586258769035, -0.04709165543317795, 0.057825781404972076, -0.02312544733285904, -0.03136236220598221, -0.0007607486331835389, 0.03019585646688938, 0.09738396853208542, 4.919524505720492e-40, 0.0515800416469574, -5.757781247079598e-40, -5.057958781011141e-40, 6.070719220132616e-40, 4.941594956533608e-40, -4.95877487570623e-40, -0.03846946731209755, -5.264243927944397e-40, 0.019542576745152473, 6.01840874845937e-40, -0.03846946731209755, -5.0716634799922374e-40, 4.931996062052983e-40, 4.9607086675869984e-40, 5.054063171280318e-40, -4.914283649463917e-40, 0.058587536215782166, 5.101216864604848e-40, 0.011962918564677238], [-0.07880537956953049, -0.05786828324198723, 0.01087574940174818, 0.027141079306602478, 0.051903482526540756, 0.025627415627241135, -0.010751338675618172, 0.09071599692106247, -0.016960998997092247, -0.029734546318650246, -0.07548200339078903, -0.014879301190376282, 0.030129708349704742, -0.04363613203167915, 0.05448392406105995, -0.02124103344976902, -0.02888030931353569, -0.000316470192046836, 0.02957269549369812, 0.09204310923814774, 5.088675243349141e-40, 0.04901847243309021, 5.043917770398606e-40, -4.9555799152075696e-40, 4.9862403256069966e-40, 4.905805793754752e-40, -4.9067867026797795e-40, -0.034911807626485825, -4.981630053659368e-40, 0.019911037757992744, -5.927184218431825e-40, -0.034911807626485825, -5.557367540711862e-40, 4.940642073577867e-40, 4.985343494589829e-40, 4.976080911740642e-40, -5.0133414379070385e-40, 0.05570952966809273, -5.636456826038355e-40, 0.012731889262795448], [0.09345287084579468, 0.07245513051748276, 0.0008146546315401793, -0.015768086537718773, -0.029154950752854347, -0.012506498955190182, 0.02391720563173294, -0.08237188309431076, 0.0349915586411953, 0.042261090129613876, 0.08994568139314651, 0.02722001262009144, -0.017818104475736618, 0.0580599308013916, -0.04011469706892967, 0.035486117005348206, 0.04251812770962715, 0.012975684367120266, 0.018238745629787445, -0.047498296946287155, -4.981461897843649e-40, -0.01909068413078785, -5.039517693220626e-40, 5.156610192899608e-40, 5.63889508536628e-40, 4.910430078687024e-40, -4.977117872604242e-40, 0.07010222971439362, 5.083616555892928e-40, 0.04063848406076431, 4.948671513778448e-40, 0.07010222971439362, 4.984754949234812e-40, 4.962334173805615e-40, 4.97245154871804e-40, 4.970517756837272e-40, -4.96981710760511e-40, -0.026094919070601463, 4.913008467861382e-40, 0.048338692635297775], [-0.07692649215459824, -0.05648837238550186, 0.010619125328958035, 0.02651090919971466, 0.050706252455711365, 0.02503165416419506, -0.010484048165380955, 0.08856554329395294, -0.016552846878767014, -0.029028892517089844, -0.07367925345897675, -0.014516746625304222, 0.029427194967865944, -0.04260355234146118, 0.05321443825960159, -0.020738961175084114, -0.028171999379992485, -0.00028838784783147275, 0.028901444748044014, 0.08981809765100479, 4.995474882486897e-40, 0.04786062240600586, -4.9791777813467995e-40, 4.9500447862734866e-40, -4.987641624071321e-40, 4.911004611057397e-40, 4.993316882851837e-40, -0.03404402360320091, -5.050615977058079e-40, 0.01946062594652176, -5.717087539675605e-40, -0.03404402360320091, -4.9544448634514665e-40, -5.016130021851045e-40, 4.9870811046855915e-40, 4.988734636873495e-40, -4.939184723174969e-40, 0.0544438362121582, 5.455296960570443e-40, 0.012414996512234211], [-0.046838559210300446, -0.03286963701248169, 0.011953163892030716, 0.02282462827861309, 0.044149067252874374, 0.022498125210404396, -0.0018329992890357971, 0.0640735924243927, -0.004114686977118254, -0.014918630942702293, -0.04466406628489494, -0.004955644253641367, 0.025196881964802742, -0.02348843589425087, 0.042438119649887085, -0.008561293594539165, -0.013686707243323326, 0.005024294834583998, 0.03930547088384628, 0.0791831910610199, -5.041661679871043e-40, 0.0447075217962265, 4.914830155865004e-40, -4.95389835705038e-40, -4.961801680389172e-40, -5.17275315120863e-40, -4.991411116940355e-40, -0.009143780916929245, 4.912055584905641e-40, 0.03772054612636566, 5.9006856644714425e-40, -0.009143780916929245, -5.015401346649596e-40, 6.002363881042851e-40, 5.866045566433333e-40, -4.996581908273714e-40, 4.944243410631182e-40, 0.049469299614429474, 5.961698199608145e-40, 0.032797109335660934], [-4.9871932085627375e-40, 5.115692277741323e-40, 5.830985078855926e-40, 5.197177783441811e-40, 5.172276709730759e-40, 4.96321699183814e-40, 5.2526972285983605e-40, 5.137762728554439e-40, 4.910556195548813e-40, 5.31417219222829e-40, 5.055786768391437e-40, 4.9289272184161116e-40, 4.92814249127609e-40, 5.342674602992657e-40, 5.137888845416228e-40, 5.666794937790987e-40, 5.342786706869803e-40, 6.246189813835369e-40, -5.0199976056125814e-40, -5.186555941082229e-40, -4.926867309673554e-40, 5.441788443374351e-40, -5.004092868042495e-40, 4.999398518187007e-40, 4.914844168849647e-40, -5.111600486225495e-40, 5.2256521682368916e-40, -5.0731908953183515e-40, 4.912279792659933e-40, 5.093005255603904e-40, -4.907024923418715e-40, -5.034599135610846e-40, 4.971428600839083e-40, -5.085508308819767e-40, 5.759392740313571e-40, 5.327470514654733e-40, 5.0442260560607575e-40, 5.064418766931678e-40, -5.2668083041341115e-40, 5.030773590803239e-40], [5.088114723963411e-40, -5.005396075614317e-40, -4.9060580274783306e-40, -5.218001078621678e-40, 4.989827649675668e-40, -4.93142152968261e-40, 5.027158240765281e-40, -5.0383546154952365e-40, 5.064811130501689e-40, -5.150850856211233e-40, 5.155769413821013e-40, -4.996834141997292e-40, -5.028517500275676e-40, -4.987109130654878e-40, 5.08664336057587e-40, -5.007189737648653e-40, -4.982078469167952e-40, -4.92098185612339e-40, -5.112791589920171e-40, -5.008492945220475e-40, 4.92042133673766e-40, -5.184566097262888e-40, 5.108489603634694e-40, -5.012234412120222e-40, -5.240253698235156e-40, 5.039839991867421e-40, -5.158221686133581e-40, -5.184341889508596e-40, -5.081332439396079e-40, -5.138449364801958e-40, 5.96094149843741e-40, 5.0496490811176946e-40, -4.951460097722455e-40, -5.321557035135282e-40, -5.034052629209759e-40, -5.598159339008358e-40, 4.963637381377437e-40, -5.210434066914324e-40, -4.954472889420753e-40, 5.883912121853474e-40], [0.00020959916582796723, -7.868279681133572e-06, -2.502141114746337e-06, -6.39594582025893e-05, -2.4239190679509193e-05, 1.4486616237263661e-05, 7.346339407376945e-05, -0.0001827695086831227, 5.3558003855869174e-05, 0.00010138344805454835, 0.00019329307542648166, 0.00013965362450107932, 5.675104330293834e-05, -1.9453034838079475e-05, -8.188084757421166e-05, -0.00015174152213148773, -3.254011971876025e-05, 2.9660639484063722e-05, 2.6653548047761433e-05, 4.229055775795132e-05, 4.975408288477766e-40, -8.792611333774403e-05, -5.3148588284758094e-40, 4.937573229940996e-40, -5.361494041368539e-40, -4.999636738925942e-40, -5.016242125728191e-40, 0.00014369736891239882, 4.974861782076679e-40, 8.191239612642676e-05, 5.004877595182517e-40, 0.00014369736891239882, 5.1157062907259664e-40, 5.020894436629749e-40, -5.081066192687857e-40, -4.947382319191269e-40, 5.859263281866001e-40, -0.00010758712596725672, 4.9835218065862064e-40, 0.00010260757699143142], [3.783072543228627e-06, -1.4701261363825324e-07, -5.011459336401458e-08, -1.1610421779550961e-06, -4.437001450696698e-07, 2.5569198669472826e-07, 1.3225829889051965e-06, -3.310233068987145e-06, 9.589510909790988e-07, 1.8253278994961875e-06, 3.4881679766840534e-06, 2.5183151137753157e-06, 1.0222279342997354e-06, -3.5874441550731717e-07, -1.4880342860124074e-06, -2.7453038455860224e-06, -5.937005767009396e-07, 5.319097340361623e-07, 4.801796649189782e-07, 7.609658041474177e-07, -5.073821479627298e-40, -1.5553465573248104e-06, -4.9211359989544656e-40, -5.0064470494625604e-40, -5.0097260878690805e-40, 4.9670985885843196e-40, -4.977902599744264e-40, 2.5534004635119345e-06, -4.961717602481312e-40, 1.4367557241712348e-06, 4.961647537558096e-40, 2.553401827753987e-06, -4.931113244020458e-40, 4.909715416470218e-40, -4.930594763588658e-40, -5.409222267063443e-40, -6.203674418427754e-40, -1.910075752675766e-06, -4.959013096445165e-40, 1.809889226933592e-06], [5.353969068615115e-40, 5.2343402187157054e-40, -5.327246306900441e-40, 5.152756622122715e-40, 4.993877402237567e-40, -5.197878432673974e-40, -5.05480585946641e-40, 5.2123818717797356e-40, -6.050624600154198e-40, 5.034220785025478e-40, -5.119826108211081e-40, 5.110255239699743e-40, -6.029605123189326e-40, -5.1858973308039965e-40, -5.686315025399032e-40, -5.0209084496143926e-40, -5.143578117181387e-40, -5.1196019004567894e-40, -5.134091326577908e-40, 5.8179109641837755e-40, 4.913807207986047e-40, 5.680261416033149e-40, 4.9824007678147466e-40, -4.973124171980916e-40, -5.024537812636994e-40, 4.935709502983444e-40, -5.029442357262131e-40, -5.588672548404879e-40, -5.4575530510980056e-40, 5.3744280261942574e-40, 5.983138066112315e-40, -5.04328718608966e-40, -4.948153033346648e-40, -5.074171804243379e-40, -4.934602477196627e-40, 5.9383525671924935e-40, 5.3656839237768705e-40, -5.348644134450681e-40, -4.908131949205531e-40, -5.116294836080983e-40], [0.01180760283023119, 0.012473407201468945, 0.012167360633611679, 0.012496933341026306, 0.02505086548626423, 0.014190932735800743, 0.01292264461517334, 0.011848377995193005, 0.01752379722893238, 0.011439261958003044, 0.011782392859458923, 0.011878089979290962, 0.013613665476441383, 0.012839887291193008, 0.01680714637041092, 0.013485074043273926, 0.012700372375547886, 0.012804926373064518, 0.0498756505548954, 0.04928463697433472, 4.9884964161345595e-40, 0.03150206804275513, -4.977580301097469e-40, -4.905917897631898e-40, -6.1783249292081185e-40, -4.920519427630163e-40, -4.94393512496903e-40, 0.033301107585430145, 4.971232419054078e-40, 0.06223707273602486, -5.057118001932546e-40, 0.033301107585430145, -4.955355707453278e-40, -5.15411588163311e-40, 6.0301656425750556e-40, -4.912237753706003e-40, 4.925746270902094e-40, 0.031415775418281555, 5.162369529587983e-40, 0.06231953576207161], [2.2908954733225073e-08, -9.122910205050516e-10, -3.259253145149188e-10, -7.05964176006546e-09, -2.7143594039102936e-09, 1.5231593764042373e-09, 7.996476369953598e-09, -2.0095955122201303e-08, 5.774239753009169e-09, 1.1036799030250677e-08, 2.1122630755598948e-08, 1.5241301554169695e-08, 6.183687339955668e-09, -2.2054318371544923e-09, -9.057714578375453e-09, -1.6655306467328046e-08, -3.622668387492922e-09, 3.2073057543158257e-09, 2.9165705406342113e-09, 4.6132551112521014e-09, 5.071747557900097e-40, -9.28498433694358e-09, 5.071018882698648e-40, 5.010272594270167e-40, -5.41460325316645e-40, -4.966145705628579e-40, 4.975198093708117e-40, 1.5310842371718536e-08, 5.0479535099758615e-40, 8.483080904397866e-09, 4.9519645651696116e-40, 1.5310842371718536e-08, -5.015233190833877e-40, -4.960302291032344e-40, 5.012724866582736e-40, -5.211989508209725e-40, -4.966720237998952e-40, -1.1434289959311172e-08, 4.953169681848931e-40, 1.0733093525061577e-08], [-1.4620949514210224e-05, -1.0828200174728408e-05, 1.63666936714435e-06, 4.735968104796484e-06, 9.298569239035714e-06, 4.479941253521247e-06, -2.2141477984405356e-06, 1.6261139535345137e-05, -3.441605258558411e-06, -5.699809207726503e-06, -1.3978671631775796e-05, -2.945243522844976e-06, 5.191252512304345e-06, -8.26423547550803e-06, 9.681143637862988e-06, -4.2884121285169385e-06, -5.3795729400007986e-06, -2.4029731093833107e-07, 4.21022286900552e-06, 1.5241756045725197e-05, 4.9719470812708834e-40, 7.860317964514252e-06, -4.997604856152671e-40, 4.9939754931300696e-40, 5.014658658463504e-40, 5.044800588431131e-40, -4.978631274945713e-40, -6.7286764533491805e-06, -5.811661173032887e-40, 2.300577534697368e-06, 4.916077311498253e-40, -6.7286846388014965e-06, -4.993527077621486e-40, -5.9843712087609205e-40, 6.016460943593959e-40, 4.90950522170057e-40, 5.080113309732116e-40, 9.42406495596515e-06, -4.906198157324763e-40, 7.398881507469923e-07], [5.55998796884015e-40, -5.2402116592812264e-40, -5.277612315294056e-40, 4.940572008654651e-40, 5.808774498196378e-40, -4.93746112606385e-40, 5.565873422390314e-40, 5.621589049331869e-40, 5.0158217361888935e-40, 5.209579274851086e-40, -5.100712397157691e-40, -5.050111509610922e-40, 5.220705584657825e-40, -5.408970033339864e-40, 6.195420770472881e-40, -4.9893932471517274e-40, 6.060503754327688e-40, -5.1225446272318715e-40, 4.921290141785541e-40, -5.913815831082166e-40, 4.9494982798724e-40, -5.121367536521839e-40, 5.143003584811014e-40, -4.935106944643784e-40, 5.018582294163613e-40, -5.500432784106345e-40, -4.958046200504781e-40, -5.866143657325836e-40, 5.0056623223225385e-40, -5.697791659821852e-40, 4.98189630036759e-40, 5.173762086102944e-40, 5.110227213730456e-40, 5.749569638078654e-40, -5.098876696169425e-40, 5.0439457963678926e-40, 5.058939689936168e-40, -5.177013098540177e-40, 4.9929525452511125e-40, 5.71952579900353e-40], [-0.0992206409573555, -0.07264852523803711, 0.014414902776479721, 0.03483061119914055, 0.06655627489089966, 0.03303886577486992, -0.01307755894958973, 0.11543191969394684, -0.020583923906087875, -0.036993276327848434, -0.09505370259284973, -0.018318846821784973, 0.03869610279798508, -0.054474033415317535, 0.06951668858528137, -0.02610853873193264, -0.0361969955265522, -3.916463811037829e-06, 0.039688702672719955, 0.11979176104068756, -4.990780532631409e-40, 0.06365937739610672, -4.947802708730567e-40, 4.933635581256243e-40, 4.9925041297425285e-40, 5.907720182762353e-40, 6.296930831228571e-40, -0.04288249835371971, -5.4448993259651525e-40, 0.02827676199376583, -4.99341497374434e-40, -0.04288249835371971, -4.948923747502027e-40, -4.944201371677252e-40, 4.915012324665366e-40, 4.9662998484596544e-40, 4.964730394179611e-40, 0.07138931751251221, 4.934280178549832e-40, 0.019754888489842415], [4.924190829606694e-40, -6.102935071827443e-40, -4.958088239458711e-40, -5.435258392530598e-40, 5.222737467431096e-40, -5.406069345518712e-40, -6.263355720023348e-40, -5.405298631363333e-40, -5.506906783011526e-40, -5.89666393787883e-40, 4.967953380647558e-40, -5.427831510669676e-40, -5.49631296662123e-40, -4.967140627538249e-40, -5.1014270593744965e-40, -5.199756172616169e-40, -5.23358351754497e-40, -5.03008695455572e-40, -4.9562525384704455e-40, 5.083574516938998e-40, -4.944411566446901e-40, 5.388300880991073e-40, 5.799203629685039e-40, -4.973236275858062e-40, -5.058799560089736e-40, 4.984418637603374e-40, -4.952314889785693e-40, -4.930889036266166e-40, -4.953786253173234e-40, 5.75024226134153e-40, -4.923714388128823e-40, -4.958424551090149e-40, 4.956406681301521e-40, 5.593212755429291e-40, -5.013299398953109e-40, -4.906268222247979e-40, 4.930580750604015e-40, -5.34333321327089e-40, -4.908636416652688e-40, 5.040190316483502e-40], [0.0753965750336647, 0.05850359797477722, 0.0008589396602474153, -0.012571312487125397, -0.02326769195497036, -0.009909638203680515, 0.019411809742450714, -0.06613145023584366, 0.028442800045013428, 0.03421469405293465, 0.07255768030881882, 0.022062627598643303, -0.014184263534843922, 0.04699371010065079, -0.03211817517876625, 0.02881707064807415, 0.03430575132369995, 0.010537433438003063, 0.015416791662573814, -0.037079595029354095, -4.980312833102903e-40, -0.01502507645636797, -4.917842947563302e-40, 4.942057385026835e-40, 5.303242064206557e-40, -4.905469482123314e-40, 5.124898808651937e-40, 0.056691478937864304, 4.90618414434012e-40, 0.03378712013363838, -5.358775522347749e-40, 0.056691478937864304, 5.641277292755632e-40, 4.9713305099465805e-40, -4.97361462644343e-40, 5.988533065199965e-40, -4.9422535668118406e-40, -0.021042995154857635, -5.094406554068229e-40, 0.04021671786904335], [-5.169263918032461e-40, -5.857483632816308e-40, 5.233135102036386e-40, 5.1516776223051845e-40, 6.0446130297422444e-40, -4.909869559301294e-40, 5.027382448519573e-40, 5.70753068414891e-40, 6.302928388655881e-40, 6.0673140648643065e-40, 4.932038101006913e-40, -5.655276264414237e-40, -4.963525277500291e-40, -5.4085356308159235e-40, 5.064741065578473e-40, 5.009403789222286e-40, -5.8653869561551e-40, -5.064376727977748e-40, 5.027522578366006e-40, -5.01032864620874e-40, 4.9824568197533196e-40, -5.33280946180381e-40, -5.387263920127473e-40, 5.118102511099962e-40, 5.019310969365062e-40, -5.513408807885993e-40, -5.039671836051702e-40, -4.974441392537382e-40, -5.0119821783966435e-40, 5.041381420178178e-40, 4.931925997129767e-40, -4.9772019505121015e-40, 5.279672224036613e-40, -4.922214998771996e-40, -5.2610489674457365e-40, 5.029414331292844e-40, 4.983858118217644e-40, -5.034809330380495e-40, -5.328003008071176e-40, 5.257307500545989e-40], [-5.0067273091554254e-40, 5.300789791893988e-40, 6.014330969928185e-40, 5.0180918397011e-40, 5.13271805408287e-40, -4.918753791565113e-40, -4.981966365290806e-40, -5.0303952402178716e-40, -5.68281177923822e-40, 5.6940782188913914e-40, 4.970237497144407e-40, 5.3791223760497455e-40, -5.289985780734044e-40, 4.9089306893301964e-40, -4.937517178002423e-40, -5.1628039321119235e-40, 5.423151173798831e-40, -5.784069606270331e-40, -5.014154191016347e-40, -5.07124309045294e-40, 4.95221679889319e-40, 5.532172194323302e-40, 5.4499299874520786e-40, 5.018960644748981e-40, 4.989617454906019e-40, -5.004499244597149e-40, -4.919314310950843e-40, -4.991705389617863e-40, -5.329250163704425e-40, 5.446973247692353e-40, -5.3341126693756324e-40, -4.981419858889719e-40, -4.943402631552587e-40, -4.9757866390631334e-40, -4.960694654602355e-40, -4.921794609232698e-40, -4.937657307848855e-40, 5.484135682966247e-40, -4.9177448566707995e-40, -5.073050765471919e-40], [0.0006905613117851317, -2.5396062483196147e-05, -7.741314220766071e-06, -0.0002100420679198578, -7.920484495116398e-05, 4.83439871459268e-05, 0.00024248436966445297, -0.000601035135332495, 0.00017728807870298624, 0.00033461389830335975, 0.0006369592738337815, 0.0004604555433616042, 0.00018730259034782648, -6.329474854283035e-05, -0.0002688447420950979, -0.0004993256879970431, -0.00010652654600562528, 9.814782970352098e-05, 8.829439320834354e-05, 0.00013995387416798621, 6.074334570170574e-40, -0.00029275042470544577, 4.936101866553455e-40, 5.399553307659601e-40, -5.644542318177509e-40, 6.116401550069605e-40, -5.0180217747778834e-40, 0.00047814886784181, -4.978365028237491e-40, 0.0002732393331825733, -5.031137928403964e-40, 0.00047814889694564044, 4.9235041933591745e-40, -4.942631917397208e-40, 5.299920986846107e-40, 4.9700273023747584e-40, -4.958410538105506e-40, -0.00035755353746935725, -4.931155282974388e-40, 0.00034128769766539335], [0.06397420167922974, 0.049728959798812866, 0.0010564641561359167, -0.010322035290300846, -0.019085891544818878, -0.008026126772165298, 0.01671367697417736, -0.05553364381194115, 0.024485396221280098, 0.029207732528448105, 0.061568278819322586, 0.018928933888673782, -0.011644203215837479, 0.040056318044662476, -0.02672000601887703, 0.024718595668673515, 0.02924247831106186, 0.009180457331240177, 0.014329148456454277, -0.02978733740746975, 4.931211334912961e-40, -0.01190911140292883, 4.916904077592205e-40, 5.1751073326286954e-40, -4.926741192811765e-40, 4.993751285375778e-40, -4.968710081818293e-40, 0.048625584691762924, 5.062358858189121e-40, 0.030244771391153336, 6.1718369173182946e-40, 0.048625584691762924, 4.979486067008951e-40, -5.578989576016394e-40, 4.919636609597638e-40, 5.411562435498865e-40, 4.905707702862249e-40, -0.017192412167787552, -5.084849698541534e-40, 0.03579672425985336], [0.0869864821434021, 0.06753420829772949, 0.0011078757233917713, -0.014297964051365852, -0.026405198499560356, -0.011220534332096577, 0.022525910288095474, -0.07604846358299255, 0.032946474850177765, 0.039521194994449615, 0.08372671157121658, 0.025563349947333336, -0.016159413382411003, 0.05422775819897652, -0.03676348179578781, 0.03330713510513306, 0.039735473692417145, 0.0123489024117589, 0.01829579472541809, -0.04246633127331734, 5.5267771952356515e-40, -0.016863269731402397, 5.0416476668864e-40, 4.947732643807351e-40, 5.059093832767244e-40, 4.998978128647709e-40, -5.547096022968361e-40, 0.06585583835840225, 4.9632029788534966e-40, 0.039491087198257446, -5.954355395655083e-40, 0.06585583835840225, -5.096494488780073e-40, -5.186261668404721e-40, 4.9048108718450815e-40, 4.9578920576737055e-40, 5.2868608851585996e-40, -0.02352367341518402, -4.962670485437053e-40, 0.046736475080251694], [0.002070391084998846, 0.005825257394462824, 0.015309132635593414, 0.01805436983704567, 0.03585107624530792, 0.019746853038668633, 0.013083124533295631, 0.026380160823464394, 0.01738126203417778, 0.008663909509778023, 0.002522285794839263, 0.011315521784126759, 0.01972115971148014, 0.008239236660301685, 0.02679215557873249, 0.012189415283501148, 0.010285576805472374, 0.0144887026399374, 0.0606364831328392, 0.06874681264162064, 5.67181158629327e-40, 0.04273020848631859, -5.009053464606205e-40, 5.050167561549495e-40, 5.035622083489803e-40, -5.533503427864411e-40, 5.04712674388191e-40, 0.03262346610426903, -4.948545396916659e-40, 0.07310327887535095, 4.94570076103408e-40, 0.03262346610426903, -4.94734028023734e-40, 5.105084448366384e-40, -5.062344845204477e-40, -4.9486294748245185e-40, -4.976683470080301e-40, 0.04375046119093895, 4.973292327796635e-40, 0.07206506282091141], [-0.017066925764083862, -0.00994439423084259, 0.011731669306755066, 0.01722724363207817, 0.03380151093006134, 0.01789146289229393, 0.00541394529864192, 0.03697199746966362, 0.0065130023285746574, -0.0017198571003973484, -0.016014358028769493, 0.0033786643762141466, 0.01892002858221531, -0.005225869826972485, 0.028909217566251755, 0.002360195154324174, -0.0004271732468623668, 0.008729175664484501, 0.043476469814777374, 0.06233718618750572, -4.906800715664423e-40, 0.03702474385499954, 6.052264119357458e-40, 5.684171038748615e-40, 5.101637254144145e-40, -5.046804445235115e-40, 5.219794740656014e-40, 0.011694059707224369, 5.125921756530894e-40, 0.04865891486406326, 5.351797055995412e-40, 0.011694059707224369, -5.239132659463696e-40, 4.919524505720492e-40, -5.1130017846898195e-40, -4.910892507180251e-40, -5.307950427046688e-40, 0.039458367973566055, 4.9518524612924656e-40, 0.04619355872273445], [-5.088002620086265e-40, 5.820209093665268e-40, 5.173916228934019e-40, 5.1320314178353506e-40, -5.327008086161506e-40, 5.171351852744305e-40, -5.409012072293794e-40, -5.347775329402799e-40, -5.25381826736982e-40, 5.0367150962919765e-40, 5.9134514934814415e-40, -5.1443908702906954e-40, 4.943290527675441e-40, -5.324836073541802e-40, 5.03724758970842e-40, 5.361297859583534e-40, 5.872603643246373e-40, -5.879806317353003e-40, -5.0487942890544564e-40, -5.163742802083021e-40, -5.081108231641787e-40, -4.9462052284812366e-40, -4.951249902952806e-40, 4.960330317001631e-40, -4.9376713208334984e-40, 4.9049790276608004e-40, -4.9406140476085805e-40, -5.143508052258171e-40, -5.038817043988464e-40, -5.117429887837086e-40, -5.253566033646242e-40, 5.823824443703226e-40, -5.888396276939314e-40, -5.2796301850826835e-40, 5.017363164499651e-40, 5.017138956745359e-40, -4.917282428177572e-40, -5.517304417616816e-40, 5.133320612422529e-40, -5.0840929973707986e-40], [-5.0428107446117894e-40, 4.996778090058719e-40, -6.1952105757032325e-40, 5.111152070716911e-40, -5.826192638107935e-40, 5.0250282670995075e-40, 5.1476699086972155e-40, 5.034360914871911e-40, -5.7552869358130994e-40, 5.844984050514531e-40, 5.198663159813996e-40, -4.953113629910358e-40, -5.00316801105604e-40, -5.038943160850253e-40, -5.392406685491545e-40, -5.185406876341483e-40, -4.917366506085432e-40, 5.534372232912292e-40, -5.1158183946031124e-40, -5.1175139657449454e-40, -5.03008695455572e-40, 5.2206775586885385e-40, -5.815612834702283e-40, 5.51995287171439e-40, 4.9354152303059355e-40, -4.963231004822783e-40, 4.9174645969779346e-40, -5.044548354707552e-40, -5.152770635107358e-40, 5.009487867130145e-40, -5.335598045747817e-40, -4.914255623494631e-40, -4.9147460779571444e-40, -5.004064842073208e-40, -4.908216027113391e-40, 5.341875862867992e-40, 5.629702567440309e-40, -5.599406494641607e-40, 5.335219695162449e-40, 4.922901635019515e-40], [5.0174612553921535e-40, 5.359279989794906e-40, 5.611219440695865e-40, -5.046888523142975e-40, -4.98237274184546e-40, -4.928226569183949e-40, 5.253664124538745e-40, 6.0931820345157426e-40, 5.9752767817274525e-40, 5.5630848384463075e-40, 5.264510174652619e-40, -5.225203752728308e-40, -5.335443902916741e-40, -4.971204393084791e-40, 5.835427194987836e-40, 5.231495582833126e-40, 5.391706036259382e-40, -5.319525152362011e-40, -4.9679954196014875e-40, -5.167554333905985e-40, -4.981994391260092e-40, -5.0501535485648515e-40, -4.9717228735165915e-40, -4.954206642712531e-40, -4.972381483794824e-40, -4.944803930016912e-40, -5.109526564498294e-40, -5.2013116139115695e-40, -5.0889975419959354e-40, -5.096774748472938e-40, 4.910934546134181e-40, -5.118074485130675e-40, 5.037541862385928e-40, 5.37788923340114e-40, -4.984740936250169e-40, 5.064867182440262e-40, 4.972787860349478e-40, -5.267466914412344e-40, 4.936928632647406e-40, -5.285936028172145e-40], [-0.10402250289916992, -0.07612545788288116, 0.015243946574628353, 0.036621592938899994, 0.06996341049671173, 0.03476801887154579, -0.013635091483592987, 0.12123244255781174, -0.021440505981445312, -0.03869644179940224, -0.09965905547142029, -0.019136037677526474, 0.04069551080465317, -0.057016726583242416, 0.07302341610193253, -0.027251269668340683, -0.037937406450510025, 4.93205661769025e-05, 0.042027272284030914, 0.12635166943073273, 4.9290953742318305e-40, 0.06706146895885468, -4.967406874246471e-40, 4.908510299790899e-40, -5.806308212899166e-40, 4.971750899485878e-40, -5.934611100292746e-40, -0.044787827879190445, -5.033604213701175e-40, 0.03022186830639839, -5.596295612050806e-40, -0.044787827879190445, 4.952483045601412e-40, 5.178316306111999e-40, -5.216137351664126e-40, 5.319034697899497e-40, -4.930496672696155e-40, 0.07499869912862778, 4.9089867412687694e-40, 0.02141852304339409], [-5.0027756474860294e-40, -5.051989249553117e-40, 4.960960901310577e-40, 5.395111191527692e-40, -4.906996897449428e-40, -5.151299271719817e-40, 4.919356349904773e-40, 5.285641755494637e-40, -5.291120832490147e-40, 5.2028390292376836e-40, -5.286370430696086e-40, -5.5271135068670895e-40, 5.210448079898967e-40, -5.3857785437552884e-40, -5.346247914076685e-40, -5.209579274851086e-40, 5.019282943395776e-40, 5.010917191563757e-40, -4.97965422282467e-40, -4.957303512318689e-40, -4.925283842408867e-40, 5.667635716869582e-40, -5.0091655684833506e-40, 4.994003519099356e-40, 4.913554974262468e-40, 4.921780596248055e-40, -4.938736307666385e-40, -4.973838834197722e-40, -4.919132142150481e-40, -4.9272876992128515e-40, -5.041311355254962e-40, 4.954907291944694e-40, -4.913414844416036e-40, 5.820489353358133e-40, 5.0573281967021946e-40, -4.926615075949976e-40, -4.912616104291371e-40, -5.047364964620845e-40, 4.91714229833114e-40, -5.487919188819924e-40], [0.06776057183742523, 0.05262061953544617, 0.0009298910736106336, -0.011142822913825512, -0.020621612668037415, -0.008731796406209469, 0.017557011917233467, -0.05916016176342964, 0.0257309190928936, 0.03083689510822296, 0.06520887464284897, 0.019924305379390717, -0.01256788894534111, 0.042329419404268265, -0.02862236090004444, 0.02603212371468544, 0.030881695449352264, 0.009571638889610767, 0.014448346570134163, -0.032478880137205124, 5.372578312221349e-40, -0.013119615614414215, 5.705456762421709e-40, -4.95989591447769e-40, -4.959657693738755e-40, 4.952370941724266e-40, 4.948769604670951e-40, 0.05116770416498184, 5.266822317118755e-40, 0.031131668016314507, -5.1839214999692985e-40, 0.05116770416498184, 5.17599015066122e-40, 5.666598756005982e-40, 4.9376152688949254e-40, 5.549127905741632e-40, 4.928632945738603e-40, -0.018658965826034546, 5.046916549112261e-40, 0.03698382154107094], [-0.002492916537448764, 0.0021662074141204357, 0.014820234850049019, 0.01829506643116474, 0.03623293712735176, 0.01978093758225441, 0.011552470736205578, 0.02957664430141449, 0.01518465019762516, 0.006372436415404081, -0.0018856184324249625, 0.009677971713244915, 0.020007949322462082, 0.005194160155951977, 0.027953706681728363, 0.010118260979652405, 0.007953180931508541, 0.013452794402837753, 0.05798637866973877, 0.06888388097286224, 5.003504322687478e-40, 0.042401354759931564, -4.905987962555114e-40, 5.022085540324425e-40, 5.464979932958927e-40, 5.07008001272755e-40, -5.109708733298656e-40, 0.028347758576273918, -6.027685344293201e-40, 0.06898709386587143, -4.932528555469426e-40, 0.028347758576273918, -4.927385790105354e-40, 5.2354192185332356e-40, 5.056207157930735e-40, -4.930062270172215e-40, -4.957751927827273e-40, 0.043785445392131805, 5.027662708212438e-40, 0.06758145987987518], [6.138688149803784e-06, -2.3789412750829797e-07, -8.069548584899167e-08, -1.8831835859600687e-06, -7.19351987754635e-07, 4.1557771623956796e-07, 2.146647148038028e-06, -5.370290182327153e-06, 1.5569428342132596e-06, 2.962344751722412e-06, 5.660090209858026e-06, 4.08684900321532e-06, 1.6592676956861396e-06, -5.812499921376002e-07, -2.413349193375325e-06, -4.453673227544641e-06, -9.625887287256774e-07, 8.63725063027232e-07, 7.785903335388866e-07, 1.2348890550129e-06, -4.981644066644011e-40, -2.5281935904786224e-06, -5.012164347197006e-40, -6.24438213881639e-40, -5.620271828775403e-40, -5.0252524748537995e-40, -5.1420787278245595e-40, 4.148093466938008e-06, -4.964996640887832e-40, 2.3384909582091495e-06, 5.401725320279305e-40, 4.148097559664166e-06, 5.724037980058656e-40, 4.95441683748218e-40, -4.910556195548813e-40, -6.251696916800166e-40, -4.9642679656863835e-40, -3.1041604415804613e-06, 4.999664764895228e-40, 2.9445559448504355e-06], [5.0935797879742776e-40, -5.379556778573686e-40, 5.248731553944321e-40, -5.202292522836597e-40, -5.040470576176367e-40, 5.066478675674236e-40, 5.25010482643936e-40, 5.646714330797213e-40, -4.991411116940355e-40, -5.376852272537539e-40, 5.064362714993105e-40, -5.295450844744911e-40, 5.259437474211763e-40, -5.050896236750944e-40, -5.0958919304404135e-40, -5.684745571118988e-40, -4.91054218256417e-40, 4.962278121867042e-40, -5.8671525922201496e-40, -5.143297857488522e-40, -4.956154447577943e-40, -4.910472117640954e-40, -5.804934940404128e-40, -4.927890257552511e-40, 5.250413112101511e-40, 5.043175082212514e-40, -5.138981858218402e-40, -5.246923878925342e-40, -4.9604284078941335e-40, -4.943837034076528e-40, -4.929515763771128e-40, -4.955201564622202e-40, 5.018554268194327e-40, 5.008619062082264e-40, -4.958690797798371e-40, -4.998025245691968e-40, -4.974063041952014e-40, 6.1965137832750546e-40, 6.20106800328411e-40, 6.221190649231815e-40], [-0.030178077518939972, -0.022130999714136124, 0.004316428676247597, 0.010708696208894253, 0.020616605877876282, 0.010139998979866505, -0.003907224629074335, 0.0351002998650074, -0.0063165221363306046, -0.011354455724358559, -0.028873026371002197, -0.0055353823117911816, 0.011863138526678085, -0.016732919961214066, 0.021393457427620888, -0.008101994171738625, -0.010781210847198963, 0.00020082484115846455, 0.012123648077249527, 0.035562966018915176, 4.919958908244433e-40, 0.01912861317396164, 4.930496672696155e-40, 5.013439528799541e-40, -5.0561931449460915e-40, -5.0900204898748925e-40, -5.007988477773318e-40, -0.012721058912575245, 5.011996191381287e-40, 0.008497137576341629, -5.148832986422605e-40, -0.012721058912575245, 5.034767291426565e-40, 4.93034252986508e-40, 4.964982627903189e-40, 4.9689623155418716e-40, 4.973502522566284e-40, 0.022203972563147545, -5.419703979576592e-40, 0.005378251895308495], [0.004979322198778391, 0.005958660505712032, 0.007668266072869301, 0.008327732793986797, 0.016663862392306328, 0.009314890950918198, 0.007547176443040371, 0.009692867286503315, 0.01014898531138897, 0.006107027642428875, 0.005057645961642265, 0.0067914496175944805, 0.009097889997065067, 0.00656918715685606, 0.011769511736929417, 0.007571706082671881, 0.006915616802871227, 0.007761048618704081, 0.031105807051062584, 0.03232458233833313, 5.000603634866326e-40, 0.020367655903100967, 5.055534534667859e-40, 5.020333917244019e-40, 5.0534325869713716e-40, -5.109820837175802e-40, 4.964660329256394e-40, 0.019240375608205795, 5.1272249641027164e-40, 0.03833068907260895, 5.009361750268356e-40, 0.019240375608205795, -5.539907361846375e-40, 4.983928183140861e-40, 4.920673570461238e-40, -5.186261668404721e-40, 4.994241739838291e-40, 0.020543089136481285, 5.075012583321974e-40, 0.03815247118473053], [0.07719485461711884, 0.05990869924426079, 0.0009127226658165455, -0.012822341173887253, -0.023721501231193542, -0.010094326920807362, 0.019906677305698395, -0.06764300167560577, 0.02915792539715767, 0.03504590317606926, 0.07429111748933792, 0.022615790367126465, -0.014471893198788166, 0.048123862594366074, -0.0328134261071682, 0.029525399208068848, 0.03515586256980896, 0.010830898769199848, 0.015920935198664665, -0.03784149885177612, 5.08880136021093e-40, -0.015271158888936043, -4.937755398741358e-40, -5.131877275004275e-40, 5.0277327731356544e-40, -5.1568344006539e-40, 5.058365157565795e-40, 0.05814123898744583, 4.917927025471162e-40, 0.03474407643079758, 4.992588207650388e-40, 0.05814123898744583, 5.25118382625689e-40, 5.003896686257489e-40, -4.939268801082829e-40, -4.9200009471983625e-40, -4.912111636844214e-40, -0.021392937749624252, -4.986002104868061e-40, 0.041302457451820374], [-5.028097110736379e-40, 5.119251575840708e-40, 5.555980255232181e-40, 5.2077435738628204e-40, -5.015625554403888e-40, -5.211695235532216e-40, 4.978631274945713e-40, 4.939114658251753e-40, -5.699543282902258e-40, -5.8097273811521186e-40, 5.157450971978203e-40, 4.949175981225605e-40, 5.220187104226025e-40, -5.105869175506406e-40, 6.162924659085189e-40, 5.066212428966014e-40, -5.471958399311265e-40, -5.537721336242028e-40, -4.91653973999148e-40, 5.004667400412868e-40, -6.245222917894985e-40, -5.094714839730381e-40, 5.777945931981232e-40, 4.993190765990048e-40, -4.956911148748678e-40, 4.917590713839724e-40, -5.0044151666892895e-40, -5.0441700041221845e-40, 4.976781560972804e-40, -5.70252804863127e-40, -5.785709125473591e-40, -5.006405010508631e-40, 4.9422535668118406e-40, -5.049074548747321e-40, -5.0216371248158415e-40, 4.9433185536447274e-40, -4.9949283760858104e-40, -5.290350118334768e-40, 5.039587758143842e-40, -5.006545140355063e-40], [-5.03401059025583e-40, 4.9682756792943524e-40, -5.33289353971167e-40, 4.989547389982803e-40, 5.789520657296555e-40, -4.920519427630163e-40, -6.276331743802996e-40, 5.353394536244742e-40, 5.536137868977341e-40, 4.969845133574396e-40, -5.2097194046975184e-40, -5.143914428812825e-40, 5.0591358717211736e-40, -5.484696202351977e-40, 5.175920085738004e-40, 5.212465949687595e-40, 4.967687133939336e-40, -5.901092041026097e-40, -4.951347993845309e-40, -6.098801241357685e-40, -4.930875023281523e-40, 4.9059459236011846e-40, 5.10355703304027e-40, -5.513380781916706e-40, 5.995679687368022e-40, -4.987711688994538e-40, 5.018372099393965e-40, 4.960582550725209e-40, -5.2364842053661224e-40, -5.221700506567496e-40, 5.239160685432983e-40, -4.944944059863344e-40, 4.9830733910776225e-40, -4.942547839489349e-40, 5.017363164499651e-40, -5.291849507691596e-40, 5.554761125568218e-40, -5.333986552513843e-40, 4.979542118947524e-40, 4.97961218387074e-40], [5.053026210416717e-40, -5.968984951622634e-40, -5.411940786084233e-40, -5.499746147858826e-40, -5.1002359556798205e-40, -5.218379429207046e-40, -5.108671772435056e-40, 4.942351657704343e-40, 6.1323623395782645e-40, -4.934420308396265e-40, 4.922775518157726e-40, -5.095751800593981e-40, -5.531807856722578e-40, 4.915138441527155e-40, 5.228917193658768e-40, -5.999995686638142e-40, 4.90838418292911e-40, 4.911186779857759e-40, -5.8234460931178585e-40, -5.075727245538779e-40, -5.013887944308125e-40, 5.1100030059761644e-40, -4.914914233772863e-40, 5.140859598160597e-40, 4.995390804579038e-40, -4.9729700291498406e-40, -4.939927411361061e-40, -5.020193787397587e-40, -4.975646509216701e-40, 5.177447501064118e-40, -4.980298820118259e-40, -4.965543147288919e-40, 4.910093767055586e-40, -4.921164024923752e-40, -5.2487455669289646e-40, 5.1347919758100704e-40, 5.206860755830296e-40, -5.849874582155025e-40, -4.931323438790107e-40, -5.458646063900179e-40], [-5.052802002662425e-40, 4.965585186242849e-40, -4.985988091883418e-40, 5.166783619750606e-40, 5.281073522500938e-40, -4.941791138318613e-40, -5.131372807557118e-40, 5.052773976693139e-40, -4.9755063793702685e-40, 5.281409834132376e-40, 5.215927156894477e-40, 5.019857475766149e-40, -4.9567009539790294e-40, -5.238081685615453e-40, 4.959447498969106e-40, -5.049382834409473e-40, 4.937531190987066e-40, -5.1742105016115275e-40, 5.254182604970545e-40, -3.2784358481804123e-40, -5.080183374655332e-40, 5.026583708394908e-40, -4.988174117487765e-40, -4.991116844262847e-40, -5.00152849185278e-40, 5.0058865300768305e-40, -4.975604470262771e-40, 5.240968360451962e-40, 6.109058746116543e-40, -5.375100649457133e-40, 4.959797823585187e-40, 5.187662966869046e-40, -5.194893666944962e-40, 5.018834527887192e-40, -6.13251648240934e-40, -5.521998767472304e-40, -5.641543539463854e-40, 5.206314249429209e-40, -4.935569373137011e-40, -5.266275810717668e-40], [-0.09347166121006012, -0.06851400434970856, 0.013322114013135433, 0.03256082162261009, 0.06222708895802498, 0.030834123492240906, -0.012494539842009544, 0.1083005741238594, -0.01966744475066662, -0.0350031852722168, -0.08954326808452606, -0.017412718385457993, 0.03616708517074585, -0.0514727383852005, 0.0651305541396141, -0.024814261123538017, -0.03418080136179924, -0.00016668411262799054, 0.036485958844423294, 0.11150824278593063, 4.933873801995178e-40, 0.05928046256303787, 5.266163706840522e-40, 5.036617005399474e-40, -4.919412401843346e-40, 4.942267579796484e-40, -4.950927604306011e-40, -0.040819402784109116, -4.977636353036042e-40, 0.025479072704911232, -4.97629110651029e-40, -0.04081939905881882, 4.917268415192929e-40, 5.031782525697553e-40, -4.953562045418942e-40, 4.951544175630314e-40, 4.926306790287824e-40, 0.06674265116453171, 5.1442787664135495e-40, 0.017313066869974136], [-5.457090622604778e-40, -6.2802413665184624e-40, -5.678229533259878e-40, -6.001677244795332e-40, -5.213432845627979e-40, -5.152196102736985e-40, 5.256957175929908e-40, -5.626423529033789e-40, 5.343837680718047e-40, -4.932094152945486e-40, -5.06136393627945e-40, 5.534876700359449e-40, -4.921948752063774e-40, 5.846973894333872e-40, -5.341931914806565e-40, 4.914199571556058e-40, 5.141139857853462e-40, -4.94893776048667e-40, -5.100488189403399e-40, -5.0618403777573205e-40, -5.016200086774261e-40, -5.0231084882033825e-40, -4.95113779907566e-40, 4.982610962584395e-40, -4.935919697753092e-40, -4.943710917214738e-40, 5.0314602270507584e-40, 5.117640082606735e-40, -4.942800073212927e-40, 5.0139019572927685e-40, 5.074704297659822e-40, 5.399861593321753e-40, 4.93961912569891e-40, 4.9252558164395805e-40, -4.9319119841451234e-40, -4.937236918309558e-40, -5.902114988905054e-40, -5.015415359634239e-40, 5.079734959146748e-40, -4.911172766873116e-40], [-0.0007525883265770972, -0.0005261977203190327, 0.00019715400412678719, 0.0003801336570177227, 0.0007512899464927614, 0.00037910600076429546, -2.0705987481051125e-05, 0.0010457653552293777, -5.390732258092612e-05, -0.00023672363022342324, -0.000715713482350111, -7.23133998690173e-05, 0.0004170995089225471, -0.00037389970384538174, 0.0007072544540278614, -0.00013683151337318122, -0.00020709070668090135, 9.293574112234637e-05, 0.0006676513003185391, 0.0013011962873861194, -5.0264435785484756e-40, 0.0007270307396538556, 4.96865402987972e-40, 4.905525534061887e-40, -4.9563085904090185e-40, 5.098918735123355e-40, -4.9865205852998615e-40, -0.00011161050497321412, -4.948559409901302e-40, 0.0006585574592463672, 5.039545719189913e-40, -0.00011161050497321412, 4.957205421426186e-40, 4.963034823037778e-40, -5.7162187346277235e-40, -5.152966816892363e-40, 5.015345294711023e-40, 0.0008169246721081436, 4.955383733422564e-40, 0.0005687261582352221], [0.0479087270796299, 0.04055967181921005, 0.012874925509095192, 0.006763034034520388, 0.014405013993382454, 0.00976216234266758, 0.0224120132625103, -0.01931625045835972, 0.03145086020231247, 0.027980240061879158, 0.046530093997716904, 0.02261417545378208, 0.007144277915358543, 0.03551620990037918, 0.0017921858234331012, 0.027530472725629807, 0.029204197227954865, 0.018030749633908272, 0.05811551958322525, 0.033267002552747726, -4.936634359969898e-40, 0.025275809690356255, -5.0960040343175595e-40, -5.093145385450337e-40, 4.99117289620142e-40, -5.112329161426944e-40, 5.323070437476753e-40, 0.061015237122774124, -5.068776805155728e-40, 0.0797119215130806, 5.09919899481622e-40, 0.061015237122774124, -4.994802259224021e-40, -4.930244438972577e-40, -4.9397032036067694e-40, 4.912910376968879e-40, 4.941945281149689e-40, 0.022098589688539505, -4.959713745677328e-40, 0.0829998031258583], [5.1508928951651626e-40, -5.178022033434491e-40, 5.104958331504595e-40, 4.908748520529834e-40, 5.000267323234888e-40, 5.071074934637221e-40, 5.1054908249210385e-40, 5.159440815797544e-40, 5.0124866458438e-40, 5.1839775519078715e-40, -5.004989699059663e-40, -5.054371456942469e-40, 5.086923620268735e-40, -4.953323824680007e-40, -4.941160554009667e-40, -5.135842949658314e-40, -5.160533828599717e-40, 4.919748713474784e-40, -5.007736244049739e-40, -4.990892636508555e-40, 4.95609839563937e-40, -5.019184852503273e-40, 5.006405010508631e-40, -5.044604406646125e-40, 4.953534019449655e-40, -5.097951839182971e-40, 5.307151686922023e-40, -4.939408930929261e-40, 6.1133327064327334e-40, 4.967238718430752e-40, 5.376487934936815e-40, -5.0324831749297155e-40, -5.171197709913229e-40, -5.0039106992421325e-40, -5.0630875333905696e-40, -4.966860367845384e-40, 5.2188138317309865e-40, -4.909252987976991e-40, 5.466171036653603e-40, 5.070444350328275e-40], [-0.041660308837890625, -0.0306094903498888, 0.005727208219468594, 0.014462901279330254, 0.02776925452053547, 0.013649777509272099, -0.005609338171780109, 0.04799880087375641, -0.00897922646254301, -0.015778424218297005, -0.0398746021091938, -0.007820921950042248, 0.01603173464536667, -0.02317698486149311, 0.029030239209532738, -0.01132535096257925, -0.015086855739355087, 3.90079230783158e-06, 0.01577044650912285, 0.048149194568395615, -4.984782975204099e-40, 0.02579680271446705, 5.07728268683418e-40, -4.969985263420829e-40, -5.220873740473544e-40, -5.677080468519131e-40, 5.082873867706836e-40, -0.01816340908408165, -4.952230811877833e-40, 0.010571790859103203, -4.993737272391134e-40, -0.01816340908408165, -5.079272530653521e-40, 4.9958952720261946e-40, -4.968710081818293e-40, 5.274501432703255e-40, -4.91602125955968e-40, 0.029876161366701126, -4.9834097027090605e-40, 0.006391404662281275], [-0.08024558424949646, -0.059047967195510864, 0.0106403399258852, 0.02711043320596218, 0.05180865898728371, 0.02552350051701069, -0.011305894702672958, 0.09157277643680573, -0.01774277538061142, -0.0304978396743536, -0.07687611877918243, -0.015457767993211746, 0.030107172206044197, -0.04462961107492447, 0.05469343438744545, -0.021953236311674118, -0.02967955730855465, -0.0007305126637220383, 0.02840571105480194, 0.0918029174208641, 4.930426607772939e-40, 0.04866788163781166, -4.922271050710569e-40, -5.085494295835123e-40, 5.012724866582736e-40, 4.919132142150481e-40, 5.027802838058871e-40, -0.0364677794277668, 4.984754949234812e-40, 0.01824178919196129, -4.986226312622353e-40, -0.0364677794277668, -5.016242125728191e-40, 6.239225360467675e-40, 4.9939754931300696e-40, 5.035201693950506e-40, -6.124543094147332e-40, 0.055427584797143936, -5.033562174747246e-40, 0.010974979028105736], [-4.980971443381135e-40, 4.921178037908395e-40, -5.27258165380713e-40, -5.378337648909724e-40, -5.165970866641298e-40, 4.953968421973596e-40, 5.058477261442941e-40, 5.3102345435435375e-40, -4.964618290302465e-40, -2.8844888109047765e-40, -5.403701151114003e-40, 5.343417291178749e-40, 5.138967845233758e-40, 4.982470832737963e-40, 4.951894500246395e-40, 5.533335272048692e-40, -4.98189630036759e-40, -5.15847391985716e-40, 4.918375440979746e-40, -6.0040734651693275e-40, -5.115341953125242e-40, -4.92969793257149e-40, -4.921738557294125e-40, 4.97693570380388e-40, -4.977944638698194e-40, -5.197556134027179e-40, 5.227656025040876e-40, -5.134539742086492e-40, -5.3090994917874344e-40, -5.0209645015529656e-40, -4.91710025937721e-40, -5.547684568323378e-40, -4.960064070293409e-40, 4.951039708183157e-40, 4.931869945191194e-40, -5.0958919304404135e-40, 5.129649210445998e-40, 5.0334921098240294e-40, 4.961255173988085e-40, -4.939170710190326e-40], [0.08896657824516296, 0.06903515011072159, 0.00099694705568254, -0.014774051494896412, -0.027298813685774803, -0.011642374098300934, 0.022934382781386375, -0.0780242457985878, 0.03354979306459427, 0.04034951329231262, 0.08563036471605301, 0.02605561539530754, -0.016695495694875717, 0.0553918331861496, -0.03782857954502106, 0.03395873308181763, 0.040574148297309875, 0.012520648539066315, 0.018194835633039474, -0.0441025011241436, -4.96205391411275e-40, -0.017607448622584343, -5.09708303413509e-40, 4.954430850466823e-40, 4.912447948475652e-40, -4.98181222245973e-40, 4.960834784448788e-40, 0.06711068749427795, 5.036911278076982e-40, 0.03974306210875511, -5.4181905772351214e-40, 0.06711068749427795, -4.926811257734981e-40, 6.112253706615203e-40, -5.114879524632015e-40, 4.970713938622278e-40, -5.23034651809238e-40, -0.02437685616314411, -4.994353843715437e-40, 0.047130703926086426], [4.981125586212211e-40, -5.079076348868516e-40, -5.10635962996892e-40, -4.98565178025198e-40, 5.3334400461127565e-40, 5.682909870130723e-40, 4.930146348080074e-40, -5.2490818785604025e-40, -5.123791782865121e-40, -5.050069470656992e-40, 5.403392865451851e-40, -4.9817701835058004e-40, 4.918347415010459e-40, -5.053152327278507e-40, -4.911172766873116e-40, -5.09484095659217e-40, 5.9960580379533895e-40, 5.301966882604021e-40, -5.046944575081548e-40, -5.433310587665186e-40, 4.938442034988877e-40, -4.978379041222134e-40, -5.024481760698421e-40, -4.928478802907528e-40, -5.008605049097621e-40, -4.971288470992651e-40, -4.966201757567152e-40, 4.928352686045738e-40, 4.972619704533759e-40, 5.4382992101981826e-40, -4.994465947592583e-40, 5.071467298207232e-40, -5.5189299238354325e-40, -4.954627032251829e-40, -4.968682055849007e-40, 5.003322153887116e-40, -5.0561370930075185e-40, -5.2632490060347264e-40, 5.543144361298965e-40, 5.282068444410609e-40], [-0.025648919865489006, -0.018350183963775635, 0.005326632875949144, 0.01110073272138834, 0.021492868661880493, 0.010794935747981071, -0.0019544679671525955, 0.032890427857637405, -0.0035664329770952463, -0.008812379091978073, -0.024483697488904, -0.003539026714861393, 0.012269090861082077, -0.013466035015881062, 0.02120157517492771, -0.005650985520333052, -0.008139622397720814, 0.0017173911910504103, 0.016843948513269424, 0.03767375275492668, -5.728101745605198e-40, 0.020919134840369225, 4.9410624631171645e-40, 4.911509078504554e-40, -4.940151619115353e-40, 5.0100623995005185e-40, -5.280905366685219e-40, -0.007353869266808033, 5.00700756884829e-40, 0.015074062161147594, -5.010384698147313e-40, -0.007353869266808033, 5.0113656070723406e-40, 5.300663675032199e-40, 5.024271565928772e-40, 4.9884964161345595e-40, 5.030100967540363e-40, 0.023673968389630318, 6.139242715038099e-40, 0.012286661192774773], [0.004538980778306723, -0.00015892127703409642, -4.4878426706418395e-05, -0.0013704521115869284, -0.0005123562295921147, 0.0003287126310169697, 0.0016019364120438695, -0.0039353747852146626, 0.0011780320201069117, 0.002208794467151165, 0.004188846331089735, 0.0030345162376761436, 0.0012370283948257565, -0.0004029857227578759, -0.0017568705370649695, -0.003273750189691782, -0.0006884413305670023, 0.000653323601000011, 0.0005917402449995279, 0.000931879912968725, -5.103711175871346e-40, -0.001971033401787281, -5.033898486378684e-40, -4.9346585291352e-40, 4.9395910997296234e-40, 5.4382431582596096e-40, 4.953211720802861e-40, 0.00321842054836452, -4.980396911010762e-40, 0.0018380669644102454, -5.537749362211315e-40, 0.0032184207811951637, -5.07452212885946e-40, -4.969550860896888e-40, -5.018203943578246e-40, 5.056711625377892e-40, -5.1476138567586425e-40, -0.0023968860041350126, -4.9978711028608926e-40, 0.002282129367813468], [-0.061182379722595215, -0.045041341334581375, 0.008057674393057823, 0.020712025463581085, 0.03964591398835182, 0.019483312964439392, -0.008595251478254795, 0.0697779431939125, -0.013580288738012314, -0.02331700548529625, -0.05859297886490822, -0.011777498759329319, 0.022981440648436546, -0.034125927835702896, 0.041798777878284454, -0.016833163797855377, -0.022517651319503784, -0.00046406907495111227, 0.021619444712996483, 0.06941830366849899, 5.044702497538628e-40, 0.036950528621673584, 5.1650600226394865e-40, -5.059430144398682e-40, 5.307810297200256e-40, 4.924639245115278e-40, -4.970433678929413e-40, -0.027673188596963882, 5.010188516362308e-40, 0.013745568692684174, 4.917758869655443e-40, -0.027673188596963882, 4.955383733422564e-40, -5.0227161246333716e-40, -4.965781368027854e-40, -5.33457509786886e-40, 4.982863196307974e-40, 0.04251599311828613, 5.084891737495464e-40, 0.007912951521575451], [4.961969836204891e-40, -5.777133178871923e-40, -4.914367727371777e-40, -5.2172864164048724e-40, -5.638082332256972e-40, -5.063059507421283e-40, 5.73112855028814e-40, 5.140032832066645e-40, 5.795251968015643e-40, -5.2010313542187045e-40, 5.403406878436495e-40, 4.957247460380116e-40, 4.945770825957296e-40, 5.0137898534156225e-40, 4.912630117276014e-40, 5.015555489480672e-40, 5.479903761603986e-40, -5.111628512194781e-40, 5.089656152274168e-40, -5.037710018201647e-40, -4.959629667769468e-40, 5.048598107269451e-40, -5.050027431703062e-40, -5.0009679724670504e-40, -4.970798016530137e-40, 5.679294520092765e-40, -4.993695233437205e-40, -4.962824628268129e-40, 5.182576253443547e-40, -5.400310008830337e-40, -5.258022162762795e-40, -5.220495389888176e-40, 4.960274265063058e-40, -5.124814730744078e-40, 4.974343301644879e-40, -4.95109576012173e-40, -4.991817493495009e-40, 5.316035919185842e-40, -4.928506828876814e-40, -4.915082389588582e-40], [5.077773141296694e-40, 5.401501112525013e-40, 5.210364001991108e-40, 5.0851019322651124e-40, -4.954599006282542e-40, -5.289032897778303e-40, -5.152574453322352e-40, -5.127785483488446e-40, 5.470613152785513e-40, 5.004793517274657e-40, 5.392462737430118e-40, 5.240674087774454e-40, 5.701841412383751e-40, 4.947928825592356e-40, 5.130826301156031e-40, 5.384096985598099e-40, 5.95697582378337e-40, -5.502800978511054e-40, 5.8108484199235784e-40, 4.939689190622126e-40, 4.936872580708833e-40, 5.185196681571834e-40, 5.0558568333146535e-40, -5.014938918156369e-40, 6.068308986773977e-40, -4.910275935855948e-40, -4.9806491447343406e-40, 5.1895687327805275e-40, 5.068048129954279e-40, 5.011351594087697e-40, 5.028783746983898e-40, 3.52290637826652e-40, -4.926320803272467e-40, 4.9259424526871e-40, 5.005311997706457e-40, -4.9157690258361015e-40, 4.915853103743961e-40, 5.053516664879231e-40, -4.932682698300502e-40, -5.446342663383407e-40], [5.062905364590207e-40, -5.249488255115057e-40, 5.052731937739209e-40, -5.1615007245401015e-40, -5.6052078702839115e-40, 5.8735285002328275e-40, 5.033604213701175e-40, -5.584300497196185e-40, 5.7429274833577546e-40, -4.97257766557983e-40, -5.738429315287272e-40, 4.928857153492895e-40, 5.1166171347277776e-40, -4.916777960730415e-40, -5.042838770581076e-40, 5.048219756684083e-40, 5.169446086832823e-40, -5.2383479323236744e-40, 5.236918607890063e-40, 5.12111530279826e-40, -6.058177598876909e-40, -5.012598749720946e-40, 4.9298801013718524e-40, 5.404878241824036e-40, 4.983381676739774e-40, -4.967897328708985e-40, 5.0846535167565285e-40, 5.739564367043375e-40, -4.9728579252726946e-40, 5.142443065425284e-40, 4.99341497374434e-40, 5.947909422719189e-40, -4.976094924725285e-40, 4.974959872969182e-40, 4.99061237681569e-40, -5.037681992232361e-40, 4.942043372042192e-40, -5.546283269859053e-40, 4.991831506479653e-40, -5.087960581132335e-40], [7.854022260289639e-05, -2.9802549761370756e-06, -9.69223833635624e-07, -2.400944686087314e-05, -9.132302693615202e-06, 5.390717888076324e-06, 2.750598287093453e-05, -6.856167601654306e-05, 2.0017518181703053e-05, 3.795683733187616e-05, 7.242438005050644e-05, 5.231469185673632e-05, 2.1253636077744886e-05, -7.339869625866413e-06, -3.074615233344957e-05, -5.6898432376328856e-05, -1.2235058420628775e-05, 1.1093306056864094e-05, 9.98404993879376e-06, 1.5841133063076995e-05, -5.012808944490595e-40, -3.276284405728802e-05, 5.152728596153428e-40, 5.33177250094021e-40, -5.734799952264671e-40, 4.923630310220964e-40, 5.086825529376232e-40, 5.355564280762337e-05, -4.9252558164395805e-40, 3.0440776754403487e-05, 5.106794032492861e-40, 5.3555664635496214e-05, -5.047407003574775e-40, -4.9104020527177375e-40, 5.1229369908018825e-40, 4.914227597525344e-40, 4.905637637939033e-40, -4.013654324808158e-05, -4.941426800717889e-40, 3.8198115362320095e-05], [-5.556386631786835e-40, -4.976108937709928e-40, 5.151033025011595e-40, -5.347242835986356e-40, -5.641109136939913e-40, 5.0063909975239875e-40, 5.615955829505283e-40, -5.083448400077209e-40, -5.1001238518026745e-40, 5.008380841343329e-40, 5.89346897738017e-40, -4.951880487261752e-40, -4.9968481549819354e-40, -4.95985387552376e-40, -5.2000084063397474e-40, -4.965529134304276e-40, -4.9602602520784145e-40, 5.778534477336248e-40, -4.984839027142672e-40, -5.579494043463551e-40, 5.0123184900280814e-40, -4.934196100641973e-40, 5.7948736174302755e-40, 4.932906906054794e-40, 4.979247846270016e-40, -5.013635710584547e-40, 4.933481438425167e-40, -4.972899964226624e-40, -4.948531383932016e-40, 6.030039525713266e-40, -5.06240089714305e-40, -5.8522988284983065e-40, -4.918207285164027e-40, 4.962152005005253e-40, 4.956154447577943e-40, 5.544699802594366e-40, 4.966383926367514e-40, -4.918557609780108e-40, -4.915362649281447e-40, -5.872379435492081e-40], [0.06890245527029037, 0.05357182398438454, 0.0011803241213783622, -0.011044912971556187, -0.020400581881403923, -0.008568529039621353, 0.018046805635094643, -0.05972234159708023, 0.026419270783662796, 0.031474433839321136, 0.06631618738174438, 0.020425541326403618, -0.01246865838766098, 0.043146759271621704, -0.028676975518465042, 0.02664397656917572, 0.0315493568778038, 0.009954684413969517, 0.015610015951097012, -0.03196050226688385, -4.924667271084564e-40, -0.012667957693338394, 5.002285193023516e-40, 4.968247653325066e-40, -4.933075061870513e-40, -4.960470446848063e-40, -5.2547291113716315e-40, 0.05253065004944801, 4.908454247852326e-40, 0.03275918588042259, 5.165186139501276e-40, 0.05253065004944801, 5.0289799287689035e-40, -4.986156247699137e-40, 5.110395369546175e-40, 4.967224705446109e-40, 4.975142041769544e-40, -0.018266499042510986, -5.1520699858751954e-40, 0.03868304193019867], [-0.05622413754463196, -0.0413791723549366, 0.007454173639416695, 0.01911763846874237, 0.036616887897253036, 0.01799199916422367, -0.007842001505196095, 0.0642283707857132, -0.012424122542142868, -0.0214103851467371, -0.053837817162275314, -0.010777820833027363, 0.02120705135166645, -0.03135478124022484, 0.03854640945792198, -0.015445683151483536, -0.020628836005926132, -0.00034728398895822465, 0.02009953185915947, 0.06394248455762863, 4.905231261384379e-40, 0.03408661112189293, 6.1516161804780875e-40, -4.950311032981708e-40, 4.955593928192213e-40, -6.017638034303992e-40, -5.538211790704542e-40, -0.02526799961924553, -5.031586343912548e-40, 0.012888763099908829, 4.975100002815614e-40, -0.02526799961924553, 5.102646189038459e-40, -4.907571429819801e-40, 5.069099103802523e-40, 6.095073787442581e-40, -5.077394790711326e-40, 0.039300717413425446, 4.95493531791398e-40, 0.007458105683326721], [0.07231871038675308, 0.056129176169633865, 0.000876458827406168, -0.012009791098535061, -0.02222970873117447, -0.009450167417526245, 0.018654603511095047, -0.06334246695041656, 0.027337612584233284, 0.032847750931978226, 0.06959500163793564, 0.02119256556034088, -0.013548089191317558, 0.04510920122265816, -0.030730437487363815, 0.02768658474087715, 0.03291786462068558, 0.010136746801435947, 0.014981833286583424, -0.03527279943227768, 5.623172516596556e-40, -0.014290816150605679, -5.009627996976578e-40, 5.017881644931451e-40, 4.942029359057549e-40, 5.004541283551079e-40, -6.236689010247247e-40, 0.05443941429257393, -4.957597784996197e-40, 0.032664790749549866, -4.966552082183233e-40, 0.05443941429257393, 5.092136450556023e-40, -4.958368499151576e-40, -4.929417672878625e-40, 5.0213008131844035e-40, -5.273842822425022e-40, -0.020120711997151375, -4.983732001355855e-40, 0.03886488080024719], [5.041703718824973e-40, -5.1419946499167e-40, 6.302185700469789e-40, 4.9565327981633105e-40, 5.51831335251113e-40, 5.2874214045443295e-40, -5.975865327082469e-40, 5.8166077566119534e-40, -5.263473213789018e-40, -5.221168013151052e-40, 5.3663565470397465e-40, -5.1250249255137265e-40, -6.070326856562605e-40, 1.9239827915179738e-41, 5.602447312309192e-40, 5.4758399960574444e-40, 5.015233190833877e-40, 5.069477454387891e-40, 5.564191864233124e-40, 5.322229658398158e-40, 5.884963095701718e-40, -5.386100842402083e-40, 4.914045428724982e-40, -4.967645094985406e-40, 4.919412401843346e-40, 4.925437985239943e-40, 4.963721459285297e-40, 5.561921760720918e-40, 4.986310390530213e-40, -5.256088370882027e-40, -5.0311799673578935e-40, 5.155699348897797e-40, -5.053502651894588e-40, 4.9709941983151426e-40, -4.953590071388228e-40, -5.893665159165175e-40, -5.433562821388765e-40, -5.2589049807953195e-40, -4.945378462387285e-40, 5.198817302645071e-40], [-0.08406749367713928, -0.06180483475327492, 0.011340019293129444, 0.028600340709090233, 0.05465288087725639, 0.026963600888848305, -0.01170756109058857, 0.09627115726470947, -0.0183804202824831, -0.03184043616056442, -0.08053789287805557, -0.01607312262058258, 0.03176426514983177, -0.046644844114780426, 0.05758444964885712, -0.022838586941361427, -0.031019145622849464, -0.0006302534020505846, 0.03045690804719925, 0.09714123606681824, -5.012556710767017e-40, 0.05152568221092224, 5.1311766257721124e-40, -4.965304926549984e-40, -4.924905491823499e-40, 4.9913690779864254e-40, 5.126860626501992e-40, -0.03787322714924812, -5.034557096656916e-40, 0.019986039027571678, 5.0037425434264135e-40, -0.03787322714924812, -5.579984497926065e-40, 5.228258583380536e-40, 4.914844168849647e-40, 5.021777254662274e-40, -4.9824007678147466e-40, 0.058499135076999664, -5.011127386333405e-40, 0.012450271286070347], [1.4257184452801499e-15, -5.899385292534699e-17, -2.255926505787897e-17, -4.4214119289005534e-16, -1.7138754805158166e-16, 9.228916959980684e-17, 4.965382840374369e-16, -1.2554507409592874e-15, 3.562040358582718e-16, 6.854363192144801e-16, 1.3147771403432154e-15, 9.475738522692545e-16, 3.843119771799585e-16, -1.4042838795031858e-16, -5.683067503835834e-16, -1.0397743414899507e-15, -2.281156341651377e-16, 1.9827217527408614e-16, 1.8349982802974254e-16, 2.8868738373976635e-16, 4.905245274369022e-40, -5.635144497262554e-16, 4.952314889785693e-40, -4.9121536757981435e-40, 5.552322866240293e-40, -5.535002817221238e-40, -4.93685856772419e-40, 9.404076358981279e-16, -5.008268737466183e-40, 5.034126446186752e-16, 5.087259931900173e-40, 9.404077417772463e-16, -5.157338868101057e-40, 4.987907870779543e-40, -5.0294283442774874e-40, -5.202544756560175e-40, 4.96045643386342e-40, -6.97160896330815e-16, -4.979808365655746e-40, 6.417933701236759e-16], [-0.006078053265810013, -0.00396475987508893, 0.0026476404163986444, 0.004316601436585188, 0.008484338410198689, 0.004398586694151163, 0.000688851170707494, 0.010369934141635895, 0.0006742462865076959, -0.0013889201218262315, -0.005750712472945452, 0.0001419729960616678, 0.0047520301304757595, -0.0025603603571653366, 0.007605080027133226, -0.0003217374614905566, -0.0010513076558709145, 0.0017160901334136724, 0.009499861858785152, 0.015222223475575447, 4.976024859802069e-40, 0.008831811137497425, -5.035495966628014e-40, 4.9640998098706645e-40, -4.9853294816051855e-40, 4.9779866776521234e-40, 5.0174052034535805e-40, 0.0011600175639614463, -5.101006669835199e-40, 0.010209346190094948, -5.010777061717324e-40, 0.0011600175639614463, 5.0293162404003415e-40, 4.93194001011441e-40, -4.97145662680837e-40, 4.933691633194816e-40, -5.010917191563757e-40, 0.009631960652768612, 5.138211144063023e-40, 0.009407569654285908], [-0.04379366338253021, -0.03218535706400871, 0.005986605770885944, 0.01515476405620575, 0.029085824266076088, 0.014296179637312889, -0.005929518491029739, 0.050389181822538376, -0.009476830251514912, -0.016600890085101128, -0.041919250041246414, -0.008248507045209408, 0.01680038683116436, -0.02437354438006878, 0.030439795926213264, -0.011925064027309418, -0.01589174009859562, -3.853228554362431e-05, 0.016433481127023697, 0.05048361048102379, 6.282497457046025e-40, 0.027029354125261307, 4.960302291032344e-40, 4.910163831978802e-40, -5.170342917849991e-40, 5.80947514742854e-40, -5.080575738225343e-40, -0.019185779616236687, 4.955902213854364e-40, 0.010942813009023666, -4.943851047061171e-40, -0.019185779616236687, -4.915012324665366e-40, 4.989547389982803e-40, 6.036023070155933e-40, -5.019184852503273e-40, 4.959013096445165e-40, 0.03128490969538689, -5.029078019661406e-40, 0.006572375074028969], [-0.09358236938714981, -0.06907434016466141, 0.011648574844002724, 0.030597126111388206, 0.05835537984967232, 0.028682440519332886, -0.013871688395738602, 0.10533826053142548, -0.02152400277554989, -0.03591955080628395, -0.08969746530056, -0.018605628982186317, 0.034022390842437744, -0.05232749506831169, 0.06223801523447037, -0.02612677961587906, -0.035214707255363464, -0.001693081809207797, 0.02997780404984951, 0.10401425510644913, -5.2282445703958925e-40, 0.05450441688299179, -5.344986745458793e-40, 5.062989442498067e-40, -5.720744928667493e-40, 4.909295026930921e-40, -4.970265523113694e-40, -0.04434815049171448, 4.9624602906674044e-40, 0.017652766779065132, -5.650609940528036e-40, -0.04434815049171448, -4.9215844144630495e-40, 5.095709761640051e-40, 5.204842886041668e-40, -4.919622596612995e-40, 5.757515000371376e-40, 0.06193670257925987, 4.977159911558172e-40, 0.009517760016024113], [-6.099543929543777e-40, 6.001747309718548e-40, -5.1725149304696945e-40, 5.08599876328228e-40, -5.1826743443360494e-40, 5.035285771858365e-40, -5.0900765418134655e-40, 5.42500088777174e-40, 4.9502129420892055e-40, 6.231896569499256e-40, 6.003919322338252e-40, 4.986618676192364e-40, -4.960918862356647e-40, -5.672946638049373e-40, -5.03828455057202e-40, 5.290434196242628e-40, -5.080113309732116e-40, -4.989421273121014e-40, -5.692985206089218e-40, -5.066492688658879e-40, 4.977622340051399e-40, -5.233317270836748e-40, 5.96085742052955e-40, -5.066100325088868e-40, 4.95437479852825e-40, 4.972773847364835e-40, 4.988580494042419e-40, -4.932122178914772e-40, -4.984236468803012e-40, 5.093229463358196e-40, -5.18591134378864e-40, -5.538618167259196e-40, 4.905861845693325e-40, 4.971064263238359e-40, 4.971302483977294e-40, 4.9721712890251754e-40, 5.009754113838367e-40, -5.99049488305002e-40, -5.064797117517046e-40, 4.950479188797427e-40], [-4.958186330351214e-40, -5.13427349537827e-40, -4.9377834247106444e-40, 5.068412467555004e-40, -4.94561668312622e-40, -5.065147442133127e-40, -5.080631790163916e-40, 4.950913591321368e-40, -4.940165632099997e-40, -5.077100518033818e-40, 4.9549493308986234e-40, -5.052535755954204e-40, 4.952272850831763e-40, -4.959069148383738e-40, 4.9154887661432366e-40, -5.084289179155804e-40, 4.9298240494332794e-40, 5.026681799287411e-40, -4.907655507727661e-40, -5.008464919251188e-40, -6.1606545555729825e-40, -5.010917191563757e-40, 4.968065484524704e-40, 5.042152134333557e-40, 4.976683470080301e-40, 4.990458233984614e-40, 5.0231645401419555e-40, -5.03565010945909e-40, -5.270998186542443e-40, 4.916988155500064e-40, -5.437710664843166e-40, -4.945910955803728e-40, -5.643743578052844e-40, 4.909182923053775e-40, 4.935345165382719e-40, -4.93910064526711e-40, 5.063690091730229e-40, -5.015961866035326e-40, -4.949105916302389e-40, 4.913639052170328e-40], [-6.262038499466883e-40, -4.951866474277109e-40, -4.937867502618504e-40, -5.072868596671557e-40, -5.466255114561463e-40, 5.351208510640395e-40, 4.9752821716159765e-40, 4.994395882669367e-40, 5.051428730167387e-40, -4.93737704815599e-40, 5.706101359715298e-40, 5.019591229057927e-40, 5.248661489021105e-40, -5.5413086603107e-40, 5.092710982926396e-40, 6.2878083782258164e-40, -5.445137546704088e-40, 5.009964308608016e-40, -5.171057580066797e-40, -5.409516539740951e-40, -4.932570594423356e-40, 5.890834536267239e-40, 5.168983658339596e-40, 4.9927843894353935e-40, -4.9639877059935185e-40, -5.120428666550741e-40, -4.928268608137879e-40, 5.255219565834145e-40, 4.913358792477463e-40, 4.993442999713626e-40, 4.938442034988877e-40, -6.155693959009273e-40, -4.972381483794824e-40, -5.161374607678312e-40, -4.90950522170057e-40, -5.3789542202340266e-40, -4.966047614736076e-40, -5.075180739137693e-40, -5.252122696227987e-40, 5.051316626290241e-40], [5.322832216737818e-40, 4.9659635368282165e-40, -5.045473211694007e-40, -5.3091555437260074e-40, 4.933817750056605e-40, 4.937517178002423e-40, 5.27473965344219e-40, 5.221378207920701e-40, -5.958965667602712e-40, 5.202698899391251e-40, 5.048107652806937e-40, -5.192595537463469e-40, 4.94557464417229e-40, 5.168997671324239e-40, 5.328955891026917e-40, 5.092360658310315e-40, 5.012416580920584e-40, 5.218043117575608e-40, -5.046356029726531e-40, -4.972521613641257e-40, 5.016746593175348e-40, 5.714116786931236e-40, 5.4902453442707035e-40, 5.265014642099776e-40, -5.067109259983182e-40, 5.083532477985069e-40, -5.0040228031192785e-40, -4.933425386486594e-40, -4.939675177637483e-40, -5.225582103313675e-40, -5.029946824709288e-40, -4.947662578884134e-40, 5.00161256976064e-40, -4.989239104320652e-40, 5.194949718883535e-40, -5.056795703285751e-40, -4.986870909915943e-40, 5.441297988911838e-40, 4.907249131173007e-40, -5.200176562155466e-40], [0.0017446380807086825, -6.27531626378186e-05, -1.8336557332077064e-05, -0.0005288767861202359, -0.000198504509171471, 0.0001239147240994498, 0.0006139440229162574, -0.0015156288864091039, 0.0004501647490542382, 0.0008471202454529703, 0.0016095773316919804, 0.0011644988553598523, 0.0004741481097880751, -0.0001576933282194659, -0.0006770760519430041, -0.0012599969049915671, -0.00026719991001300514, 0.0002492277999408543, 0.0002246242802357301, 0.0003553664719220251, -4.979920469532892e-40, -0.0007478300831280649, 5.034262823979408e-40, -4.966720237998952e-40, 5.481066839329376e-40, -5.538365933535618e-40, -5.151607557381968e-40, 0.0012213140726089478, -5.202965146099473e-40, 0.0006984258652664721, 6.1550073227617535e-40, 0.0012213141890242696, -5.988981480708549e-40, 4.9967360511047895e-40, -4.9662437965210814e-40, -5.131905300973561e-40, -4.913583000231755e-40, -0.0009114962304010987, 4.972998055119127e-40, 0.0008699200698174536], [-0.06544342637062073, -0.04816175997257233, 0.008671603165566921, 0.022192176431417465, 0.04246461018919945, 0.02088586986064911, -0.00916754174977541, 0.07472001761198044, -0.014470601454377174, -0.02490541897714138, -0.06267733126878738, -0.012571834027767181, 0.024627216160297394, -0.036460407078266144, 0.044756852090358734, -0.01795213855803013, -0.02408863790333271, -0.0004822168848477304, 0.02329077012836933, 0.07456497102975845, -5.023584929681253e-40, 0.0396808460354805, 5.042894822519649e-40, 5.004401153704646e-40, 5.010202529346951e-40, -4.928632945738603e-40, -5.055772755406794e-40, -0.02955130860209465, -5.198004549535763e-40, 0.014925703406333923, -4.99333089583648e-40, -0.02955130860209465, 5.018330060440035e-40, -4.97641722337208e-40, -4.965262887596054e-40, -5.483589176565161e-40, 5.050335717365214e-40, 0.04553762078285217, 5.172935320008992e-40, 0.008753873407840729], [-5.1298313792463606e-40, 5.405705007917987e-40, -5.854344724256221e-40, 5.819017989970592e-40, -5.241444801929832e-40, -4.921065934031249e-40, -4.991186909186063e-40, 5.610588856386919e-40, -5.102506059192027e-40, -5.6557386929074644e-40, 5.0407788618385185e-40, 5.1521820897523414e-40, 5.1246886138822885e-40, -5.0868535553455184e-40, -5.205305314534895e-40, -5.007217763617939e-40, -5.2163895853877045e-40, 5.042054043441054e-40, 5.631832541106083e-40, -5.2957170914531324e-40, -4.927918283521798e-40, -4.9485173709473725e-40, 4.98837029927277e-40, -5.473990282084536e-40, 4.920028973167649e-40, 5.222162935060723e-40, -5.328339319702614e-40, 5.282867184535274e-40, 5.034725252472635e-40, 4.937068762493839e-40, -5.155559219051364e-40, -5.899410482868907e-40, -6.285860573360405e-40, -5.0157656842503205e-40, -4.918725765595827e-40, -5.378758038449021e-40, 4.974413366568095e-40, -6.128606859693874e-40, -5.073555232919076e-40, 5.45191983127142e-40], [0.06927435845136642, 0.05385094881057739, 0.0011496025836095214, -0.011147241108119488, -0.020594380795955658, -0.008661548607051373, 0.018114756792783737, -0.0601121187210083, 0.026521781459450722, 0.03162514045834541, 0.06667330861091614, 0.020510630682110786, -0.012583172880113125, 0.04336155951023102, -0.02889654040336609, 0.026759279891848564, 0.03169957920908928, 0.00997655838727951, 0.015550611540675163, -0.03230971843004227, 5.023879202358761e-40, -0.012838184833526611, 5.409908903310962e-40, 5.014392411755282e-40, -4.984965144004461e-40, 5.788497709417598e-40, 5.040680770946016e-40, 0.052743107080459595, 4.993555103590772e-40, 0.032760076224803925, 5.024341630851988e-40, 0.052743107080459595, -5.02512635799201e-40, -4.925564102101732e-40, -4.9463733842969555e-40, 4.982695040492255e-40, 4.909995676163083e-40, -0.018462173640727997, -4.9163855971604045e-40, 0.03871411457657814], [-0.04894326254725456, -0.03600870817899704, 0.00654267193749547, 0.016737788915634155, 0.03209100291132927, 0.015762506052851677, -0.006761910393834114, 0.056028928607702255, -0.010754076763987541, -0.018620962277054787, -0.04685767740011215, -0.009331155568361282, 0.01856115460395813, -0.027292119339108467, 0.03371125087141991, -0.013424104079604149, -0.017881156876683235, -0.00020967895397916436, 0.01775456592440605, 0.055815283209085464, -5.097951839182971e-40, 0.029806023463606834, -5.138085027201234e-40, -5.0098381917462265e-40, 5.010580879932319e-40, 4.966804315906811e-40, -5.200835172433699e-40, -0.021805277094244957, 4.9465415401126745e-40, 0.011507066898047924, 5.012248425104865e-40, -0.021805277094244957, -4.97145662680837e-40, -5.888354237985384e-40, 4.994900350116524e-40, 5.123567575110829e-40, 4.958326460197646e-40, 0.03446999192237854, 5.850084776924673e-40, 0.00669077830389142], [-0.060566533356904984, -0.04462342709302902, 0.007851256988942623, 0.020357517525553703, 0.038961250334978104, 0.019127419218420982, -0.008608417585492134, 0.0688479021191597, -0.013579333201050758, -0.023147569969296455, -0.05800630524754524, -0.011744949966669083, 0.02259003557264805, -0.03384312987327576, 0.04116145148873329, -0.016760267317295074, -0.02236144244670868, -0.0005693761631846428, 0.02091791480779648, 0.06814724951982498, -4.929810036448636e-40, 0.03622043877840042, 4.965262887596054e-40, 5.0558007813760805e-40, 4.914451805279636e-40, -4.9538282921271636e-40, -5.430690159536899e-40, -0.02764485590159893, -5.009978321592659e-40, 0.013023721985518932, -5.68496977887328e-40, -0.02764485590159893, 5.611177401741935e-40, 4.97361462644343e-40, 5.802762927784424e-40, 5.367631728642282e-40, -5.164303321468751e-40, 0.041737787425518036, 4.950240968058492e-40, 0.0072462898679077625], [-0.047324925661087036, -0.03478412702679634, 0.006449942477047443, 0.016338827088475227, 0.031341079622507095, 0.015408886596560478, -0.00643305154517293, 0.05440725013613701, -0.010263643227517605, -0.017944442108273506, -0.045303039252758026, -0.008933368138968945, 0.01811542548239231, -0.026337135583162308, 0.03283066675066948, -0.012891367077827454, -0.017205875366926193, -7.994187762960792e-05, 0.01766136847436428, 0.054505787789821625, 5.003097946132824e-40, 0.02916623279452324, -5.061546105079812e-40, 4.969382705081169e-40, 5.233849764253192e-40, -5.305049739225536e-40, -4.9751700677388305e-40, -0.020811839029192924, -4.906688611787277e-40, 0.01171537209302187, -5.011113373348762e-40, -0.020811839029192924, -4.966860367845384e-40, 5.046412081665104e-40, 5.006825400047928e-40, -5.210980573315411e-40, -4.97037762699084e-40, 0.033707890659570694, -4.91822129814867e-40, 0.007033437490463257], [-0.7345259785652161, 0.12843529880046844, -0.02793351374566555, -0.027895944193005562, -0.10904817283153534, -0.030586138367652893, 0.05048411339521408, 0.5089706182479858, 0.28453829884529114, 0.015677427873015404, -0.5921003222465515, 0.045472413301467896, -0.07599492371082306, -0.024815691635012627, 0.05302613973617554, 0.27604132890701294, 0.19069620966911316, 0.2337598204612732, -0.34677574038505554, 0.2318451702594757, -4.911551117458484e-40, -5.06464297468597e-40, 4.927427829059284e-40, 5.370784650187013e-40, 4.905987962555114e-40, -5.387740361605343e-40, 5.7759560881618905e-40, 4.9164416490989774e-40, -4.905175209445806e-40, -0.009847939014434814, -4.9802147422104e-40, 5.042390355072492e-40, -5.498134654624852e-40, -4.996077440826557e-40, -4.952623175447844e-40, -5.194655446206027e-40, -5.006951516909717e-40, 4.99561501233333e-40, -5.090230684644541e-40, -0.009848077781498432], [-0.020221300423145294, -0.014786848798394203, 0.0030532998498529196, 0.0073888059705495834, 0.014273117296397686, 0.007028698455542326, -0.00247574201785028, 0.023832593113183975, -0.004049819894134998, -0.0075316959992051125, -0.019338052719831467, -0.0035883611999452114, 0.008179101161658764, -0.011147971265017986, 0.014667123556137085, -0.005325916688889265, -0.007095334120094776, 0.0003104704665020108, 0.008781221695244312, 0.024526404216885567, -5.017615398223229e-40, 0.01325006503611803, -4.947466397099129e-40, 5.0277888250742274e-40, 4.967000497691817e-40, -5.035271758873722e-40, -5.0098381917462265e-40, -0.008126228116452694, 5.161738945279037e-40, 0.006496782880276442, -4.979387976116448e-40, -0.008126228116452694, 4.954304733605034e-40, 4.9928404413739665e-40, -4.9274978939825e-40, 4.963090874976351e-40, 4.94677976085161e-40, 0.01538141444325447, -4.910205870932732e-40, 0.004350729752331972], [-0.08582141250371933, -0.06263931095600128, 0.013182400725781918, 0.03108730912208557, 0.0595109798014164, 0.0295946653932333, -0.010665002278983593, 0.10121091455221176, -0.017022086307406425, -0.031669627875089645, -0.08217495679855347, -0.015299981459975243, 0.034494806081056595, -0.04685525968670845, 0.06158739700913429, -0.02208992838859558, -0.03073926828801632, 0.0007902858778834343, 0.037307266145944595, 0.10647956281900406, 4.994746207285448e-40, 0.057197704911231995, 4.96209595306668e-40, 4.98569381920591e-40, -5.98449732562271e-40, 4.993877402237567e-40, 5.033898486378684e-40, -0.035388149321079254, -4.911565130443127e-40, 0.027869045734405518, 4.909365091854137e-40, -0.035388149321079254, -4.9273998030899975e-40, -5.164821801900551e-40, -4.967518978123617e-40, 5.084471347956166e-40, 4.97145662680837e-40, 0.0643014907836914, 4.9377273727720714e-40, 0.020172936841845512], [2.3563073625609832e-07, -9.309199633378284e-09, -3.277019988701113e-09, -7.251624367654586e-08, -2.77963092543132e-08, 1.575492802885492e-08, 8.227922165815471e-08, -2.0652622367833828e-07, 5.950528603193561e-08, 1.1357691676039394e-07, 2.1724838461523177e-07, 1.567988334727488e-07, 6.359925208698769e-08, -2.2565469492974444e-08, -9.299487402358864e-08, -1.7120997597430687e-07, -3.7166522304232785e-08, 3.302267259641667e-08, 2.9825123704085854e-08, 4.726966196244575e-08, -4.959265330168744e-40, -9.587914462372282e-08, -4.970321575052267e-40, -4.942043372042192e-40, -5.532676661770459e-40, 5.388062660252138e-40, 4.960778732510215e-40, 1.5805647990418947e-07, 4.959573615830895e-40, 8.825548292179519e-08, 5.706227476577088e-40, 1.580564941150442e-07, -5.018358086409321e-40, -5.60541806505356e-40, 6.086581918748773e-40, 4.927834205613938e-40, 5.0072457895872256e-40, -1.1791371434810571e-07, -5.191026083183425e-40, 1.1148741663191686e-07], [9.92735949694179e-05, -3.7573918234556913e-06, -1.2152988801972242e-06, -3.033390203199815e-05, -1.1518043720570859e-05, 6.824785486969631e-06, 3.477092468529008e-05, -8.66363407112658e-05, 2.5316798200947233e-05, 4.798636291525327e-05, 9.154387953458354e-05, 6.612859579036012e-05, 2.6862950107897632e-05, -9.26169286685763e-06, -3.884125908371061e-05, -7.19060335541144e-05, -1.5451936633326113e-05, 1.4025131349626463e-05, 1.2606693417183124e-05, 2.0002000383101404e-05, -5.705961229868866e-40, -4.144226113567129e-05, 6.109507161625127e-40, -5.126454249947338e-40, 5.614428414179169e-40, -5.008100581650464e-40, 5.099297085708723e-40, 6.778001261409372e-05, 4.983549832555493e-40, 3.857311821775511e-05, -5.01481280129458e-40, 6.777999078622088e-05, 5.019226891457203e-40, 5.195594316177124e-40, 4.913050506815311e-40, 4.912335844598506e-40, 4.931155282974388e-40, -5.075187800684944e-05, -4.9428701381361435e-40, 4.838188397116028e-05], [5.342394343299792e-40, 5.042950874458222e-40, -5.956639512151932e-40, -5.983712598482688e-40, -4.96757503006219e-40, 5.5687320712575365e-40, -4.968822185695439e-40, 5.364408742174335e-40, 4.974413366568095e-40, -5.1652842303937785e-40, -5.205963924813128e-40, -5.060270923477277e-40, -5.201732003450867e-40, -4.928955244385398e-40, 5.2306688167391744e-40, -5.220971831366047e-40, -5.818709704308441e-40, -5.3275125536086625e-40, 5.237647283091512e-40, 5.700440113919426e-40, 4.954066512866099e-40, 4.925157725547078e-40, 5.208177976386761e-40, 4.92309781680452e-40, 4.97749622318961e-40, -4.992686298542891e-40, 5.0671512989371115e-40, 6.071700129057643e-40, -5.153359180462374e-40, -5.311467686192143e-40, -5.435608717146679e-40, 5.851766335081863e-40, 4.939128671236396e-40, 4.965669264150708e-40, -5.078011362035629e-40, 5.01641028154391e-40, -4.963721459285297e-40, 5.263417161850445e-40, -5.926133244583581e-40, 5.01364972356919e-40], [0.07138580083847046, 0.055403854697942734, 0.0008614278631284833, -0.011863606981933117, -0.021962573751807213, -0.009337127208709717, 0.0184086374938488, -0.06253433227539062, 0.026980610564351082, 0.032423023134469986, 0.06869624555110931, 0.020914806053042412, -0.013381593860685825, 0.04452845826745033, -0.030345920473337173, 0.027328532189130783, 0.0324852280318737, 0.009996993467211723, 0.014771108515560627, -0.034819960594177246, -4.9909206624778415e-40, -0.014125227928161621, -4.916091324482896e-40, 4.977664379005329e-40, 5.0596963911069035e-40, -5.002677556593527e-40, -5.000771790682045e-40, 0.053715456277132034, -6.01901130679903e-40, 0.03222881630063057, 5.053026210416717e-40, 0.053715456277132034, 5.00493364712109e-40, -4.9452943844794254e-40, -5.0862930359597885e-40, -5.002593478685667e-40, -5.287239235743967e-40, -0.019898151978850365, 5.0494809253019756e-40, 0.03835982829332352], [-6.259418071338596e-40, -4.978869495684648e-40, 5.243070308148449e-40, 5.256438695498108e-40, -5.177181254355896e-40, -5.2765753544304554e-40, 6.0861194902555455e-40, -5.053782911587453e-40, 5.035257745889079e-40, 5.59885998824052e-40, -5.8386361684711396e-40, 4.9377834247106444e-40, -5.111544434286922e-40, 6.187895797719457e-40, -5.0288117729531845e-40, -5.15675032274604e-40, 4.9332151917169455e-40, -4.931841919221907e-40, -6.102752903027081e-40, -4.963917641070302e-40, -4.985567702344121e-40, 4.984895079081245e-40, -4.9445096573394035e-40, -5.6631375487990995e-40, 5.0907491650763414e-40, 4.981784196490444e-40, -4.926769218781051e-40, -5.13163905426534e-40, 4.912461961460295e-40, 5.253355838876593e-40, 5.522951650428045e-40, -4.941945281149689e-40, 5.706213463592444e-40, -4.93629804833846e-40, -4.913947337832479e-40, -5.048598107269451e-40, -4.937096788463125e-40, 5.127589301703441e-40, -6.100272604745226e-40, 4.96105899220308e-40], [-4.3724936835933555e-33, -3.239115091309123e-33, 4.8538223452341e-34, 1.4116527271059198e-33, 2.7841861042424277e-33, 1.3372993115030522e-33, -6.642751178097883e-34, 4.8563407500452404e-33, -1.030774190340267e-33, -1.704932414657838e-33, -4.1801585632278435e-33, -8.82653361435516e-34, 1.5459155796404298e-33, -2.4703842138705717e-33, 2.889465949695964e-33, -1.2853090330761056e-33, -1.610061755351825e-33, -7.548742900801896e-35, 1.2346838892995475e-33, 4.526541483584647e-33, -4.9079778063744556e-40, 2.3191383148670605e-33, 4.97141458785444e-40, 5.316960776172297e-40, -5.0136777495384765e-40, -5.1910961481066416e-40, -5.009908256669443e-40, -2.009724691843618e-33, 5.017096917791429e-40, 6.849299310861782e-34, -4.909014767238056e-40, -2.0097250591856026e-33, 4.9199448952597895e-40, -4.911635195366343e-40, -4.932178230853345e-40, -5.643056941805325e-40, -5.027102188826708e-40, 2.7843462653477272e-33, 4.94457972226262e-40, 2.192814227715676e-34], [-0.070503830909729, -0.05193660408258438, 0.009154976345598698, 0.0236527007073164, 0.045225005596876144, 0.022228771820664406, -0.010049444623291492, 0.08013644814491272, -0.015794793143868446, -0.02691642940044403, -0.06753618270158768, -0.01368836872279644, 0.026258133351802826, -0.03934478759765625, 0.04782584682106972, -0.01946527510881424, -0.026106707751750946, -0.0007336135604418814, 0.024309666827321053, 0.07958819717168808, -5.809292978628178e-40, 0.042217690497636795, -4.961129057126296e-40, -6.059887183003385e-40, -4.922158946833423e-40, 5.2835818467520795e-40, -5.889195017063979e-40, -0.03229716047644615, 5.909233585103824e-40, 0.015175864100456238, 5.546465438659415e-40, -0.03229716047644615, 4.9875295201941754e-40, -4.910107780040229e-40, -4.935485295229152e-40, 5.029918798740001e-40, 4.913470896354609e-40, 0.04839400574564934, -5.142148792747776e-40, 0.008623703382909298], [-0.046652235090732574, -0.0342959389090538, 0.006337299942970276, 0.016084278002381325, 0.03085438720881939, 0.015165302902460098, -0.006356921046972275, 0.053597185760736465, -0.010140237398445606, -0.017700951546430588, -0.04465916380286217, -0.00881989300251007, 0.017833193764090538, -0.025974545627832413, 0.0323319174349308, -0.01272575557231903, -0.016970012336969376, -9.421734284842387e-05, 0.017332324758172035, 0.0536295510828495, -6.26198244752831e-40, 0.028689883649349213, -5.629520398639947e-40, 4.955523863268997e-40, 4.987431429301673e-40, -5.019198865487916e-40, 4.978883508669291e-40, -0.020552033558487892, -5.020277865305446e-40, 0.011453723534941673, 5.002677556593527e-40, -0.020552033558487892, 5.239496997064421e-40, 4.916007246575037e-40, -4.980859339503989e-40, -6.090043125955655e-40, 5.328689644318695e-40, 0.03317657485604286, -5.101174825650918e-40, 0.006831943057477474], [0.05619996041059494, 0.04364102706313133, 0.0007638098904863, -0.00929153524339199, -0.0172281451523304, -0.0072915637865662575, 0.014535177499055862, -0.04910198226571083, 0.021329592913389206, 0.025581976398825645, 0.05407627671957016, 0.016503222286701202, -0.010465833358466625, 0.035132601857185364, -0.023799888789653778, 0.02160676196217537, 0.02555297687649727, 0.0078778937458992, 0.01193324290215969, -0.02681545540690422, -5.502857030449627e-40, -0.010977196507155895, -5.091225606554212e-40, -4.908720494560548e-40, 5.092528814126034e-40, 5.024369656821275e-40, 5.000225284280958e-40, 0.0422842800617218, 4.9844887025265906e-40, 0.025813760235905647, 4.9090427932073424e-40, 0.0422842800617218, 4.924639245115278e-40, -4.914507857218209e-40, -5.035033538134787e-40, -4.919244246027627e-40, -5.057468326548627e-40, -0.015744563192129135, 4.993513064636842e-40, 0.030767159536480904], [-5.268363745429512e-40, 5.851920477912939e-40, 5.239006542601907e-40, -5.317367152726951e-40, 5.1878171097001215e-40, 4.944145319738679e-40, -5.135492625042233e-40, 5.479903761603986e-40, -5.636821163639079e-40, -4.971652808593375e-40, 5.303382194052989e-40, 5.02184731958549e-40, 5.02844743535246e-40, 5.701112737182302e-40, 5.545834854350469e-40, 4.999062206555569e-40, 5.266149693855879e-40, -4.905077118553303e-40, -5.056529456577529e-40, -5.188643875794073e-40, -5.256214487743816e-40, -5.489979097562482e-40, -4.997534791229455e-40, -5.136963988429774e-40, 4.934027944826254e-40, -4.9583404731822895e-40, -5.108363486772904e-40, 5.0004635050198935e-40, 4.907655507727661e-40, 4.944103280784749e-40, -5.640898942170265e-40, -5.379136389034389e-40, 5.0268079161492e-40, 5.356687587635905e-40, 5.067557675491766e-40, 4.911481052535268e-40, -5.046384055695818e-40, -9.799840680409176e-41, 6.0302777464522015e-40, 5.052549768938847e-40], [-0.08460095524787903, -0.06059715896844864, 0.017052769660949707, 0.03546367585659027, 0.06816834211349487, 0.034436825662851334, -0.0072380853816866875, 0.10720446705818176, -0.012374402023851871, -0.02911861427128315, -0.08088664710521698, -0.012264197692275047, 0.03926520422101021, -0.04429130628705025, 0.06785962730646133, -0.01869858242571354, -0.02790682204067707, 0.004455696325749159, 0.052564557641744614, 0.1234404519200325, -4.968822185695439e-40, 0.06805063039064407, 4.924204842591337e-40, -4.999258388340574e-40, 4.936003775660952e-40, 4.9709941983151426e-40, 5.083966880509009e-40, -0.02652779035270214, 5.008408867312615e-40, 0.04636182263493538, -5.5319760125382966e-40, -0.02652779035270214, -4.990780532631409e-40, -5.133376664361102e-40, -4.979892443563605e-40, -4.997843076891606e-40, -5.565915461344244e-40, 0.0751660019159317, 4.989547389982803e-40, 0.03865396976470947], [-4.943991176907603e-40, -5.162103282879761e-40, 5.049466912317332e-40, 5.108503616619337e-40, 4.956672928009743e-40, -4.965108744764978e-40, -4.989141013428149e-40, -4.909252987976991e-40, -4.9501568901506325e-40, -4.9928404413739665e-40, -5.12943901567635e-40, -5.009417802206929e-40, -5.096046073271489e-40, 4.982751092430828e-40, 5.121970094861498e-40, 4.972381483794824e-40, 4.961633524573453e-40, -5.369327299784115e-40, -5.000897907543834e-40, -4.9177448566707995e-40, -5.479651527880408e-40, 4.915026337650009e-40, -4.997646895106601e-40, -4.948839669594167e-40, 4.9135689872471116e-40, 5.0903007495677575e-40, -4.986422494407359e-40, -4.998795959847347e-40, -5.259325370334617e-40, 4.914886207803577e-40, 4.975702561155274e-40, -5.053965080387815e-40, -5.73704202980759e-40, 4.996974271843725e-40, 5.083196166353631e-40, -5.664482795324851e-40, -4.94997472135027e-40, 5.019563203088641e-40, 4.957513707088338e-40, 4.924611219145991e-40], [-0.026014236733317375, -0.019056085497140884, 0.00380307761952281, 0.00934002548456192, 0.018004799261689186, 0.008860129863023758, -0.0032951352186501026, 0.03041677549481392, -0.005352598614990711, -0.009749067015945911, -0.02488471008837223, -0.004710007458925247, 0.01034398190677166, -0.014392315410077572, 0.018611129373311996, -0.006931301672011614, -0.00922810472548008, 0.0002631888200994581, 0.010786755941808224, 0.031008360907435417, -5.028237240582811e-40, 0.016709893941879272, -5.05868745621259e-40, 5.041815822702119e-40, -4.952272850831763e-40, -4.957149369487613e-40, -4.947382319191269e-40, -0.01076384074985981, 5.006895464971144e-40, 0.007732628844678402, 4.990850597554625e-40, -0.01076384074985981, 4.942183501888624e-40, -4.914325688417847e-40, -5.722454512793969e-40, 5.531485558075783e-40, 4.982723066461541e-40, 0.01939912512898445, 4.959209278230171e-40, 0.005014066584408283], [2.2399990751154064e-09, -9.000188788688135e-11, -3.26860136179441e-11, -6.913058459012689e-10, -2.663354814469443e-10, 1.4802721548523579e-10, 7.814730529354108e-10, -1.9667520945176875e-09, 5.634447908242635e-10, 1.078612754668029e-09, 2.0653576626727954e-09, 1.4899781408672652e-09, 6.044376110736494e-10, -2.1680217343611474e-10, -8.873182189006457e-10, -1.6296656246694852e-09, -3.551884342201106e-10, 3.1313338033633897e-10, 2.857490355445691e-10, 4.5156334227414163e-10, 4.955958265792937e-40, -9.02770636024286e-10, -4.9444536054008305e-40, 4.953421915572509e-40, -4.976136963679215e-40, -5.022057514355139e-40, -5.01584976215818e-40, 1.4924599334165123e-09, 5.307796284215612e-40, 8.214570135223198e-10, -5.116995485313145e-40, 1.4924582680819753e-09, -4.955229590591488e-40, -5.488353591343865e-40, -4.9410624631171645e-40, 5.025883059162746e-40, -4.986478546345932e-40, -1.11291564852678e-09, -5.062947403544137e-40, 1.0410962092421983e-09], [-0.06671188771724701, -0.04915858060121536, 0.008612695150077343, 0.02234419621527195, 0.04273461177945137, 0.020988885313272476, -0.009534524753689766, 0.07574788480997086, -0.014997966587543488, -0.025501981377601624, -0.0639006569981575, -0.012977003119885921, 0.02480206824839115, -0.0372677706182003, 0.04520707577466965, -0.018467819318175316, -0.02470134198665619, -0.0007089126156643033, 0.022844824939966202, 0.07501350343227386, 4.953309811695363e-40, 0.03980335593223572, -4.9084262218830395e-40, 4.919314310950843e-40, 4.926194686410678e-40, -5.013915970277412e-40, -5.522951650428045e-40, -0.03060966543853283, 5.517724807156113e-40, 0.014146396890282631, 5.9610536023145556e-40, -0.03060966543853283, -5.189582745765171e-40, -4.992644259588961e-40, -5.1402150008670075e-40, -4.939072619297823e-40, 4.96489854999533e-40, 0.045735131949186325, 5.764969908201584e-40, 0.00788546446710825], [5.0236129556505395e-40, -5.897518729942068e-40, 5.259549578088909e-40, 5.019114787580057e-40, 5.539346842460645e-40, -5.044436250830406e-40, -5.556596826556484e-40, 5.217412533266662e-40, -5.1554050762202885e-40, -5.579269835709259e-40, 5.487891162850638e-40, 5.031376149142899e-40, -5.201339639880856e-40, 5.901134079980026e-40, -5.131134586818183e-40, -5.019927540689365e-40, -5.387053725357824e-40, -5.089389905565946e-40, 5.1479501683900805e-40, 5.480029878465776e-40, 5.01917083951863e-40, -4.945392475371928e-40, 4.977916612728907e-40, 4.953744214219304e-40, 4.957527720072981e-40, -5.140285065790224e-40, 4.97465158730703e-40, 5.333818396698124e-40, -4.923994647821688e-40, 5.506318237656509e-40, 5.259717733904628e-40, 5.4586740898694654e-40, 4.9943678567000805e-40, -4.956855096810105e-40, -5.00812860761975e-40, -5.135618741904022e-40, -4.930160361064717e-40, -4.963245017807426e-40, -5.002943803301748e-40, 5.024846098299145e-40], [-0.08812624216079712, -0.06504445523023605, 0.010980721563100815, 0.02887149155139923, 0.055088989436626434, 0.02706199139356613, -0.013026230037212372, 0.09924142062664032, -0.02025393210351467, -0.033834557980298996, -0.08445900678634644, -0.017493555322289467, 0.032092683017253876, -0.049300532788038254, 0.05870736017823219, -0.024614332243800163, -0.033096130937337875, -0.001525732222944498, 0.028350217267870903, 0.09785452485084534, -4.9500167603042e-40, 0.05139483883976936, -4.999636738925942e-40, 5.815780990518002e-40, 5.118046459161389e-40, -5.008927347744415e-40, -4.924653258099921e-40, -0.04164191707968712, 4.909603312593072e-40, 0.016704414039850235, 4.936522256092752e-40, -0.04164191707968712, 4.981966365290806e-40, -4.921164024923752e-40, -4.9598678885084035e-40, 5.096102125210062e-40, 4.9720171461941e-40, 0.05855768173933029, 4.926222712379965e-40, 0.008921882137656212], [-5.2049830158881005e-40, -5.558082202928668e-40, 4.9313514647593935e-40, 5.278256912587645e-40, -5.488507734174941e-40, 5.314564555798301e-40, -4.955706032069359e-40, 5.126804574563419e-40, 5.37672615567575e-40, 5.148790947468675e-40, -5.118018433192102e-40, -5.2643420188369e-40, 5.190773849459847e-40, -5.032034759421132e-40, 5.068916935002161e-40, 5.495023772034051e-40, -5.687856453709789e-40, 4.988174117487765e-40, -5.131106560848896e-40, 4.9694667829890285e-40, -4.966706225014309e-40, -5.418274655142981e-40, 5.118635004516405e-40, 5.003532348656765e-40, -5.5504311133134544e-40, -5.519364326359373e-40, -5.335668110671033e-40, -5.01856828117897e-40, 4.97081202951478e-40, 5.631468203505359e-40, -4.957821992750489e-40, -5.112595408135165e-40, -4.922691440249866e-40, -5.063115559359856e-40, 4.98025678116433e-40, 4.9383019051424446e-40, 5.064068442315597e-40, -4.974049028967371e-40, -4.914255623494631e-40, -5.215702949140185e-40], [-0.0888093113899231, -0.06517913937568665, 0.012370157986879349, 0.030636373907327652, 0.05854984000325203, 0.028956878930330276, -0.012077965773642063, 0.10239412635564804, -0.018995823338627815, -0.03342045471072197, -0.08507721871137619, -0.016726089641451836, 0.03402634710073471, -0.04906631261110306, 0.06144825741648674, -0.023812435567378998, -0.03259175643324852, -0.0003652994055300951, 0.03362163156270981, 0.1045139878988266, -5.033057707300089e-40, 0.05552835389971733, 5.1940809138356535e-40, 4.963511264515648e-40, -4.93521904852093e-40, -5.268083485736647e-40, -4.988033987641332e-40, -0.03929119557142258, -4.974399353583452e-40, 0.022900860756635666, 5.039349537404907e-40, -0.03929119557142258, -4.925171738531721e-40, 4.997450713321595e-40, -5.872449500415297e-40, -4.9921678181110906e-40, -5.4979805117937765e-40, 0.06275693327188492, -5.1491412720847566e-40, 0.015039517544209957], [5.453671454351826e-40, 5.378589882633302e-40, 6.228827725862385e-40, 4.997226505567303e-40, -5.542737984744311e-40, -5.189610771734457e-40, -5.148188389129016e-40, 6.225604739394438e-40, -5.328941878042274e-40, 5.6155354399659854e-40, 4.955425772376494e-40, -5.205249262596322e-40, 5.301182155463999e-40, 5.042656601780714e-40, 6.264518797748738e-40, 5.215688936155542e-40, 5.291961611568742e-40, -4.9136250391856846e-40, -4.983437728678347e-40, 5.03996610872921e-40, 4.978869495684648e-40, -5.132339703497502e-40, 5.141826494100981e-40, 4.90510514452259e-40, 4.982302676922244e-40, 4.964884537010686e-40, -6.199148224387985e-40, -5.0705424412207776e-40, 5.01261276270559e-40, 4.993344908821123e-40, -4.913877272909263e-40, -5.124842756713364e-40, 5.720913084483212e-40, -4.975534405339555e-40, -4.908608390683402e-40, 5.661399938703337e-40, -5.070570467190064e-40, -5.107032253231796e-40, 